digraph Tree {
0 [label="X[2] <= 0.5000\ngini = 0.499948358163\nsamples = 17341", shape="box"] ;
1 [label="X[0] <= 0.0794\ngini = 0.493193817082\nsamples = 16749", shape="box"] ;
0 -> 1 ;
2 [label="X[5] <= 0.5370\ngini = 0.373491771814\nsamples = 13773", shape="box"] ;
1 -> 2 ;
3 [label="X[3] <= 0.4336\ngini = 0.341016550547\nsamples = 13506", shape="box"] ;
2 -> 3 ;
4 [label="X[3] <= 0.1373\ngini = 0.499977632135\nsamples = 3873", shape="box"] ;
3 -> 4 ;
5 [label="X[6] <= 0.5000\ngini = 0.374032065011\nsamples = 897", shape="box"] ;
4 -> 5 ;
6 [label="X[7] <= 0.3761\ngini = 0.362500433527\nsamples = 762", shape="box"] ;
5 -> 6 ;
7 [label="X[14] <= 0.5000\ngini = 0.404464983132\nsamples = 401", shape="box"] ;
6 -> 7 ;
8 [label="X[10] <= 0.5000\ngini = 0.402999909672\nsamples = 394", shape="box"] ;
7 -> 8 ;
9 [label="X[9] <= 0.0140\ngini = 0.388981871941\nsamples = 300", shape="box"] ;
8 -> 9 ;
10 [label="gini = 0.2500\nsamples = 7\nvalue = [  1.82388244  10.63208817]", shape="box"] ;
9 -> 10 ;
11 [label="X[9] <= 0.5075\ngini = 0.393688584044\nsamples = 293", shape="box"] ;
9 -> 11 ;
12 [label="gini = 0.0000\nsamples = 1\nvalue = [ 0.22798531  0.        ]", shape="box"] ;
11 -> 12 ;
13 [label="X[0] <= 0.0339\ngini = 0.393159799609\nsamples = 292", shape="box"] ;
11 -> 13 ;
14 [label="X[8] <= 0.5000\ngini = 0.499840827599\nsamples = 160", shape="box"] ;
13 -> 14 ;
15 [label="gini = 0.4682\nsamples = 92\nvalue = [ 26.44629542  44.30036737]", shape="box"] ;
14 -> 15 ;
16 [label="gini = 0.3875\nsamples = 68\nvalue = [ 24.85039828   8.86007347]", shape="box"] ;
14 -> 16 ;
17 [label="X[7] <= 0.0347\ngini = 0.24700932492\nsamples = 132", shape="box"] ;
13 -> 17 ;
18 [label="gini = 0.2728\nsamples = 61\nvalue = [ 13.45113302  69.10857309]", shape="box"] ;
17 -> 18 ;
19 [label="gini = 0.2255\nsamples = 71\nvalue = [ 13.45113302  90.37274943]", shape="box"] ;
17 -> 19 ;
20 [label="gini = 0.4474\nsamples = 94\nvalue = [ 27.13025134  53.16044084]", shape="box"] ;
8 -> 20 ;
21 [label="gini = 0.4764\nsamples = 7\nvalue = [ 2.27985305  3.54402939]", shape="box"] ;
7 -> 21 ;
22 [label="X[3] <= 0.0935\ngini = 0.318009600636\nsamples = 361", shape="box"] ;
6 -> 22 ;
23 [label="X[7] <= 0.6280\ngini = 0.310721942613\nsamples = 352", shape="box"] ;
22 -> 23 ;
24 [label="gini = 0.2469\nsamples = 75\nvalue = [  17.32688321  102.77685229]", shape="box"] ;
23 -> 24 ;
25 [label="X[3] <= 0.0592\ngini = 0.333116808592\nsamples = 277", shape="box"] ;
23 -> 25 ;
26 [label="X[1] <= 0.0529\ngini = 0.36266921586\nsamples = 213", shape="box"] ;
25 -> 26 ;
27 [label="gini = 0.4164\nsamples = 63\nvalue = [ 17.0988979   40.75633798]", shape="box"] ;
26 -> 27 ;
28 [label="X[7] <= 0.7537\ngini = 0.340741242252\nsamples = 150", shape="box"] ;
26 -> 28 ;
29 [label="X[11] <= 0.5000\ngini = 0.401863991976\nsamples = 103", shape="box"] ;
28 -> 29 ;
30 [label="gini = 0.4181\nsamples = 93\nvalue = [ 25.5343542   60.24849962]", shape="box"] ;
29 -> 30 ;
31 [label="gini = 0.2500\nsamples = 10\nvalue = [  1.82388244  10.63208817]", shape="box"] ;
29 -> 31 ;
32 [label="gini = 0.2248\nsamples = 47\nvalue = [  8.6634416   58.47648492]", shape="box"] ;
28 -> 32 ;
33 [label="gini = 0.2412\nsamples = 64\nvalue = [ 11.85523588  72.65260248]", shape="box"] ;
25 -> 33 ;
34 [label="gini = -0.0000\nsamples = 9\nvalue = [ 3.19179427  0.        ]", shape="box"] ;
22 -> 34 ;
35 [label="X[5] <= 0.4753\ngini = 0.437970375024\nsamples = 135", shape="box"] ;
5 -> 35 ;
36 [label="X[14] <= 0.5000\ngini = 0.41293662743\nsamples = 119", shape="box"] ;
35 -> 36 ;
37 [label="X[9] <= 0.5060\ngini = 0.411758146154\nsamples = 118", shape="box"] ;
36 -> 37 ;
38 [label="gini = 0.0000\nsamples = 5\nvalue = [ 2.50783836  0.        ]", shape="box"] ;
37 -> 38 ;
39 [label="X[0] <= 0.0194\ngini = 0.397931439343\nsamples = 113", shape="box"] ;
37 -> 39 ;
40 [label="gini = 0.0000\nsamples = 23\nvalue = [ 9.11941221  0.        ]", shape="box"] ;
39 -> 40 ;
41 [label="gini = 0.3317\nsamples = 90\nvalue = [ 21.65860401  81.51267595]", shape="box"] ;
39 -> 41 ;
42 [label="gini = 0.0000\nsamples = 1\nvalue = [ 0.22798531  0.        ]", shape="box"] ;
36 -> 42 ;
43 [label="gini = 0.3401\nsamples = 16\nvalue = [ 6.38358855  1.77201469]", shape="box"] ;
35 -> 43 ;
44 [label="X[4] <= 0.0941\ngini = 0.448331605673\nsamples = 2976", shape="box"] ;
4 -> 44 ;
45 [label="gini = 0.2308\nsamples = 96\nvalue = [  16.8709126   109.86491107]", shape="box"] ;
44 -> 45 ;
46 [label="X[5] <= 0.1667\ngini = 0.413015786248\nsamples = 2880", shape="box"] ;
44 -> 46 ;
47 [label="X[5] <= 0.1173\ngini = 0.498297313714\nsamples = 672", shape="box"] ;
46 -> 47 ;
48 [label="X[0] <= 0.0281\ngini = 0.492772915145\nsamples = 228", shape="box"] ;
47 -> 48 ;
49 [label="X[14] <= 0.5000\ngini = 0.278314713182\nsamples = 104", shape="box"] ;
48 -> 49 ;
50 [label="X[5] <= 0.0802\ngini = 0.279515148745\nsamples = 103", shape="box"] ;
49 -> 50 ;
51 [label="gini = 0.0000\nsamples = 33\nvalue = [ 10.94329466   0.        ]", shape="box"] ;
50 -> 51 ;
52 [label="gini = 0.3507\nsamples = 70\nvalue = [ 24.16644237   7.08805878]", shape="box"] ;
50 -> 52 ;
53 [label="gini = -0.0000\nsamples = 1\nvalue = [ 0.22798531  0.        ]", shape="box"] ;
49 -> 53 ;
54 [label="X[4] <= 0.1736\ngini = 0.409692698398\nsamples = 124", shape="box"] ;
48 -> 54 ;
55 [label="gini = 0.2387\nsamples = 38\nvalue = [  6.83955916  42.52835267]", shape="box"] ;
54 -> 55 ;
56 [label="gini = 0.4838\nsamples = 86\nvalue = [ 24.62241298  35.44029389]", shape="box"] ;
54 -> 56 ;
57 [label="X[10] <= 0.5000\ngini = 0.485870000107\nsamples = 444", shape="box"] ;
47 -> 57 ;
58 [label="X[11] <= 0.5000\ngini = 0.492859175285\nsamples = 354", shape="box"] ;
57 -> 58 ;
59 [label="X[0] <= 0.0406\ngini = 0.489900397421\nsamples = 336", shape="box"] ;
58 -> 59 ;
60 [label="X[5] <= 0.1296\ngini = 0.22998949013\nsamples = 231", shape="box"] ;
59 -> 60 ;
61 [label="gini = 0.0000\nsamples = 48\nvalue = [ 17.78285382   0.        ]", shape="box"] ;
60 -> 61 ;
62 [label="X[4] <= 0.1736\ngini = 0.273773718205\nsamples = 183", shape="box"] ;
60 -> 62 ;
63 [label="gini = 0.4868\nsamples = 19\nvalue = [ 6.38358855  8.86007347]", shape="box"] ;
62 -> 63 ;
64 [label="X[4] <= 0.3054\ngini = 0.110226048277\nsamples = 164", shape="box"] ;
62 -> 64 ;
65 [label="X[13] <= 0.5000\ngini = 0.11682575603\nsamples = 153", shape="box"] ;
64 -> 65 ;
66 [label="X[8] <= 0.5000\ngini = 0.117706421261\nsamples = 152", shape="box"] ;
65 -> 66 ;
67 [label="X[12] <= 0.5000\ngini = 0.14236046015\nsamples = 126", shape="box"] ;
66 -> 67 ;
68 [label="gini = 0.0000\nsamples = 100\nvalue = [ 33.74182519   0.        ]", shape="box"] ;
67 -> 68 ;
69 [label="gini = 0.4121\nsamples = 26\nvalue = [ 8.6634416   3.54402939]", shape="box"] ;
67 -> 69 ;
70 [label="gini = -0.0000\nsamples = 26\nvalue = [ 10.48732405   0.        ]", shape="box"] ;
66 -> 70 ;
71 [label="gini = 0.0000\nsamples = 1\nvalue = [ 0.45597061  0.        ]", shape="box"] ;
65 -> 71 ;
72 [label="gini = 0.0000\nsamples = 11\nvalue = [ 3.64776489  0.        ]", shape="box"] ;
64 -> 72 ;
73 [label="X[7] <= 0.2833\ngini = 0.406344317876\nsamples = 105", shape="box"] ;
59 -> 73 ;
74 [label="gini = 0.4962\nsamples = 77\nvalue = [ 22.34255992  26.58022042]", shape="box"] ;
73 -> 74 ;
75 [label="gini = 0.1887\nsamples = 28\nvalue = [  5.01567672  42.52835267]", shape="box"] ;
73 -> 75 ;
76 [label="gini = 0.4868\nsamples = 18\nvalue = [ 6.38358855  8.86007347]", shape="box"] ;
58 -> 76 ;
77 [label="gini = 0.4173\nsamples = 90\nvalue = [ 29.41010439  12.40410286]", shape="box"] ;
57 -> 77 ;
78 [label="X[8] <= 0.5000\ngini = 0.343035356178\nsamples = 2208", shape="box"] ;
46 -> 78 ;
79 [label="X[1] <= 0.4690\ngini = 0.2833412318\nsamples = 1616", shape="box"] ;
78 -> 79 ;
80 [label="gini = 0.4210\nsamples = 56\nvalue = [ 15.27501546  35.44029389]", shape="box"] ;
79 -> 80 ;
81 [label="X[12] <= 0.5000\ngini = 0.225160419149\nsamples = 1560", shape="box"] ;
79 -> 81 ;
82 [label="X[4] <= 0.1736\ngini = 0.161668668554\nsamples = 1355", shape="box"] ;
81 -> 82 ;
83 [label="X[3] <= 0.1665\ngini = 0.264476491406\nsamples = 362", shape="box"] ;
82 -> 83 ;
84 [label="gini = 0.2712\nsamples = 8\nvalue = [  2.05186775  10.63208817]", shape="box"] ;
83 -> 84 ;
85 [label="X[13] <= 0.5000\ngini = 0.175880058803\nsamples = 354", shape="box"] ;
83 -> 85 ;
86 [label="X[3] <= 0.1754\ngini = 0.160949278145\nsamples = 345", shape="box"] ;
85 -> 86 ;
87 [label="X[5] <= 0.5247\ngini = 0.0407246035076\nsamples = 213", shape="box"] ;
86 -> 87 ;
88 [label="gini = 0.0000\nsamples = 210\nvalue = [ 82.98665115   0.        ]", shape="box"] ;
87 -> 88 ;
89 [label="gini = 0.3255\nsamples = 3\nvalue = [ 0.45597061  1.77201469]", shape="box"] ;
87 -> 89 ;
90 [label="X[14] <= 0.5000\ngini = 0.31052100836\nsamples = 132", shape="box"] ;
86 -> 90 ;
91 [label="X[10] <= 0.5000\ngini = 0.326858937008\nsamples = 122", shape="box"] ;
90 -> 91 ;
92 [label="X[3] <= 0.1780\ngini = 0.306282758801\nsamples = 113", shape="box"] ;
91 -> 92 ;
93 [label="gini = 0.4425\nsamples = 47\nvalue = [ 14.36307424   7.08805878]", shape="box"] ;
92 -> 93 ;
94 [label="gini = 0.1294\nsamples = 66\nvalue = [ 23.71047176   1.77201469]", shape="box"] ;
92 -> 94 ;
95 [label="gini = 0.4683\nsamples = 9\nvalue = [ 2.96380897  1.77201469]", shape="box"] ;
91 -> 95 ;
96 [label="gini = -0.0000\nsamples = 10\nvalue = [ 3.64776489  0.        ]", shape="box"] ;
90 -> 96 ;
97 [label="gini = 0.4591\nsamples = 9\nvalue = [ 3.19179427  1.77201469]", shape="box"] ;
85 -> 97 ;
98 [label="X[14] <= 0.5000\ngini = 0.113557390566\nsamples = 993", shape="box"] ;
82 -> 98 ;
99 [label="X[0] <= 0.0391\ngini = 0.119431819063\nsamples = 870", shape="box"] ;
98 -> 99 ;
100 [label="gini = 0.0000\nsamples = 539\nvalue = [ 192.87556833    0.        ]", shape="box"] ;
99 -> 100 ;
101 [label="X[11] <= 0.5000\ngini = 0.256880667577\nsamples = 331", shape="box"] ;
99 -> 101 ;
102 [label="X[5] <= 0.5247\ngini = 0.25825764325\nsamples = 329", shape="box"] ;
101 -> 102 ;
103 [label="X[13] <= 0.5000\ngini = 0.242863114077\nsamples = 328", shape="box"] ;
102 -> 103 ;
104 [label="X[5] <= 0.3519\ngini = 0.245576533827\nsamples = 322", shape="box"] ;
103 -> 104 ;
105 [label="X[5] <= 0.3272\ngini = 0.293026411709\nsamples = 254", shape="box"] ;
104 -> 105 ;
106 [label="X[5] <= 0.2531\ngini = 0.270426999118\nsamples = 232", shape="box"] ;
105 -> 106 ;
107 [label="X[5] <= 0.2407\ngini = 0.323231060247\nsamples = 137", shape="box"] ;
106 -> 107 ;
108 [label="X[0] <= 0.0530\ngini = 0.23632549392\nsamples = 122", shape="box"] ;
107 -> 108 ;
109 [label="gini = 0.4053\nsamples = 55\nvalue = [ 18.01083912   7.08805878]", shape="box"] ;
108 -> 109 ;
110 [label="gini = -0.0000\nsamples = 67\nvalue = [ 26.67428073   0.        ]", shape="box"] ;
108 -> 110 ;
111 [label="gini = 0.4917\nsamples = 15\nvalue = [ 4.1037355   5.31604408]", shape="box"] ;
107 -> 111 ;
112 [label="gini = 0.1702\nsamples = 95\nvalue = [ 34.1977958    3.54402939]", shape="box"] ;
106 -> 112 ;
113 [label="gini = 0.4496\nsamples = 22\nvalue = [ 6.83955916  3.54402939]", shape="box"] ;
105 -> 113 ;
114 [label="gini = 0.0000\nsamples = 68\nvalue = [ 26.67428073   0.        ]", shape="box"] ;
104 -> 114 ;
115 [label="gini = -0.0000\nsamples = 6\nvalue = [ 1.82388244  0.        ]", shape="box"] ;
103 -> 115 ;
116 [label="gini = 0.0000\nsamples = 1\nvalue = [ 0.          1.77201469]", shape="box"] ;
102 -> 116 ;
117 [label="gini = 0.0000\nsamples = 2\nvalue = [ 0.91194122  0.        ]", shape="box"] ;
101 -> 117 ;
118 [label="X[5] <= 0.5123\ngini = 0.0713583402682\nsamples = 123", shape="box"] ;
98 -> 118 ;
119 [label="gini = 0.0000\nsamples = 120\nvalue = [ 45.36907576   0.        ]", shape="box"] ;
118 -> 119 ;
120 [label="gini = 0.4019\nsamples = 3\nvalue = [ 0.68395592  1.77201469]", shape="box"] ;
118 -> 120 ;
121 [label="X[5] <= 0.2778\ngini = 0.447731559134\nsamples = 205", shape="box"] ;
81 -> 121 ;
122 [label="X[5] <= 0.2654\ngini = 0.200489083445\nsamples = 114", shape="box"] ;
121 -> 122 ;
123 [label="X[14] <= 0.5000\ngini = 0.157374192114\nsamples = 100", shape="box"] ;
122 -> 123 ;
124 [label="gini = 0.1582\nsamples = 99\nvalue = [ 37.38959008   3.54402939]", shape="box"] ;
123 -> 124 ;
125 [label="gini = -0.0000\nsamples = 1\nvalue = [ 0.22798531  0.        ]", shape="box"] ;
123 -> 125 ;
126 [label="gini = 0.4213\nsamples = 14\nvalue = [ 4.1037355   1.77201469]", shape="box"] ;
122 -> 126 ;
127 [label="gini = 0.4990\nsamples = 91\nvalue = [ 27.58622195  30.12424981]", shape="box"] ;
121 -> 127 ;
128 [label="X[1] <= 0.4690\ngini = 0.443284866778\nsamples = 592", shape="box"] ;
78 -> 128 ;
129 [label="gini = 0.4225\nsamples = 66\nvalue = [ 16.18695668  37.21230859]", shape="box"] ;
128 -> 129 ;
130 [label="X[7] <= 0.3051\ngini = 0.378923459504\nsamples = 526", shape="box"] ;
128 -> 130 ;
131 [label="X[3] <= 0.1621\ngini = 0.151612826078\nsamples = 361", shape="box"] ;
130 -> 131 ;
132 [label="X[3] <= 0.1437\ngini = 0.074310106266\nsamples = 343", shape="box"] ;
131 -> 132 ;
133 [label="X[9] <= 0.5060\ngini = 0.17720093547\nsamples = 125", shape="box"] ;
132 -> 133 ;
134 [label="gini = 0.0000\nsamples = 1\nvalue = [ 0.22798531  0.        ]", shape="box"] ;
133 -> 134 ;
135 [label="X[5] <= 0.2284\ngini = 0.177868729392\nsamples = 124", shape="box"] ;
133 -> 135 ;
136 [label="gini = 0.3145\nsamples = 57\nvalue = [ 21.88658931   5.31604408]", shape="box"] ;
135 -> 136 ;
137 [label="gini = -0.0000\nsamples = 67\nvalue = [ 26.67428073   0.        ]", shape="box"] ;
135 -> 137 ;
138 [label="gini = 0.0000\nsamples = 218\nvalue = [ 83.44262176   0.        ]", shape="box"] ;
132 -> 138 ;
139 [label="gini = 0.4917\nsamples = 18\nvalue = [ 5.47164733  7.08805878]", shape="box"] ;
131 -> 139 ;
140 [label="X[5] <= 0.2901\ngini = 0.49986064757\nsamples = 165", shape="box"] ;
130 -> 140 ;
141 [label="gini = 0.4907\nsamples = 99\nvalue = [ 29.6380897   38.98432328]", shape="box"] ;
140 -> 141 ;
142 [label="gini = 0.4722\nsamples = 66\nvalue = [ 20.06270687  12.40410286]", shape="box"] ;
140 -> 142 ;
143 [label="X[6] <= 0.5000\ngini = 0.0476862707794\nsamples = 9633", shape="box"] ;
3 -> 143 ;
144 [label="X[5] <= 0.0679\ngini = 0.02688305372\nsamples = 9611", shape="box"] ;
143 -> 144 ;
145 [label="gini = 0.2725\nsamples = 27\nvalue = [ 9.11941221  1.77201469]", shape="box"] ;
144 -> 145 ;
146 [label="X[8] <= 0.5000\ngini = 0.0259801535893\nsamples = 9584", shape="box"] ;
144 -> 146 ;
147 [label="X[1] <= 0.8688\ngini = 0.0294574160916\nsamples = 6821", shape="box"] ;
146 -> 147 ;
148 [label="X[5] <= 0.4383\ngini = 0.00923877560778\nsamples = 2140", shape="box"] ;
147 -> 148 ;
149 [label="gini = 0.0000\nsamples = 1892\nvalue = [ 676.88837159    0.        ]", shape="box"] ;
148 -> 149 ;
150 [label="X[10] <= 0.5000\ngini = 0.0783612401803\nsamples = 248", shape="box"] ;
148 -> 150 ;
151 [label="X[5] <= 0.4506\ngini = 0.101610574462\nsamples = 189", shape="box"] ;
150 -> 151 ;
152 [label="gini = 0.3401\nsamples = 38\nvalue = [ 12.7671771    3.54402939]", shape="box"] ;
151 -> 152 ;
153 [label="gini = -0.0000\nsamples = 151\nvalue = [ 49.70079657   0.        ]", shape="box"] ;
151 -> 153 ;
154 [label="gini = 0.0000\nsamples = 59\nvalue = [ 20.74666279   0.        ]", shape="box"] ;
150 -> 154 ;
155 [label="X[7] <= 0.4369\ngini = 0.0382718092045\nsamples = 4681", shape="box"] ;
147 -> 155 ;
156 [label="X[11] <= 0.5000\ngini = 0.101098237882\nsamples = 790", shape="box"] ;
155 -> 156 ;
157 [label="X[3] <= 0.8125\ngini = 0.101317178969\nsamples = 788", shape="box"] ;
156 -> 157 ;
158 [label="X[14] <= 0.5000\ngini = 0.0480167296613\nsamples = 781", shape="box"] ;
157 -> 158 ;
159 [label="X[10] <= 0.5000\ngini = 0.051260438832\nsamples = 729", shape="box"] ;
158 -> 159 ;
160 [label="X[5] <= 0.1914\ngini = 0.0616740614109\nsamples = 598", shape="box"] ;
159 -> 160 ;
161 [label="X[12] <= 0.5000\ngini = 0.136761936261\nsamples = 134", shape="box"] ;
160 -> 161 ;
162 [label="X[3] <= 0.7853\ngini = 0.154277516147\nsamples = 113", shape="box"] ;
161 -> 162 ;
163 [label="gini = 0.2247\nsamples = 62\nvalue = [ 23.93845706   3.54402939]", shape="box"] ;
162 -> 163 ;
164 [label="gini = -0.0000\nsamples = 51\nvalue = [ 14.59105954   0.        ]", shape="box"] ;
162 -> 164 ;
165 [label="gini = -0.0000\nsamples = 21\nvalue = [ 5.92761794  0.        ]", shape="box"] ;
161 -> 165 ;
166 [label="X[3] <= 0.7741\ngini = 0.0397869162914\nsamples = 464", shape="box"] ;
160 -> 166 ;
167 [label="gini = 0.0000\nsamples = 98\nvalue = [ 38.5295166   0.       ]", shape="box"] ;
166 -> 167 ;
168 [label="X[13] <= 0.5000\ngini = 0.0507586638034\nsamples = 366", shape="box"] ;
166 -> 168 ;
169 [label="X[5] <= 0.3642\ngini = 0.027098234499\nsamples = 351", shape="box"] ;
168 -> 169 ;
170 [label="gini = -0.0000\nsamples = 250\nvalue = [ 90.28218092   0.        ]", shape="box"] ;
169 -> 170 ;
171 [label="X[12] <= 0.5000\ngini = 0.0873717048649\nsamples = 101", shape="box"] ;
169 -> 171 ;
172 [label="gini = 0.0000\nsamples = 83\nvalue = [ 31.00600153   0.        ]", shape="box"] ;
171 -> 172 ;
173 [label="gini = 0.3544\nsamples = 18\nvalue = [ 5.92761794  1.77201469]", shape="box"] ;
171 -> 173 ;
174 [label="gini = 0.3776\nsamples = 15\nvalue = [ 5.24366202  1.77201469]", shape="box"] ;
168 -> 174 ;
175 [label="gini = -0.0000\nsamples = 131\nvalue = [ 46.7369876   0.       ]", shape="box"] ;
159 -> 175 ;
176 [label="gini = -0.0000\nsamples = 52\nvalue = [ 18.69479504   0.        ]", shape="box"] ;
158 -> 176 ;
177 [label="gini = 0.2020\nsamples = 7\nvalue = [ 1.13992653  8.86007347]", shape="box"] ;
157 -> 177 ;
178 [label="gini = 0.0000\nsamples = 2\nvalue = [ 0.68395592  0.        ]", shape="box"] ;
156 -> 178 ;
179 [label="X[5] <= 0.5123\ngini = 0.0245366081258\nsamples = 3891", shape="box"] ;
155 -> 179 ;
180 [label="X[4] <= 0.3577\ngini = 0.0201948534374\nsamples = 3799", shape="box"] ;
179 -> 180 ;
181 [label="X[5] <= 0.3395\ngini = 0.0346328429516\nsamples = 1665", shape="box"] ;
180 -> 181 ;
182 [label="X[0] <= 0.0517\ngini = 0.0083864782672\nsamples = 1179", shape="box"] ;
181 -> 182 ;
183 [label="gini = 0.0000\nsamples = 981\nvalue = [ 350.41341432    0.        ]", shape="box"] ;
182 -> 183 ;
184 [label="X[5] <= 0.1914\ngini = 0.0490771957985\nsamples = 198", shape="box"] ;
182 -> 184 ;
185 [label="gini = 0.0960\nsamples = 92\nvalue = [ 33.28585458   1.77201469]", shape="box"] ;
184 -> 185 ;
186 [label="gini = -0.0000\nsamples = 106\nvalue = [ 35.33772233   0.        ]", shape="box"] ;
184 -> 186 ;
187 [label="X[12] <= 0.5000\ngini = 0.092451608941\nsamples = 486", shape="box"] ;
181 -> 187 ;
188 [label="X[14] <= 0.5000\ngini = 0.108238126231\nsamples = 412", shape="box"] ;
187 -> 188 ;
189 [label="X[0] <= 0.0463\ngini = 0.118241189205\nsamples = 372", shape="box"] ;
188 -> 189 ;
190 [label="gini = -0.0000\nsamples = 278\nvalue = [ 98.94562252   0.        ]", shape="box"] ;
189 -> 190 ;
191 [label="gini = 0.3361\nsamples = 94\nvalue = [ 32.60189867   8.86007347]", shape="box"] ;
189 -> 191 ;
192 [label="gini = -0.0000\nsamples = 40\nvalue = [ 13.90710363   0.        ]", shape="box"] ;
188 -> 192 ;
193 [label="gini = -0.0000\nsamples = 74\nvalue = [ 28.04219256   0.        ]", shape="box"] ;
187 -> 193 ;
194 [label="X[0] <= 0.0753\ngini = 0.00897216224296\nsamples = 2134", shape="box"] ;
180 -> 194 ;
195 [label="X[7] <= 0.6834\ngini = 0.00456592851028\nsamples = 2103", shape="box"] ;
194 -> 195 ;
196 [label="gini = 0.0000\nsamples = 957\nvalue = [ 348.81751719    0.        ]", shape="box"] ;
195 -> 196 ;
197 [label="X[5] <= 0.3025\ngini = 0.00829253020098\nsamples = 1146", shape="box"] ;
195 -> 197 ;
198 [label="gini = 0.0000\nsamples = 645\nvalue = [ 239.15658531    0.        ]", shape="box"] ;
197 -> 198 ;
199 [label="X[0] <= 0.0591\ngini = 0.018828272658\nsamples = 501", shape="box"] ;
197 -> 199 ;
200 [label="gini = -0.0000\nsamples = 437\nvalue = [ 158.44978722    0.        ]", shape="box"] ;
199 -> 200 ;
201 [label="gini = 0.1186\nsamples = 64\nvalue = [ 26.21831012   1.77201469]", shape="box"] ;
199 -> 201 ;
202 [label="gini = 0.2512\nsamples = 31\nvalue = [ 10.25933874   1.77201469]", shape="box"] ;
194 -> 202 ;
203 [label="gini = 0.1739\nsamples = 92\nvalue = [ 33.28585458   3.54402939]", shape="box"] ;
179 -> 203 ;
204 [label="X[1] <= 0.8688\ngini = 0.0173684387799\nsamples = 2763", shape="box"] ;
146 -> 204 ;
205 [label="gini = 0.0000\nsamples = 554\nvalue = [ 198.11923035    0.        ]", shape="box"] ;
204 -> 205 ;
206 [label="X[1] <= 0.9389\ngini = 0.0215534258495\nsamples = 2209", shape="box"] ;
204 -> 206 ;
207 [label="X[10] <= 0.5000\ngini = 0.0602221130099\nsamples = 471", shape="box"] ;
206 -> 207 ;
208 [label="X[13] <= 0.5000\ngini = 0.0692423582081\nsamples = 396", shape="box"] ;
207 -> 208 ;
209 [label="X[0] <= 0.0544\ngini = 0.0694483011194\nsamples = 395", shape="box"] ;
208 -> 209 ;
210 [label="X[11] <= 0.5000\ngini = 0.0280769186909\nsamples = 338", shape="box"] ;
209 -> 210 ;
211 [label="X[0] <= 0.0282\ngini = 0.0281277115387\nsamples = 337", shape="box"] ;
210 -> 211 ;
212 [label="gini = -0.0000\nsamples = 219\nvalue = [ 79.11090096   0.        ]", shape="box"] ;
211 -> 212 ;
213 [label="X[5] <= 0.5000\ngini = 0.0755113568551\nsamples = 118", shape="box"] ;
211 -> 213 ;
214 [label="gini = 0.0000\nsamples = 114\nvalue = [ 42.4052668   0.       ]", shape="box"] ;
213 -> 214 ;
215 [label="gini = 0.4487\nsamples = 4\nvalue = [ 0.91194122  1.77201469]", shape="box"] ;
213 -> 215 ;
216 [label="gini = -0.0000\nsamples = 1\nvalue = [ 0.22798531  0.        ]", shape="box"] ;
210 -> 216 ;
217 [label="gini = 0.2593\nsamples = 57\nvalue = [ 19.60673626   3.54402939]", shape="box"] ;
209 -> 217 ;
218 [label="gini = 0.0000\nsamples = 1\nvalue = [ 0.45597061  0.        ]", shape="box"] ;
208 -> 218 ;
219 [label="gini = 0.0000\nsamples = 75\nvalue = [ 23.02651584   0.        ]", shape="box"] ;
207 -> 219 ;
220 [label="X[3] <= 0.9818\ngini = 0.0109774173935\nsamples = 1738", shape="box"] ;
206 -> 220 ;
221 [label="gini = 0.0000\nsamples = 1248\nvalue = [ 461.89822864    0.        ]", shape="box"] ;
220 -> 221 ;
222 [label="X[3] <= 0.9820\ngini = 0.0385539584698\nsamples = 490", shape="box"] ;
220 -> 222 ;
223 [label="X[12] <= 0.5000\ngini = 0.100627085089\nsamples = 168", shape="box"] ;
222 -> 223 ;
224 [label="X[5] <= 0.2778\ngini = 0.120429483627\nsamples = 134", shape="box"] ;
223 -> 224 ;
225 [label="gini = 0.2112\nsamples = 70\nvalue = [ 25.99032481   3.54402939]", shape="box"] ;
224 -> 225 ;
226 [label="gini = -0.0000\nsamples = 64\nvalue = [ 25.5343542   0.       ]", shape="box"] ;
224 -> 226 ;
227 [label="gini = -0.0000\nsamples = 34\nvalue = [ 11.62725057   0.        ]", shape="box"] ;
223 -> 227 ;
228 [label="gini = -0.0000\nsamples = 322\nvalue = [ 113.53668206    0.        ]", shape="box"] ;
222 -> 228 ;
229 [label="gini = 0.1226\nsamples = 22\nvalue = [  2.73582366  38.98432328]", shape="box"] ;
143 -> 229 ;
230 [label="X[0] <= 0.0198\ngini = 0.304506255979\nsamples = 267", shape="box"] ;
2 -> 230 ;
231 [label="gini = 0.1908\nsamples = 43\nvalue = [ 14.81904485   1.77201469]", shape="box"] ;
230 -> 231 ;
232 [label="X[0] <= 0.0381\ngini = 0.254119875422\nsamples = 224", shape="box"] ;
230 -> 232 ;
233 [label="X[7] <= 0.6280\ngini = 0.337414391436\nsamples = 106", shape="box"] ;
232 -> 233 ;
234 [label="gini = 0.2949\nsamples = 92\nvalue = [ 20.97464809  95.68879351]", shape="box"] ;
233 -> 234 ;
235 [label="gini = 0.3618\nsamples = 14\nvalue = [ 5.69963263  1.77201469]", shape="box"] ;
233 -> 235 ;
236 [label="X[9] <= 0.5105\ngini = 0.188295272811\nsamples = 118", shape="box"] ;
232 -> 236 ;
237 [label="gini = 0.0000\nsamples = 5\nvalue = [  0.          15.94813225]", shape="box"] ;
236 -> 237 ;
238 [label="X[13] <= 0.5000\ngini = 0.203847736968\nsamples = 113", shape="box"] ;
236 -> 238 ;
239 [label="X[3] <= 0.0219\ngini = 0.193682319065\nsamples = 100", shape="box"] ;
238 -> 239 ;
240 [label="gini = 0.0809\nsamples = 26\nvalue = [  2.73582366  62.02051431]", shape="box"] ;
239 -> 240 ;
241 [label="gini = 0.2667\nsamples = 74\nvalue = [ 13.67911832  72.65260248]", shape="box"] ;
239 -> 241 ;
242 [label="gini = 0.2860\nsamples = 13\nvalue = [  2.96380897  14.17611756]", shape="box"] ;
238 -> 242 ;
243 [label="X[7] <= 0.6839\ngini = 0.327567462106\nsamples = 2976", shape="box"] ;
1 -> 243 ;
244 [label="X[0] <= 0.1148\ngini = 0.290594671629\nsamples = 1991", shape="box"] ;
243 -> 244 ;
245 [label="X[7] <= 0.6610\ngini = 0.424821565558\nsamples = 905", shape="box"] ;
244 -> 245 ;
246 [label="X[5] <= 0.5864\ngini = 0.380707206616\nsamples = 677", shape="box"] ;
245 -> 246 ;
247 [label="X[3] <= 0.1431\ngini = 0.392781904401\nsamples = 660", shape="box"] ;
246 -> 247 ;
248 [label="X[0] <= 0.1140\ngini = 0.152076596785\nsamples = 121", shape="box"] ;
247 -> 248 ;
249 [label="X[10] <= 0.5000\ngini = 0.147164603\nsamples = 118", shape="box"] ;
248 -> 249 ;
250 [label="gini = 0.1210\nsamples = 94\nvalue = [  11.39926527  164.7973666 ]", shape="box"] ;
249 -> 250 ;
251 [label="gini = 0.2572\nsamples = 24\nvalue = [  5.69963263  31.8962645 ]", shape="box"] ;
249 -> 251 ;
252 [label="gini = 0.0000\nsamples = 3\nvalue = [ 0.68395592  0.        ]", shape="box"] ;
248 -> 252 ;
253 [label="X[7] <= 0.2599\ngini = 0.45995905444\nsamples = 539", shape="box"] ;
247 -> 253 ;
254 [label="gini = 0.0251\nsamples = 5\nvalue = [  0.22798531  17.72014695]", shape="box"] ;
253 -> 254 ;
255 [label="X[14] <= 0.5000\ngini = 0.467814857042\nsamples = 534", shape="box"] ;
253 -> 255 ;
256 [label="X[5] <= 0.1914\ngini = 0.461383050188\nsamples = 506", shape="box"] ;
255 -> 256 ;
257 [label="X[3] <= 0.1598\ngini = 0.409060087329\nsamples = 147", shape="box"] ;
256 -> 257 ;
258 [label="gini = 0.4996\nsamples = 60\nvalue = [ 18.69479504  17.72014695]", shape="box"] ;
257 -> 258 ;
259 [label="gini = 0.3276\nsamples = 87\nvalue = [ 21.2026334   81.51267595]", shape="box"] ;
257 -> 259 ;
260 [label="X[1] <= 0.4690\ngini = 0.479653041338\nsamples = 359", shape="box"] ;
256 -> 260 ;
261 [label="gini = 0.0000\nsamples = 3\nvalue = [  0.          12.40410286]", shape="box"] ;
260 -> 261 ;
262 [label="X[0] <= 0.0881\ngini = 0.486636561189\nsamples = 356", shape="box"] ;
260 -> 262 ;
263 [label="X[4] <= 0.4916\ngini = 0.431569770544\nsamples = 122", shape="box"] ;
262 -> 263 ;
264 [label="gini = 0.3776\nsamples = 82\nvalue = [ 26.21831012   8.86007347]", shape="box"] ;
263 -> 264 ;
265 [label="gini = 0.4867\nsamples = 40\nvalue = [ 12.31120649   8.86007347]", shape="box"] ;
263 -> 265 ;
266 [label="X[9] <= 0.5060\ngini = 0.451472232839\nsamples = 234", shape="box"] ;
262 -> 266 ;
267 [label="gini = 0.0000\nsamples = 1\nvalue = [ 0.          5.31604408]", shape="box"] ;
266 -> 267 ;
268 [label="X[0] <= 0.1058\ngini = 0.457077836752\nsamples = 233", shape="box"] ;
266 -> 268 ;
269 [label="X[5] <= 0.5000\ngini = 0.490529256199\nsamples = 164", shape="box"] ;
268 -> 269 ;
270 [label="X[6] <= 0.5000\ngini = 0.496437603917\nsamples = 156", shape="box"] ;
269 -> 270 ;
271 [label="X[3] <= 0.1703\ngini = 0.498632731265\nsamples = 154", shape="box"] ;
270 -> 271 ;
272 [label="gini = 0.4372\nsamples = 54\nvalue = [ 14.36307424  30.12424981]", shape="box"] ;
271 -> 272 ;
273 [label="X[3] <= 0.9820\ngini = 0.482835467074\nsamples = 100", shape="box"] ;
271 -> 273 ;
274 [label="gini = 0.4944\nsamples = 85\nvalue = [ 28.49816317  23.03619103]", shape="box"] ;
273 -> 274 ;
275 [label="gini = -0.0000\nsamples = 15\nvalue = [ 5.01567672  0.        ]", shape="box"] ;
273 -> 275 ;
276 [label="gini = 0.0000\nsamples = 2\nvalue = [ 0.          3.54402939]", shape="box"] ;
270 -> 276 ;
277 [label="gini = 0.2831\nsamples = 8\nvalue = [ 1.82388244  8.86007347]", shape="box"] ;
269 -> 277 ;
278 [label="gini = 0.3694\nsamples = 69\nvalue = [ 20.06270687  62.02051431]", shape="box"] ;
268 -> 278 ;
279 [label="gini = 0.3858\nsamples = 28\nvalue = [ 10.03135344   3.54402939]", shape="box"] ;
255 -> 279 ;
280 [label="gini = 0.0789\nsamples = 17\nvalue = [  1.59589714  37.21230859]", shape="box"] ;
246 -> 280 ;
281 [label="X[12] <= 0.5000\ngini = 0.489927811392\nsamples = 228", shape="box"] ;
245 -> 281 ;
282 [label="X[10] <= 0.5000\ngini = 0.495411846492\nsamples = 198", shape="box"] ;
281 -> 282 ;
283 [label="X[0] <= 0.1079\ngini = 0.474424388425\nsamples = 156", shape="box"] ;
282 -> 283 ;
284 [label="X[8] <= 0.5000\ngini = 0.408444589037\nsamples = 130", shape="box"] ;
283 -> 284 ;
285 [label="X[0] <= 0.0965\ngini = 0.351916059864\nsamples = 106", shape="box"] ;
284 -> 285 ;
286 [label="gini = 0.1338\nsamples = 65\nvalue = [ 22.79853054   1.77201469]", shape="box"] ;
285 -> 286 ;
287 [label="gini = 0.4805\nsamples = 41\nvalue = [ 13.22314771   8.86007347]", shape="box"] ;
285 -> 287 ;
288 [label="gini = 0.4973\nsamples = 24\nvalue = [ 8.20747099  7.08805878]", shape="box"] ;
284 -> 288 ;
289 [label="gini = 0.4629\nsamples = 26\nvalue = [  9.11941221  15.94813225]", shape="box"] ;
283 -> 289 ;
290 [label="gini = 0.4728\nsamples = 42\nvalue = [ 13.22314771  21.26417634]", shape="box"] ;
282 -> 290 ;
291 [label="gini = 0.2771\nsamples = 30\nvalue = [ 8.89142691  1.77201469]", shape="box"] ;
281 -> 291 ;
292 [label="X[14] <= 0.5000\ngini = 0.20217772421\nsamples = 1086", shape="box"] ;
244 -> 292 ;
293 [label="X[1] <= 0.4690\ngini = 0.209737491549\nsamples = 1033", shape="box"] ;
292 -> 293 ;
294 [label="X[0] <= 0.4444\ngini = 0.111051120689\nsamples = 101", shape="box"] ;
293 -> 294 ;
295 [label="gini = 0.1060\nsamples = 99\nvalue = [  12.53919179  210.86974866]", shape="box"] ;
294 -> 295 ;
296 [label="gini = -0.0000\nsamples = 2\nvalue = [ 0.68395592  0.        ]", shape="box"] ;
294 -> 296 ;
297 [label="X[5] <= 0.2037\ngini = 0.224433576328\nsamples = 932", shape="box"] ;
293 -> 297 ;
298 [label="X[10] <= 0.5000\ngini = 0.178461751727\nsamples = 312", shape="box"] ;
297 -> 298 ;
299 [label="X[11] <= 0.5000\ngini = 0.200456545555\nsamples = 260", shape="box"] ;
298 -> 299 ;
300 [label="X[8] <= 0.5000\ngini = 0.2011959359\nsamples = 251", shape="box"] ;
299 -> 300 ;
301 [label="X[3] <= 0.1478\ngini = 0.185531589558\nsamples = 168", shape="box"] ;
300 -> 301 ;
302 [label="gini = 0.0625\nsamples = 23\nvalue = [  1.59589714  47.84439676]", shape="box"] ;
301 -> 302 ;
303 [label="X[13] <= 0.5000\ngini = 0.210466174022\nsamples = 145", shape="box"] ;
301 -> 303 ;
304 [label="X[0] <= 0.1317\ngini = 0.209070374062\nsamples = 144", shape="box"] ;
303 -> 304 ;
305 [label="gini = 0.3775\nsamples = 38\nvalue = [  9.57538282  28.35223511]", shape="box"] ;
304 -> 305 ;
306 [label="X[5] <= 0.1049\ngini = 0.164757134137\nsamples = 106", shape="box"] ;
304 -> 306 ;
307 [label="gini = 0.3757\nsamples = 12\nvalue = [ 2.96380897  8.86007347]", shape="box"] ;
306 -> 307 ;
308 [label="gini = 0.1462\nsamples = 94\nvalue = [  13.45113302  155.93729313]", shape="box"] ;
306 -> 308 ;
309 [label="gini = -0.0000\nsamples = 1\nvalue = [ 0.22798531  0.        ]", shape="box"] ;
303 -> 309 ;
310 [label="gini = 0.2346\nsamples = 83\nvalue = [  16.41494199  104.54886698]", shape="box"] ;
300 -> 310 ;
311 [label="gini = 0.1819\nsamples = 9\nvalue = [  1.59589714  14.17611756]", shape="box"] ;
299 -> 311 ;
312 [label="gini = 0.0887\nsamples = 52\nvalue = [   5.01567672  102.77685229]", shape="box"] ;
298 -> 312 ;
313 [label="X[1] <= 0.9389\ngini = 0.250077572158\nsamples = 620", shape="box"] ;
297 -> 313 ;
314 [label="X[0] <= 0.1701\ngini = 0.267761539157\nsamples = 312", shape="box"] ;
313 -> 314 ;
315 [label="X[13] <= 0.5000\ngini = 0.385863890503\nsamples = 181", shape="box"] ;
314 -> 315 ;
316 [label="X[5] <= 0.2778\ngini = 0.384966056917\nsamples = 180", shape="box"] ;
315 -> 316 ;
317 [label="gini = 0.2807\nsamples = 64\nvalue = [ 13.67911832  67.3365584 ]", shape="box"] ;
316 -> 317 ;
318 [label="X[3] <= 0.1742\ngini = 0.445679489947\nsamples = 116", shape="box"] ;
316 -> 318 ;
319 [label="gini = 0.2923\nsamples = 45\nvalue = [  9.57538282  44.30036737]", shape="box"] ;
318 -> 319 ;
320 [label="gini = 0.4988\nsamples = 71\nvalue = [ 23.48248645  21.26417634]", shape="box"] ;
318 -> 320 ;
321 [label="gini = -0.0000\nsamples = 1\nvalue = [ 0.22798531  0.        ]", shape="box"] ;
315 -> 321 ;
322 [label="X[4] <= 0.4017\ngini = 0.149508020423\nsamples = 131", shape="box"] ;
314 -> 322 ;
323 [label="X[3] <= 0.1703\ngini = 0.146515510742\nsamples = 130", shape="box"] ;
322 -> 323 ;
324 [label="gini = 0.1069\nsamples = 59\nvalue = [   6.38358855  106.32088168]", shape="box"] ;
323 -> 324 ;
325 [label="gini = 0.1812\nsamples = 71\nvalue = [  12.31120649  109.86491107]", shape="box"] ;
323 -> 325 ;
326 [label="gini = 0.0000\nsamples = 1\nvalue = [ 0.45597061  0.        ]", shape="box"] ;
322 -> 326 ;
327 [label="X[4] <= 0.4770\ngini = 0.233127664927\nsamples = 308", shape="box"] ;
313 -> 327 ;
328 [label="X[13] <= 0.5000\ngini = 0.257596631539\nsamples = 179", shape="box"] ;
327 -> 328 ;
329 [label="X[3] <= 0.9802\ngini = 0.248429934198\nsamples = 169", shape="box"] ;
328 -> 329 ;
330 [label="gini = 0.0864\nsamples = 15\nvalue = [  1.59589714  33.6682792 ]", shape="box"] ;
329 -> 330 ;
331 [label="X[3] <= 0.9806\ngini = 0.272470050613\nsamples = 154", shape="box"] ;
329 -> 331 ;
332 [label="gini = 0.0000\nsamples = 5\nvalue = [ 1.36791183  0.        ]", shape="box"] ;
331 -> 332 ;
333 [label="X[8] <= 0.5000\ngini = 0.264748423615\nsamples = 149", shape="box"] ;
331 -> 333 ;
334 [label="X[10] <= 0.5000\ngini = 0.310843450713\nsamples = 109", shape="box"] ;
333 -> 334 ;
335 [label="gini = 0.3275\nsamples = 88\nvalue = [ 22.11457462  85.05670534]", shape="box"] ;
334 -> 335 ;
336 [label="gini = 0.2360\nsamples = 21\nvalue = [  3.64776489  23.03619103]", shape="box"] ;
334 -> 336 ;
337 [label="gini = 0.1593\nsamples = 40\nvalue = [  5.92761794  62.02051431]", shape="box"] ;
333 -> 337 ;
338 [label="gini = 0.4019\nsamples = 10\nvalue = [ 3.41977958  8.86007347]", shape="box"] ;
328 -> 338 ;
339 [label="X[0] <= 0.1308\ngini = 0.200417557607\nsamples = 129", shape="box"] ;
327 -> 339 ;
340 [label="gini = 0.3469\nsamples = 37\nvalue = [  8.6634416   30.12424981]", shape="box"] ;
339 -> 340 ;
341 [label="gini = 0.1573\nsamples = 92\nvalue = [  13.67911832  145.30520496]", shape="box"] ;
339 -> 341 ;
342 [label="gini = 0.0931\nsamples = 53\nvalue = [   5.92761794  115.18095515]", shape="box"] ;
292 -> 342 ;
343 [label="X[0] <= 0.1015\ngini = 0.410263224716\nsamples = 985", shape="box"] ;
243 -> 343 ;
344 [label="X[7] <= 0.7052\ngini = 0.463059125749\nsamples = 359", shape="box"] ;
343 -> 344 ;
345 [label="X[0] <= 0.0936\ngini = 0.227639228149\nsamples = 220", shape="box"] ;
344 -> 345 ;
346 [label="X[5] <= 0.5123\ngini = 0.285486164801\nsamples = 162", shape="box"] ;
345 -> 346 ;
347 [label="X[0] <= 0.0873\ngini = 0.228199039197\nsamples = 158", shape="box"] ;
346 -> 347 ;
348 [label="gini = 0.0889\nsamples = 97\nvalue = [ 36.24966355   1.77201469]", shape="box"] ;
347 -> 348 ;
349 [label="gini = 0.3657\nsamples = 61\nvalue = [ 22.34255992   7.08805878]", shape="box"] ;
347 -> 349 ;
350 [label="gini = 0.3255\nsamples = 4\nvalue = [ 0.91194122  3.54402939]", shape="box"] ;
346 -> 350 ;
351 [label="gini = -0.0000\nsamples = 58\nvalue = [ 22.79853054   0.        ]", shape="box"] ;
345 -> 351 ;
352 [label="X[6] <= 0.5000\ngini = 0.485569903492\nsamples = 139", shape="box"] ;
344 -> 352 ;
353 [label="X[3] <= 0.5260\ngini = 0.490287612965\nsamples = 137", shape="box"] ;
352 -> 353 ;
354 [label="gini = 0.1531\nsamples = 27\nvalue = [  3.87575019  42.52835267]", shape="box"] ;
353 -> 354 ;
355 [label="X[13] <= 0.5000\ngini = 0.372966339248\nsamples = 110", shape="box"] ;
353 -> 355 ;
356 [label="X[5] <= 0.3148\ngini = 0.377565991639\nsamples = 108", shape="box"] ;
355 -> 356 ;
357 [label="gini = 0.4578\nsamples = 67\nvalue = [ 22.57054523  12.40410286]", shape="box"] ;
356 -> 357 ;
358 [label="gini = -0.0000\nsamples = 41\nvalue = [ 14.13508893   0.        ]", shape="box"] ;
356 -> 358 ;
359 [label="gini = -0.0000\nsamples = 2\nvalue = [ 0.91194122  0.        ]", shape="box"] ;
355 -> 359 ;
360 [label="gini = -0.0000\nsamples = 2\nvalue = [ 0.          3.54402939]", shape="box"] ;
352 -> 360 ;
361 [label="X[4] <= 0.5795\ngini = 0.315845008549\nsamples = 626", shape="box"] ;
343 -> 361 ;
362 [label="X[0] <= 0.1406\ngini = 0.223736457835\nsamples = 258", shape="box"] ;
361 -> 362 ;
363 [label="X[8] <= 0.5000\ngini = 0.297668624471\nsamples = 122", shape="box"] ;
362 -> 363 ;
364 [label="gini = 0.3124\nsamples = 99\nvalue = [ 22.57054523  93.91677882]", shape="box"] ;
363 -> 364 ;
365 [label="gini = 0.2447\nsamples = 23\nvalue = [  5.01567672  30.12424981]", shape="box"] ;
363 -> 365 ;
366 [label="X[12] <= 0.5000\ngini = 0.168342124048\nsamples = 136", shape="box"] ;
362 -> 366 ;
367 [label="X[7] <= 0.8336\ngini = 0.184188851342\nsamples = 110", shape="box"] ;
366 -> 367 ;
368 [label="gini = 0.0278\nsamples = 18\nvalue = [  0.68395592  47.84439676]", shape="box"] ;
367 -> 368 ;
369 [label="gini = 0.2348\nsamples = 92\nvalue = [  17.55486851  111.63692576]", shape="box"] ;
367 -> 369 ;
370 [label="gini = 0.1099\nsamples = 26\nvalue = [  2.96380897  47.84439676]", shape="box"] ;
366 -> 370 ;
371 [label="X[0] <= 0.1249\ngini = 0.39314547841\nsamples = 368", shape="box"] ;
361 -> 371 ;
372 [label="X[5] <= 0.2654\ngini = 0.499738434366\nsamples = 134", shape="box"] ;
371 -> 372 ;
373 [label="gini = 0.3670\nsamples = 49\nvalue = [ 16.64292729   5.31604408]", shape="box"] ;
372 -> 373 ;
374 [label="gini = 0.4865\nsamples = 85\nvalue = [ 24.16644237  33.6682792 ]", shape="box"] ;
372 -> 374 ;
375 [label="X[10] <= 0.5000\ngini = 0.319345246613\nsamples = 234", shape="box"] ;
371 -> 375 ;
376 [label="X[13] <= 0.5000\ngini = 0.326416032195\nsamples = 205", shape="box"] ;
375 -> 376 ;
377 [label="X[0] <= 0.2434\ngini = 0.324659837461\nsamples = 201", shape="box"] ;
376 -> 377 ;
378 [label="X[3] <= 0.9577\ngini = 0.380074364832\nsamples = 170", shape="box"] ;
377 -> 378 ;
379 [label="X[3] <= 0.9570\ngini = 0.448655922635\nsamples = 105", shape="box"] ;
378 -> 379 ;
380 [label="gini = 0.3166\nsamples = 20\nvalue = [  4.78769141  19.49216164]", shape="box"] ;
379 -> 380 ;
381 [label="gini = 0.4764\nsamples = 85\nvalue = [ 26.21831012  40.75633798]", shape="box"] ;
379 -> 381 ;
382 [label="gini = 0.2742\nsamples = 65\nvalue = [ 13.90710363  70.88058779]", shape="box"] ;
378 -> 382 ;
383 [label="gini = 0.1276\nsamples = 31\nvalue = [  4.55970611  62.02051431]", shape="box"] ;
377 -> 383 ;
384 [label="gini = 0.4487\nsamples = 4\nvalue = [ 0.91194122  1.77201469]", shape="box"] ;
376 -> 384 ;
385 [label="gini = 0.2634\nsamples = 29\nvalue = [  5.24366202  28.35223511]", shape="box"] ;
375 -> 385 ;
386 [label="X[4] <= 0.3933\ngini = 0.122381293204\nsamples = 592", shape="box"] ;
0 -> 386 ;
387 [label="X[7] <= 0.6623\ngini = 0.245886875738\nsamples = 159", shape="box"] ;
386 -> 387 ;
388 [label="X[9] <= 0.0035\ngini = 0.332178640942\nsamples = 107", shape="box"] ;
387 -> 388 ;
389 [label="gini = 0.2488\nsamples = 50\nvalue = [ 11.17127996  65.5645437 ]", shape="box"] ;
388 -> 389 ;
390 [label="gini = 0.4258\nsamples = 57\nvalue = [ 15.73098607  35.44029389]", shape="box"] ;
388 -> 390 ;
391 [label="gini = 0.1058\nsamples = 52\nvalue = [  5.47164733  92.14476412]", shape="box"] ;
387 -> 391 ;
392 [label="X[4] <= 0.6987\ngini = 0.090012223097\nsamples = 433", shape="box"] ;
386 -> 392 ;
393 [label="X[0] <= 0.0295\ngini = 0.070223911863\nsamples = 259", shape="box"] ;
392 -> 393 ;
394 [label="gini = 0.4222\nsamples = 25\nvalue = [  6.15560324  14.17611756]", shape="box"] ;
393 -> 394 ;
395 [label="X[10] <= 0.5000\ngini = 0.0529360345735\nsamples = 234", shape="box"] ;
393 -> 395 ;
396 [label="X[3] <= 0.0110\ngini = 0.0441914393207\nsamples = 190", shape="box"] ;
395 -> 396 ;
397 [label="gini = 0.0180\nsamples = 47\nvalue = [   1.13992653  124.04102863]", shape="box"] ;
396 -> 397 ;
398 [label="X[4] <= 0.4561\ngini = 0.0531392598161\nsamples = 143", shape="box"] ;
396 -> 398 ;
399 [label="gini = 0.0363\nsamples = 57\nvalue = [   2.73582366  145.30520496]", shape="box"] ;
398 -> 399 ;
400 [label="gini = 0.0648\nsamples = 86\nvalue = [   7.06754447  203.78168988]", shape="box"] ;
398 -> 400 ;
401 [label="gini = 0.0931\nsamples = 44\nvalue = [  5.01567672  97.46080821]", shape="box"] ;
395 -> 401 ;
402 [label="X[7] <= 0.0347\ngini = 0.122456973829\nsamples = 174", shape="box"] ;
392 -> 402 ;
403 [label="gini = 0.2087\nsamples = 57\nvalue = [ 10.94329466  81.51267595]", shape="box"] ;
402 -> 403 ;
404 [label="X[3] <= 0.1008\ngini = 0.0898554471033\nsamples = 117", shape="box"] ;
402 -> 404 ;
405 [label="X[9] <= 0.0015\ngini = 0.0853929148696\nsamples = 116", shape="box"] ;
404 -> 405 ;
406 [label="gini = 0.0000\nsamples = 1\nvalue = [ 0.22798531  0.        ]", shape="box"] ;
405 -> 406 ;
407 [label="X[0] <= 0.0129\ngini = 0.08389489682\nsamples = 115", shape="box"] ;
405 -> 407 ;
408 [label="gini = 0.0000\nsamples = 1\nvalue = [ 0.45597061  0.        ]", shape="box"] ;
407 -> 408 ;
409 [label="X[3] <= 0.0187\ngini = 0.0808829764091\nsamples = 114", shape="box"] ;
407 -> 409 ;
410 [label="gini = 0.0467\nsamples = 42\nvalue = [   2.73582366  111.63692576]", shape="box"] ;
409 -> 410 ;
411 [label="gini = 0.1060\nsamples = 72\nvalue = [   8.4354563   141.76117557]", shape="box"] ;
409 -> 411 ;
412 [label="gini = 0.0000\nsamples = 1\nvalue = [ 0.68395592  0.        ]", shape="box"] ;
404 -> 412 ;
}