digraph Tree {
0 [label="X[9] <= 0.5110\ngini = 0.49999804433\nsamples = 17347", shape="box"] ;
1 [label="X[10] <= 0.5000\ngini = 0.114179069567\nsamples = 625", shape="box"] ;
0 -> 1 ;
2 [label="X[1] <= 0.4690\ngini = 0.0972389157274\nsamples = 497", shape="box"] ;
1 -> 2 ;
3 [label="X[7] <= 0.0347\ngini = 0.0691996308493\nsamples = 414", shape="box"] ;
2 -> 3 ;
4 [label="gini = 0.1831\nsamples = 42\nvalue = [  6.83955916  60.24849962]", shape="box"] ;
3 -> 4 ;
5 [label="X[11] <= 0.5000\ngini = 0.0597936164107\nsamples = 372", shape="box"] ;
3 -> 5 ;
6 [label="X[12] <= 0.5000\ngini = 0.0653544924076\nsamples = 334", shape="box"] ;
5 -> 6 ;
7 [label="X[0] <= 0.0259\ngini = 0.0697736300446\nsamples = 288", shape="box"] ;
6 -> 7 ;
8 [label="gini = 0.3139\nsamples = 37\nvalue = [  7.29552977  30.12424981]", shape="box"] ;
7 -> 8 ;
9 [label="X[7] <= 0.9677\ngini = 0.0511677222634\nsamples = 251", shape="box"] ;
7 -> 9 ;
10 [label="X[0] <= 0.3017\ngini = 0.0467308597913\nsamples = 240", shape="box"] ;
9 -> 10 ;
11 [label="X[9] <= 0.0135\ngini = 0.044537427088\nsamples = 239", shape="box"] ;
10 -> 11 ;
12 [label="X[14] <= 0.5000\ngini = 0.0419732971236\nsamples = 234", shape="box"] ;
11 -> 12 ;
13 [label="X[5] <= 0.2531\ngini = 0.0424864047156\nsamples = 231", shape="box"] ;
12 -> 13 ;
14 [label="X[3] <= 0.0076\ngini = 0.0591225831559\nsamples = 106", shape="box"] ;
13 -> 14 ;
15 [label="gini = -0.0000\nsamples = 15\nvalue = [  0.         31.8962645]", shape="box"] ;
14 -> 15 ;
16 [label="gini = 0.0676\nsamples = 91\nvalue = [   7.52351508  207.32571927]", shape="box"] ;
14 -> 16 ;
17 [label="X[4] <= 0.6130\ngini = 0.0294566736766\nsamples = 125", shape="box"] ;
13 -> 17 ;
18 [label="gini = 0.0152\nsamples = 66\nvalue = [   1.36791183  177.20146946]", shape="box"] ;
17 -> 18 ;
19 [label="gini = 0.0471\nsamples = 59\nvalue = [   3.41977958  138.21714618]", shape="box"] ;
17 -> 19 ;
20 [label="gini = 0.0000\nsamples = 3\nvalue = [ 0.          7.08805878]", shape="box"] ;
12 -> 20 ;
21 [label="gini = 0.2500\nsamples = 5\nvalue = [ 0.91194122  5.31604408]", shape="box"] ;
11 -> 21 ;
22 [label="gini = 0.0000\nsamples = 1\nvalue = [ 0.68395592  0.        ]", shape="box"] ;
10 -> 22 ;
23 [label="gini = 0.1842\nsamples = 11\nvalue = [  1.82388244  15.94813225]", shape="box"] ;
9 -> 23 ;
24 [label="gini = 0.0438\nsamples = 46\nvalue = [   2.96380897  129.35707271]", shape="box"] ;
6 -> 24 ;
25 [label="gini = 0.0203\nsamples = 38\nvalue = [   1.13992653  109.86491107]", shape="box"] ;
5 -> 25 ;
26 [label="gini = 0.3349\nsamples = 83\nvalue = [ 19.15076565  70.88058779]", shape="box"] ;
2 -> 26 ;
27 [label="X[2] <= 0.5000\ngini = 0.191629402366\nsamples = 128", shape="box"] ;
1 -> 27 ;
28 [label="gini = 0.4282\nsamples = 14\nvalue = [ 3.19179427  7.08805878]", shape="box"] ;
27 -> 28 ;
29 [label="X[13] <= 0.5000\ngini = 0.175187455306\nsamples = 114", shape="box"] ;
27 -> 29 ;
30 [label="X[5] <= 0.0556\ngini = 0.16855675417\nsamples = 111", shape="box"] ;
29 -> 30 ;
31 [label="gini = 0.0000\nsamples = 1\nvalue = [ 0.22798531  0.        ]", shape="box"] ;
30 -> 31 ;
32 [label="X[3] <= 0.1690\ngini = 0.166879137385\nsamples = 110", shape="box"] ;
30 -> 32 ;
33 [label="X[4] <= 0.9393\ngini = 0.156167279468\nsamples = 104", shape="box"] ;
32 -> 33 ;
34 [label="X[9] <= 0.0155\ngini = 0.152650164803\nsamples = 102", shape="box"] ;
33 -> 34 ;
35 [label="X[7] <= 0.6280\ngini = 0.145512587918\nsamples = 100", shape="box"] ;
34 -> 35 ;
36 [label="gini = 0.1660\nsamples = 65\nvalue = [  11.39926527  113.40894046]", shape="box"] ;
35 -> 36 ;
37 [label="gini = 0.1083\nsamples = 35\nvalue = [  4.1037355  67.3365584]", shape="box"] ;
35 -> 37 ;
38 [label="gini = 0.0000\nsamples = 2\nvalue = [ 0.91194122  0.        ]", shape="box"] ;
34 -> 38 ;
39 [label="gini = 0.0000\nsamples = 2\nvalue = [ 0.45597061  0.        ]", shape="box"] ;
33 -> 39 ;
40 [label="gini = 0.4986\nsamples = 6\nvalue = [ 1.59589714  1.77201469]", shape="box"] ;
32 -> 40 ;
41 [label="gini = 0.0000\nsamples = 3\nvalue = [ 0.91194122  0.        ]", shape="box"] ;
29 -> 41 ;
42 [label="X[4] <= 0.6423\ngini = 0.494072938379\nsamples = 16722", shape="box"] ;
0 -> 42 ;
43 [label="X[1] <= 0.6582\ngini = 0.481584678644\nsamples = 15868", shape="box"] ;
42 -> 43 ;
44 [label="X[1] <= 0.4690\ngini = 0.482425290622\nsamples = 4281", shape="box"] ;
43 -> 44 ;
45 [label="X[0] <= 0.0312\ngini = 0.301405044199\nsamples = 693", shape="box"] ;
44 -> 45 ;
46 [label="X[0] <= 0.0138\ngini = 0.434679590038\nsamples = 224", shape="box"] ;
45 -> 46 ;
47 [label="gini = 0.0000\nsamples = 70\nvalue = [ 27.58622195   0.        ]", shape="box"] ;
46 -> 47 ;
48 [label="X[12] <= 0.5000\ngini = 0.486643829149\nsamples = 154", shape="box"] ;
46 -> 48 ;
49 [label="X[7] <= 0.7818\ngini = 0.48904187965\nsamples = 134", shape="box"] ;
48 -> 49 ;
50 [label="X[1] <= 0.2981\ngini = 0.499694219788\nsamples = 102", shape="box"] ;
49 -> 50 ;
51 [label="gini = 0.4728\nsamples = 34\nvalue = [ 11.39926527   7.08805878]", shape="box"] ;
50 -> 51 ;
52 [label="gini = 0.4984\nsamples = 68\nvalue = [ 22.11457462  24.80820573]", shape="box"] ;
50 -> 52 ;
53 [label="gini = 0.2263\nsamples = 32\nvalue = [ 11.85523588   1.77201469]", shape="box"] ;
49 -> 53 ;
54 [label="gini = 0.4591\nsamples = 20\nvalue = [ 6.38358855  3.54402939]", shape="box"] ;
48 -> 54 ;
55 [label="X[14] <= 0.5000\ngini = 0.194602182897\nsamples = 469", shape="box"] ;
45 -> 55 ;
56 [label="X[1] <= 0.0529\ngini = 0.195797527111\nsamples = 466", shape="box"] ;
55 -> 56 ;
57 [label="X[0] <= 0.0390\ngini = 0.268924198663\nsamples = 124", shape="box"] ;
56 -> 57 ;
58 [label="gini = 0.3086\nsamples = 19\nvalue = [ 7.52351508  1.77201469]", shape="box"] ;
57 -> 58 ;
59 [label="X[0] <= 0.1136\ngini = 0.215353904409\nsamples = 105", shape="box"] ;
57 -> 59 ;
60 [label="gini = 0.2569\nsamples = 85\nvalue = [  18.01083912  101.0048376 ]", shape="box"] ;
59 -> 60 ;
61 [label="gini = 0.0820\nsamples = 20\nvalue = [  1.82388244  40.75633798]", shape="box"] ;
59 -> 61 ;
62 [label="X[3] <= 0.0135\ngini = 0.172649654477\nsamples = 342", shape="box"] ;
56 -> 62 ;
63 [label="gini = 0.3054\nsamples = 25\nvalue = [  6.15560324  26.58022042]", shape="box"] ;
62 -> 63 ;
64 [label="X[12] <= 0.5000\ngini = 0.163749802738\nsamples = 317", shape="box"] ;
62 -> 64 ;
65 [label="X[4] <= 0.4289\ngini = 0.169365404248\nsamples = 276", shape="box"] ;
64 -> 65 ;
66 [label="X[3] <= 0.1327\ngini = 0.22912714589\nsamples = 121", shape="box"] ;
65 -> 66 ;
67 [label="gini = 0.4764\nsamples = 9\nvalue = [ 2.27985305  3.54402939]", shape="box"] ;
66 -> 67 ;
68 [label="X[13] <= 0.5000\ngini = 0.216178044247\nsamples = 112", shape="box"] ;
66 -> 68 ;
69 [label="X[3] <= 0.1428\ngini = 0.212816589404\nsamples = 109", shape="box"] ;
68 -> 69 ;
70 [label="gini = 0.1778\nsamples = 76\nvalue = [  12.9951624   118.72498454]", shape="box"] ;
69 -> 70 ;
71 [label="gini = 0.3146\nsamples = 33\nvalue = [  7.75150038  31.8962645 ]", shape="box"] ;
69 -> 71 ;
72 [label="gini = 0.4019\nsamples = 3\nvalue = [ 0.68395592  1.77201469]", shape="box"] ;
68 -> 72 ;
73 [label="X[5] <= 0.8086\ngini = 0.130884793875\nsamples = 155", shape="box"] ;
65 -> 73 ;
74 [label="X[11] <= 0.5000\ngini = 0.128458730927\nsamples = 154", shape="box"] ;
73 -> 74 ;
75 [label="X[4] <= 0.4561\ngini = 0.116418822937\nsamples = 133", shape="box"] ;
74 -> 75 ;
76 [label="gini = 0.0551\nsamples = 60\nvalue = [   3.87575019  132.9011021 ]", shape="box"] ;
75 -> 76 ;
77 [label="gini = 0.1771\nsamples = 73\nvalue = [  12.53919179  115.18095515]", shape="box"] ;
75 -> 77 ;
78 [label="gini = 0.2105\nsamples = 21\nvalue = [  4.3317208  31.8962645]", shape="box"] ;
74 -> 78 ;
79 [label="gini = -0.0000\nsamples = 1\nvalue = [ 0.45597061  0.        ]", shape="box"] ;
73 -> 79 ;
80 [label="gini = 0.1262\nsamples = 41\nvalue = [  5.01567672  69.10857309]", shape="box"] ;
64 -> 80 ;
81 [label="gini = 0.0000\nsamples = 3\nvalue = [ 0.          5.31604408]", shape="box"] ;
55 -> 81 ;
82 [label="X[3] <= 0.1621\ngini = 0.499773058397\nsamples = 3588", shape="box"] ;
44 -> 82 ;
83 [label="X[3] <= 0.1478\ngini = 0.478146675275\nsamples = 2380", shape="box"] ;
82 -> 83 ;
84 [label="X[11] <= 0.5000\ngini = 0.499437128656\nsamples = 1114", shape="box"] ;
83 -> 84 ;
85 [label="X[3] <= 0.1431\ngini = 0.499727050269\nsamples = 1082", shape="box"] ;
84 -> 85 ;
86 [label="X[3] <= 0.1407\ngini = 0.494146118714\nsamples = 486", shape="box"] ;
85 -> 86 ;
87 [label="X[5] <= 0.4012\ngini = 0.499758752622\nsamples = 422", shape="box"] ;
86 -> 87 ;
88 [label="X[13] <= 0.5000\ngini = 0.49902254516\nsamples = 357", shape="box"] ;
87 -> 88 ;
89 [label="X[0] <= 0.0816\ngini = 0.498977694437\nsamples = 356", shape="box"] ;
88 -> 89 ;
90 [label="X[3] <= 0.1390\ngini = 0.0938620438872\nsamples = 290", shape="box"] ;
89 -> 90 ;
91 [label="gini = 0.0000\nsamples = 111\nvalue = [ 38.3015313   0.       ]", shape="box"] ;
90 -> 91 ;
92 [label="X[0] <= 0.0627\ngini = 0.141502534771\nsamples = 179", shape="box"] ;
90 -> 92 ;
93 [label="gini = 0.0000\nsamples = 163\nvalue = [ 59.04819409   0.        ]", shape="box"] ;
92 -> 93 ;
94 [label="gini = 0.4996\nsamples = 16\nvalue = [ 5.01567672  5.31604408]", shape="box"] ;
92 -> 94 ;
95 [label="gini = 0.1545\nsamples = 66\nvalue = [  10.94329466  118.72498454]", shape="box"] ;
89 -> 95 ;
96 [label="gini = -0.0000\nsamples = 1\nvalue = [ 0.22798531  0.        ]", shape="box"] ;
88 -> 96 ;
97 [label="gini = 0.3562\nsamples = 65\nvalue = [ 23.48248645   7.08805878]", shape="box"] ;
87 -> 97 ;
98 [label="gini = 0.3194\nsamples = 64\nvalue = [ 14.13508893  56.70447023]", shape="box"] ;
86 -> 98 ;
99 [label="X[5] <= 0.2160\ngini = 0.488034881173\nsamples = 596", shape="box"] ;
85 -> 99 ;
100 [label="X[5] <= 0.0802\ngini = 0.499733756817\nsamples = 341", shape="box"] ;
99 -> 100 ;
101 [label="gini = 0.0000\nsamples = 16\nvalue = [ 6.15560324  0.        ]", shape="box"] ;
100 -> 101 ;
102 [label="X[14] <= 0.5000\ngini = 0.498632731265\nsamples = 325", shape="box"] ;
100 -> 102 ;
103 [label="X[8] <= 0.5000\ngini = 0.498755810877\nsamples = 298", shape="box"] ;
102 -> 103 ;
104 [label="X[0] <= 0.0374\ngini = 0.490125872788\nsamples = 218", shape="box"] ;
103 -> 104 ;
105 [label="gini = 0.0000\nsamples = 104\nvalue = [ 35.56570763   0.        ]", shape="box"] ;
104 -> 105 ;
106 [label="X[5] <= 0.0926\ngini = 0.380862816724\nsamples = 114", shape="box"] ;
104 -> 106 ;
107 [label="gini = 0.0000\nsamples = 5\nvalue = [ 1.82388244  0.        ]", shape="box"] ;
106 -> 107 ;
108 [label="X[3] <= 0.1437\ngini = 0.369050008075\nsamples = 109", shape="box"] ;
106 -> 108 ;
109 [label="gini = 0.4141\nsamples = 60\nvalue = [ 16.8709126   40.75633798]", shape="box"] ;
108 -> 109 ;
110 [label="gini = 0.3141\nsamples = 49\nvalue = [ 11.17127996  46.07238206]", shape="box"] ;
108 -> 110 ;
111 [label="gini = 0.4701\nsamples = 80\nvalue = [ 29.18211908  17.72014695]", shape="box"] ;
103 -> 111 ;
112 [label="gini = 0.4967\nsamples = 27\nvalue = [ 7.52351508  8.86007347]", shape="box"] ;
102 -> 112 ;
113 [label="X[5] <= 0.2654\ngini = 0.380449117824\nsamples = 255", shape="box"] ;
99 -> 113 ;
114 [label="gini = 0.4520\nsamples = 86\nvalue = [ 26.90226603  14.17611756]", shape="box"] ;
113 -> 114 ;
115 [label="X[12] <= 0.5000\ngini = 0.329008391459\nsamples = 169", shape="box"] ;
113 -> 115 ;
116 [label="X[14] <= 0.5000\ngini = 0.324470106355\nsamples = 153", shape="box"] ;
115 -> 116 ;
117 [label="X[0] <= 0.1049\ngini = 0.309410001321\nsamples = 144", shape="box"] ;
116 -> 117 ;
118 [label="X[13] <= 0.5000\ngini = 0.0648208444755\nsamples = 135", shape="box"] ;
117 -> 118 ;
119 [label="X[5] <= 0.4753\ngini = 0.0659189955114\nsamples = 132", shape="box"] ;
118 -> 119 ;
120 [label="gini = 0.0000\nsamples = 115\nvalue = [ 43.31720802   0.        ]", shape="box"] ;
119 -> 120 ;
121 [label="gini = 0.3269\nsamples = 17\nvalue = [ 6.83955916  1.77201469]", shape="box"] ;
119 -> 121 ;
122 [label="gini = 0.0000\nsamples = 3\nvalue = [ 0.91194122  0.        ]", shape="box"] ;
118 -> 122 ;
123 [label="gini = 0.2020\nsamples = 9\nvalue = [  1.36791183  10.63208817]", shape="box"] ;
117 -> 123 ;
124 [label="gini = 0.4683\nsamples = 9\nvalue = [ 2.96380897  1.77201469]", shape="box"] ;
116 -> 124 ;
125 [label="gini = 0.3696\nsamples = 16\nvalue = [ 5.47164733  1.77201469]", shape="box"] ;
115 -> 125 ;
126 [label="gini = 0.3696\nsamples = 32\nvalue = [ 10.94329466   3.54402939]", shape="box"] ;
84 -> 126 ;
127 [label="X[0] <= 0.1014\ngini = 0.418987096516\nsamples = 1266", shape="box"] ;
83 -> 127 ;
128 [label="X[11] <= 0.5000\ngini = 0.0410037719078\nsamples = 1126", shape="box"] ;
127 -> 128 ;
129 [label="X[0] <= 0.0873\ngini = 0.041640531755\nsamples = 1109", shape="box"] ;
128 -> 129 ;
130 [label="gini = 0.0000\nsamples = 1061\nvalue = [ 391.9067399    0.       ]", shape="box"] ;
129 -> 130 ;
131 [label="gini = 0.4610\nsamples = 48\nvalue = [ 15.73098607   8.86007347]", shape="box"] ;
129 -> 131 ;
132 [label="gini = 0.0000\nsamples = 17\nvalue = [ 6.61157386  0.        ]", shape="box"] ;
128 -> 132 ;
133 [label="X[3] <= 0.1598\ngini = 0.225768536922\nsamples = 140", shape="box"] ;
127 -> 133 ;
134 [label="X[0] <= 0.2516\ngini = 0.249971362877\nsamples = 118", shape="box"] ;
133 -> 134 ;
135 [label="X[3] <= 0.1499\ngini = 0.236029929339\nsamples = 114", shape="box"] ;
134 -> 135 ;
136 [label="gini = 0.1399\nsamples = 23\nvalue = [  3.19179427  38.98432328]", shape="box"] ;
135 -> 136 ;
137 [label="gini = 0.2668\nsamples = 91\nvalue = [ 18.69479504  99.2328229 ]", shape="box"] ;
135 -> 137 ;
138 [label="gini = -0.0000\nsamples = 4\nvalue = [ 1.82388244  0.        ]", shape="box"] ;
134 -> 138 ;
139 [label="gini = 0.1264\nsamples = 22\nvalue = [  2.96380897  40.75633798]", shape="box"] ;
133 -> 139 ;
140 [label="X[7] <= 0.2599\ngini = 0.449219641157\nsamples = 1208", shape="box"] ;
82 -> 140 ;
141 [label="X[5] <= 0.0432\ngini = 0.235224903503\nsamples = 117", shape="box"] ;
140 -> 141 ;
142 [label="gini = 0.0000\nsamples = 1\nvalue = [ 0.45597061  0.        ]", shape="box"] ;
141 -> 142 ;
143 [label="X[3] <= 0.2511\ngini = 0.231710243879\nsamples = 116", shape="box"] ;
141 -> 143 ;
144 [label="gini = 0.2020\nsamples = 85\nvalue = [  14.81904485  115.18095515]", shape="box"] ;
143 -> 144 ;
145 [label="gini = 0.3319\nsamples = 31\nvalue = [  7.06754447  26.58022042]", shape="box"] ;
143 -> 145 ;
146 [label="X[0] <= 0.0459\ngini = 0.471049880965\nsamples = 1091", shape="box"] ;
140 -> 146 ;
147 [label="X[7] <= 0.3051\ngini = 0.453659266621\nsamples = 579", shape="box"] ;
146 -> 147 ;
148 [label="gini = 0.0000\nsamples = 40\nvalue = [ 15.27501546   0.        ]", shape="box"] ;
147 -> 148 ;
149 [label="X[10] <= 0.5000\ngini = 0.464301791821\nsamples = 539", shape="box"] ;
147 -> 149 ;
150 [label="X[8] <= 0.5000\ngini = 0.481119986646\nsamples = 363", shape="box"] ;
149 -> 150 ;
151 [label="X[13] <= 0.5000\ngini = 0.476259959711\nsamples = 247", shape="box"] ;
150 -> 151 ;
152 [label="X[14] <= 0.5000\ngini = 0.46552635193\nsamples = 241", shape="box"] ;
151 -> 152 ;
153 [label="X[12] <= 0.5000\ngini = 0.47192453348\nsamples = 220", shape="box"] ;
152 -> 153 ;
154 [label="X[0] <= 0.0215\ngini = 0.484556782604\nsamples = 182", shape="box"] ;
153 -> 154 ;
155 [label="gini = 0.2381\nsamples = 60\nvalue = [ 22.11457462   3.54402939]", shape="box"] ;
154 -> 155 ;
156 [label="X[5] <= 0.5802\ngini = 0.499867840453\nsamples = 122", shape="box"] ;
154 -> 156 ;
157 [label="X[5] <= 0.1667\ngini = 0.449635382351\nsamples = 109", shape="box"] ;
156 -> 157 ;
158 [label="gini = 0.4101\nsamples = 21\nvalue = [  5.01567672  12.40410286]", shape="box"] ;
157 -> 158 ;
159 [label="gini = 0.2607\nsamples = 88\nvalue = [ 29.18211908   5.31604408]", shape="box"] ;
157 -> 159 ;
160 [label="gini = 0.1565\nsamples = 13\nvalue = [  1.82388244  19.49216164]", shape="box"] ;
156 -> 160 ;
161 [label="gini = 0.3269\nsamples = 38\nvalue = [ 13.67911832   3.54402939]", shape="box"] ;
153 -> 161 ;
162 [label="gini = 0.3206\nsamples = 21\nvalue = [ 7.06754447  1.77201469]", shape="box"] ;
152 -> 162 ;
163 [label="gini = 0.2908\nsamples = 6\nvalue = [ 1.13992653  5.31604408]", shape="box"] ;
151 -> 163 ;
164 [label="X[13] <= 0.5000\ngini = 0.488654476014\nsamples = 116", shape="box"] ;
150 -> 164 ;
165 [label="X[12] <= 0.5000\ngini = 0.48986596035\nsamples = 114", shape="box"] ;
164 -> 165 ;
166 [label="X[0] <= 0.0189\ngini = 0.49839577703\nsamples = 100", shape="box"] ;
165 -> 166 ;
167 [label="gini = 0.0000\nsamples = 27\nvalue = [ 10.94329466   0.        ]", shape="box"] ;
166 -> 167 ;
168 [label="gini = 0.4904\nsamples = 73\nvalue = [ 22.79853054  30.12424981]", shape="box"] ;
166 -> 168 ;
169 [label="gini = -0.0000\nsamples = 14\nvalue = [ 6.38358855  0.        ]", shape="box"] ;
165 -> 169 ;
170 [label="gini = -0.0000\nsamples = 2\nvalue = [ 0.68395592  0.        ]", shape="box"] ;
164 -> 170 ;
171 [label="X[0] <= 0.0196\ngini = 0.401038005671\nsamples = 176", shape="box"] ;
149 -> 171 ;
172 [label="gini = 0.0931\nsamples = 95\nvalue = [ 34.42578111   1.77201469]", shape="box"] ;
171 -> 172 ;
173 [label="gini = 0.4958\nsamples = 81\nvalue = [ 25.5343542   21.26417634]", shape="box"] ;
171 -> 173 ;
174 [label="X[0] <= 0.1256\ngini = 0.357623988742\nsamples = 512", shape="box"] ;
146 -> 174 ;
175 [label="X[8] <= 0.5000\ngini = 0.413382999649\nsamples = 413", shape="box"] ;
174 -> 175 ;
176 [label="X[0] <= 0.0542\ngini = 0.476440822878\nsamples = 270", shape="box"] ;
175 -> 176 ;
177 [label="gini = 0.4964\nsamples = 60\nvalue = [ 18.92278034  15.94813225]", shape="box"] ;
176 -> 177 ;
178 [label="X[5] <= 0.3519\ngini = 0.4609479637\nsamples = 210", shape="box"] ;
176 -> 178 ;
179 [label="X[5] <= 0.1420\ngini = 0.499998440196\nsamples = 141", shape="box"] ;
178 -> 179 ;
180 [label="gini = 0.3482\nsamples = 23\nvalue = [  6.15560324  21.26417634]", shape="box"] ;
179 -> 180 ;
181 [label="X[5] <= 0.2654\ngini = 0.469030963597\nsamples = 118", shape="box"] ;
179 -> 181 ;
182 [label="gini = 0.3356\nsamples = 60\nvalue = [ 19.60673626   5.31604408]", shape="box"] ;
181 -> 182 ;
183 [label="gini = 0.4996\nsamples = 58\nvalue = [ 18.69479504  17.72014695]", shape="box"] ;
181 -> 183 ;
184 [label="gini = 0.3255\nsamples = 69\nvalue = [ 16.41494199  63.79252901]", shape="box"] ;
178 -> 184 ;
185 [label="X[0] <= 0.1137\ngini = 0.291243553885\nsamples = 143", shape="box"] ;
175 -> 185 ;
186 [label="X[0] <= 0.0707\ngini = 0.272686378633\nsamples = 137", shape="box"] ;
185 -> 186 ;
187 [label="gini = 0.3458\nsamples = 77\nvalue = [ 18.23882443  63.79252901]", shape="box"] ;
186 -> 187 ;
188 [label="gini = 0.1951\nsamples = 60\nvalue = [ 10.03135344  81.51267595]", shape="box"] ;
186 -> 188 ;
189 [label="gini = -0.0000\nsamples = 6\nvalue = [ 2.96380897  0.        ]", shape="box"] ;
185 -> 189 ;
190 [label="gini = 0.1932\nsamples = 99\nvalue = [  19.37875095  159.48132252]", shape="box"] ;
174 -> 190 ;
191 [label="X[0] <= 0.0918\ngini = 0.415994923105\nsamples = 11587", shape="box"] ;
43 -> 191 ;
192 [label="X[3] <= 0.9864\ngini = 0.0734801209899\nsamples = 9966", shape="box"] ;
191 -> 192 ;
193 [label="X[7] <= 0.6839\ngini = 0.070957064213\nsamples = 9959", shape="box"] ;
192 -> 193 ;
194 [label="X[1] <= 0.9389\ngini = 0.104466973356\nsamples = 5579", shape="box"] ;
193 -> 194 ;
195 [label="X[13] <= 0.5000\ngini = 0.170305291191\nsamples = 1314", shape="box"] ;
194 -> 195 ;
196 [label="X[3] <= 0.8125\ngini = 0.163167596744\nsamples = 1283", shape="box"] ;
195 -> 196 ;
197 [label="X[12] <= 0.5000\ngini = 0.023506529077\nsamples = 1241", shape="box"] ;
196 -> 197 ;
198 [label="X[0] <= 0.0861\ngini = 0.0190707869953\nsamples = 1028", shape="box"] ;
197 -> 198 ;
199 [label="X[10] <= 0.5000\ngini = 0.00971207954058\nsamples = 1015", shape="box"] ;
198 -> 199 ;
200 [label="X[4] <= 0.2866\ngini = 0.0118249589065\nsamples = 838", shape="box"] ;
199 -> 200 ;
201 [label="gini = 0.0000\nsamples = 4\nvalue = [ 1.36791183  0.        ]", shape="box"] ;
200 -> 201 ;
202 [label="X[5] <= 0.1914\ngini = 0.0118791753598\nsamples = 834", shape="box"] ;
200 -> 202 ;
203 [label="X[0] <= 0.0559\ngini = 0.0468594985744\nsamples = 205", shape="box"] ;
202 -> 203 ;
204 [label="gini = 0.0000\nsamples = 174\nvalue = [ 62.69595897   0.        ]", shape="box"] ;
203 -> 204 ;
205 [label="gini = 0.2679\nsamples = 31\nvalue = [ 9.34739752  1.77201469]", shape="box"] ;
203 -> 205 ;
206 [label="gini = -0.0000\nsamples = 629\nvalue = [ 222.74164333    0.        ]", shape="box"] ;
202 -> 206 ;
207 [label="gini = -0.0000\nsamples = 177\nvalue = [ 65.20379733   0.        ]", shape="box"] ;
199 -> 207 ;
208 [label="gini = 0.4591\nsamples = 13\nvalue = [ 3.19179427  1.77201469]", shape="box"] ;
198 -> 208 ;
209 [label="X[5] <= 0.3642\ngini = 0.0439467002278\nsamples = 213", shape="box"] ;
197 -> 209 ;
210 [label="gini = 0.0000\nsamples = 168\nvalue = [ 61.10006183   0.        ]", shape="box"] ;
209 -> 210 ;
211 [label="gini = 0.1799\nsamples = 45\nvalue = [ 15.95897137   1.77201469]", shape="box"] ;
209 -> 211 ;
212 [label="gini = 0.2925\nsamples = 42\nvalue = [  8.4354563   38.98432328]", shape="box"] ;
196 -> 212 ;
213 [label="gini = 0.3657\nsamples = 31\nvalue = [ 11.17127996   3.54402939]", shape="box"] ;
195 -> 213 ;
214 [label="X[5] <= 0.2531\ngini = 0.0823504776952\nsamples = 4265", shape="box"] ;
194 -> 214 ;
215 [label="X[5] <= 0.2284\ngini = 0.05436541859\nsamples = 2047", shape="box"] ;
214 -> 215 ;
216 [label="X[4] <= 0.4770\ngini = 0.0624997033267\nsamples = 1766", shape="box"] ;
215 -> 216 ;
217 [label="X[0] <= 0.0908\ngini = 0.0706299081768\nsamples = 1037", shape="box"] ;
216 -> 217 ;
218 [label="X[0] <= 0.0517\ngini = 0.0540193470656\nsamples = 1034", shape="box"] ;
217 -> 218 ;
219 [label="gini = 0.0000\nsamples = 808\nvalue = [ 291.13723493    0.        ]", shape="box"] ;
218 -> 219 ;
220 [label="X[5] <= 0.1296\ngini = 0.205261274308\nsamples = 226", shape="box"] ;
218 -> 220 ;
221 [label="gini = 0.0000\nsamples = 67\nvalue = [ 22.34255992   0.        ]", shape="box"] ;
220 -> 221 ;
222 [label="X[10] <= 0.5000\ngini = 0.25999874542\nsamples = 159", shape="box"] ;
220 -> 222 ;
223 [label="X[13] <= 0.5000\ngini = 0.212612397883\nsamples = 139", shape="box"] ;
222 -> 223 ;
224 [label="X[5] <= 0.1420\ngini = 0.213327966247\nsamples = 138", shape="box"] ;
223 -> 224 ;
225 [label="gini = 0.4921\nsamples = 15\nvalue = [ 4.55970611  3.54402939]", shape="box"] ;
224 -> 225 ;
226 [label="X[3] <= 0.9813\ngini = 0.131032769636\nsamples = 123", shape="box"] ;
224 -> 226 ;
227 [label="gini = 0.0000\nsamples = 79\nvalue = [ 30.77801622   0.        ]", shape="box"] ;
226 -> 227 ;
228 [label="gini = 0.2974\nsamples = 44\nvalue = [ 15.95897137   3.54402939]", shape="box"] ;
226 -> 228 ;
229 [label="gini = -0.0000\nsamples = 1\nvalue = [ 0.22798531  0.        ]", shape="box"] ;
223 -> 229 ;
230 [label="gini = 0.4449\nsamples = 20\nvalue = [ 7.06754447  3.54402939]", shape="box"] ;
222 -> 230 ;
231 [label="gini = 0.2020\nsamples = 3\nvalue = [ 0.45597061  3.54402939]", shape="box"] ;
217 -> 231 ;
232 [label="X[5] <= 0.2160\ngini = 0.0508001031645\nsamples = 729", shape="box"] ;
216 -> 232 ;
233 [label="X[8] <= 0.5000\ngini = 0.0146291653227\nsamples = 651", shape="box"] ;
232 -> 233 ;
234 [label="X[12] <= 0.5000\ngini = 0.0420458009883\nsamples = 226", shape="box"] ;
233 -> 234 ;
235 [label="gini = 0.0000\nsamples = 52\nvalue = [ 20.06270687   0.        ]", shape="box"] ;
234 -> 235 ;
236 [label="X[3] <= 0.9820\ngini = 0.0551686640249\nsamples = 174", shape="box"] ;
234 -> 236 ;
237 [label="gini = 0.0000\nsamples = 134\nvalue = [ 46.9649729   0.       ]", shape="box"] ;
236 -> 237 ;
238 [label="gini = 0.2031\nsamples = 40\nvalue = [ 13.67911832   1.77201469]", shape="box"] ;
236 -> 238 ;
239 [label="gini = -0.0000\nsamples = 425\nvalue = [ 157.99381661    0.        ]", shape="box"] ;
233 -> 239 ;
240 [label="gini = 0.2819\nsamples = 78\nvalue = [ 25.99032481   5.31604408]", shape="box"] ;
232 -> 240 ;
241 [label="gini = -0.0000\nsamples = 281\nvalue = [ 101.90943149    0.        ]", shape="box"] ;
215 -> 241 ;
242 [label="X[14] <= 0.5000\ngini = 0.106735242558\nsamples = 2218", shape="box"] ;
214 -> 242 ;
243 [label="X[5] <= 0.2901\ngini = 0.112702427527\nsamples = 2085", shape="box"] ;
242 -> 243 ;
244 [label="X[5] <= 0.2778\ngini = 0.220903736077\nsamples = 345", shape="box"] ;
243 -> 244 ;
245 [label="X[4] <= 0.4770\ngini = 0.197152622318\nsamples = 233", shape="box"] ;
244 -> 245 ;
246 [label="gini = 0.0000\nsamples = 136\nvalue = [ 50.61273779   0.        ]", shape="box"] ;
245 -> 246 ;
247 [label="gini = 0.3593\nsamples = 97\nvalue = [ 34.65376641  10.63208817]", shape="box"] ;
245 -> 247 ;
248 [label="X[4] <= 0.4770\ngini = 0.2690492714\nsamples = 112", shape="box"] ;
244 -> 248 ;
249 [label="gini = 0.3965\nsamples = 60\nvalue = [ 18.92278034   7.08805878]", shape="box"] ;
248 -> 249 ;
250 [label="gini = -0.0000\nsamples = 52\nvalue = [ 18.23882443   0.        ]", shape="box"] ;
248 -> 250 ;
251 [label="X[3] <= 0.9811\ngini = 0.0873717048649\nsamples = 1740", shape="box"] ;
243 -> 251 ;
252 [label="X[10] <= 0.5000\ngini = 0.0264078472973\nsamples = 360", shape="box"] ;
251 -> 252 ;
253 [label="X[13] <= 0.5000\ngini = 0.0369508115102\nsamples = 262", shape="box"] ;
252 -> 253 ;
254 [label="gini = 0.0000\nsamples = 243\nvalue = [ 86.63441603   0.        ]", shape="box"] ;
253 -> 254 ;
255 [label="gini = 0.3618\nsamples = 19\nvalue = [ 5.69963263  1.77201469]", shape="box"] ;
253 -> 255 ;
256 [label="gini = 0.0000\nsamples = 98\nvalue = [ 38.3015313   0.       ]", shape="box"] ;
252 -> 256 ;
257 [label="X[0] <= 0.0845\ngini = 0.102067770639\nsamples = 1380", shape="box"] ;
251 -> 257 ;
258 [label="X[8] <= 0.5000\ngini = 0.0675496472288\nsamples = 1354", shape="box"] ;
257 -> 258 ;
259 [label="X[13] <= 0.5000\ngini = 0.0845784677455\nsamples = 942", shape="box"] ;
258 -> 259 ;
260 [label="X[5] <= 0.3889\ngini = 0.089319423805\nsamples = 885", shape="box"] ;
259 -> 260 ;
261 [label="X[7] <= 0.5768\ngini = 0.0433949270389\nsamples = 409", shape="box"] ;
260 -> 261 ;
262 [label="gini = 0.0000\nsamples = 223\nvalue = [ 88.23031317   0.        ]", shape="box"] ;
261 -> 262 ;
263 [label="X[11] <= 0.5000\ngini = 0.0942403707448\nsamples = 186", shape="box"] ;
261 -> 263 ;
264 [label="X[10] <= 0.5000\ngini = 0.049546147189\nsamples = 185", shape="box"] ;
263 -> 264 ;
265 [label="X[0] <= 0.0741\ngini = 0.064285358965\nsamples = 141", shape="box"] ;
264 -> 265 ;
266 [label="gini = 0.0000\nsamples = 137\nvalue = [ 50.15676718   0.        ]", shape="box"] ;
265 -> 266 ;
267 [label="gini = 0.4917\nsamples = 4\nvalue = [ 1.36791183  1.77201469]", shape="box"] ;
265 -> 267 ;
268 [label="gini = -0.0000\nsamples = 44\nvalue = [ 16.41494199   0.        ]", shape="box"] ;
264 -> 268 ;
269 [label="gini = 0.0000\nsamples = 1\nvalue = [ 0.          1.77201469]", shape="box"] ;
263 -> 269 ;
270 [label="X[3] <= 0.9815\ngini = 0.127893285035\nsamples = 476", shape="box"] ;
260 -> 270 ;
271 [label="X[3] <= 0.9813\ngini = 0.20091392858\nsamples = 232", shape="box"] ;
270 -> 271 ;
272 [label="gini = 0.0000\nsamples = 132\nvalue = [ 47.42094351   0.        ]", shape="box"] ;
271 -> 272 ;
273 [label="X[0] <= 0.0393\ngini = 0.353131642424\nsamples = 100", shape="box"] ;
271 -> 273 ;
274 [label="gini = 0.0000\nsamples = 68\nvalue = [ 23.71047176   0.        ]", shape="box"] ;
273 -> 274 ;
275 [label="gini = 0.4980\nsamples = 32\nvalue = [ 12.08322118  10.63208817]", shape="box"] ;
273 -> 275 ;
276 [label="X[3] <= 0.9820\ngini = 0.0399915420754\nsamples = 244", shape="box"] ;
270 -> 276 ;
277 [label="X[12] <= 0.5000\ngini = 0.0762508968085\nsamples = 128", shape="box"] ;
276 -> 277 ;
278 [label="X[0] <= 0.0783\ngini = 0.0893763463142\nsamples = 107", shape="box"] ;
277 -> 278 ;
279 [label="gini = 0.0000\nsamples = 104\nvalue = [ 35.33772233   0.        ]", shape="box"] ;
278 -> 279 ;
280 [label="gini = 0.4019\nsamples = 3\nvalue = [ 0.68395592  1.77201469]", shape="box"] ;
278 -> 280 ;
281 [label="gini = -0.0000\nsamples = 21\nvalue = [ 6.83955916  0.        ]", shape="box"] ;
277 -> 281 ;
282 [label="gini = 0.0000\nsamples = 116\nvalue = [ 42.17728149   0.        ]", shape="box"] ;
276 -> 282 ;
283 [label="gini = -0.0000\nsamples = 57\nvalue = [ 20.06270687   0.        ]", shape="box"] ;
259 -> 283 ;
284 [label="X[5] <= 0.3765\ngini = 0.0240024960492\nsamples = 412", shape="box"] ;
258 -> 284 ;
285 [label="X[0] <= 0.0778\ngini = 0.0511761223922\nsamples = 189", shape="box"] ;
284 -> 285 ;
286 [label="gini = 0.0000\nsamples = 186\nvalue = [ 64.51984141   0.        ]", shape="box"] ;
285 -> 286 ;
287 [label="gini = 0.4764\nsamples = 3\nvalue = [ 1.13992653  1.77201469]", shape="box"] ;
285 -> 287 ;
288 [label="gini = 0.0000\nsamples = 223\nvalue = [ 78.42694504   0.        ]", shape="box"] ;
284 -> 288 ;
289 [label="gini = 0.4948\nsamples = 26\nvalue = [  8.6634416   10.63208817]", shape="box"] ;
257 -> 289 ;
290 [label="gini = -0.0000\nsamples = 133\nvalue = [ 47.64892882   0.        ]", shape="box"] ;
242 -> 290 ;
291 [label="X[12] <= 0.5000\ngini = 0.0242337754303\nsamples = 4380", shape="box"] ;
193 -> 291 ;
292 [label="X[11] <= 0.5000\ngini = 0.0128662857549\nsamples = 3773", shape="box"] ;
291 -> 292 ;
293 [label="X[1] <= 0.9299\ngini = 0.0129736616253\nsamples = 3741", shape="box"] ;
292 -> 293 ;
294 [label="X[10] <= 0.5000\ngini = 0.00832807068748\nsamples = 2329", shape="box"] ;
293 -> 294 ;
295 [label="X[8] <= 0.5000\ngini = 0.00508743591647\nsamples = 1903", shape="box"] ;
294 -> 295 ;
296 [label="X[0] <= 0.0369\ngini = 0.00639298496768\nsamples = 1530", shape="box"] ;
295 -> 296 ;
297 [label="gini = 0.0000\nsamples = 827\nvalue = [ 299.11672062    0.        ]", shape="box"] ;
296 -> 297 ;
298 [label="X[13] <= 0.5000\ngini = 0.0138844180403\nsamples = 703", shape="box"] ;
296 -> 298 ;
299 [label="X[3] <= 0.9573\ngini = 0.0143192425069\nsamples = 683", shape="box"] ;
298 -> 299 ;
300 [label="X[14] <= 0.5000\ngini = 0.0419324374334\nsamples = 238", shape="box"] ;
299 -> 300 ;
301 [label="X[3] <= 0.9570\ngini = 0.0497044608012\nsamples = 203", shape="box"] ;
300 -> 301 ;
302 [label="gini = 0.0000\nsamples = 77\nvalue = [ 24.39442767   0.        ]", shape="box"] ;
301 -> 302 ;
303 [label="X[0] <= 0.0373\ngini = 0.0755113568551\nsamples = 126", shape="box"] ;
301 -> 303 ;
304 [label="gini = 0.0000\nsamples = 1\nvalue = [ 0.          1.77201469]", shape="box"] ;
303 -> 304 ;
305 [label="gini = -0.0000\nsamples = 125\nvalue = [ 43.31720802   0.        ]", shape="box"] ;
303 -> 305 ;
306 [label="gini = 0.0000\nsamples = 35\nvalue = [ 13.22314771   0.        ]", shape="box"] ;
300 -> 306 ;
307 [label="gini = -0.0000\nsamples = 445\nvalue = [ 163.00949333    0.        ]", shape="box"] ;
299 -> 307 ;
308 [label="gini = -0.0000\nsamples = 20\nvalue = [ 7.75150038  0.        ]", shape="box"] ;
298 -> 308 ;
309 [label="gini = -0.0000\nsamples = 373\nvalue = [ 142.26283054    0.        ]", shape="box"] ;
295 -> 309 ;
310 [label="X[3] <= 0.9575\ngini = 0.0229400220283\nsamples = 426", shape="box"] ;
294 -> 310 ;
311 [label="X[14] <= 0.5000\ngini = 0.0297988342518\nsamples = 329", shape="box"] ;
310 -> 311 ;
312 [label="X[5] <= 0.2778\ngini = 0.0316165927859\nsamples = 309", shape="box"] ;
311 -> 312 ;
313 [label="X[0] <= 0.0872\ngini = 0.0747859990094\nsamples = 135", shape="box"] ;
312 -> 313 ;
314 [label="gini = 0.0000\nsamples = 133\nvalue = [ 43.54519332   0.        ]", shape="box"] ;
313 -> 314 ;
315 [label="gini = 0.2020\nsamples = 2\nvalue = [ 0.22798531  1.77201469]", shape="box"] ;
313 -> 315 ;
316 [label="gini = 0.0000\nsamples = 174\nvalue = [ 64.74782672   0.        ]", shape="box"] ;
312 -> 316 ;
317 [label="gini = 0.0000\nsamples = 20\nvalue = [ 6.83955916  0.        ]", shape="box"] ;
311 -> 317 ;
318 [label="gini = -0.0000\nsamples = 97\nvalue = [ 35.56570763   0.        ]", shape="box"] ;
310 -> 318 ;
319 [label="X[14] <= 0.5000\ngini = 0.0206543098386\nsamples = 1412", shape="box"] ;
293 -> 319 ;
320 [label="X[3] <= 0.9806\ngini = 0.0226283951825\nsamples = 1297", shape="box"] ;
319 -> 320 ;
321 [label="X[8] <= 0.5000\ngini = 0.0382850331336\nsamples = 763", shape="box"] ;
320 -> 321 ;
322 [label="X[3] <= 0.9686\ngini = 0.0512886060392\nsamples = 563", shape="box"] ;
321 -> 322 ;
323 [label="gini = -0.0000\nsamples = 280\nvalue = [ 97.57771069   0.        ]", shape="box"] ;
322 -> 323 ;
324 [label="X[13] <= 0.5000\ngini = 0.0967755903051\nsamples = 283", shape="box"] ;
322 -> 324 ;
325 [label="X[10] <= 0.5000\ngini = 0.100303457624\nsamples = 270", shape="box"] ;
324 -> 325 ;
326 [label="X[0] <= 0.0588\ngini = 0.106708203738\nsamples = 256", shape="box"] ;
325 -> 326 ;
327 [label="gini = 0.0000\nsamples = 214\nvalue = [ 76.14709199   0.        ]", shape="box"] ;
326 -> 327 ;
328 [label="gini = 0.4182\nsamples = 42\nvalue = [ 12.53919179   5.31604408]", shape="box"] ;
326 -> 328 ;
329 [label="gini = -0.0000\nsamples = 14\nvalue = [ 6.38358855  0.        ]", shape="box"] ;
325 -> 329 ;
330 [label="gini = -0.0000\nsamples = 13\nvalue = [ 3.87575019  0.        ]", shape="box"] ;
324 -> 330 ;
331 [label="gini = -0.0000\nsamples = 200\nvalue = [ 70.44745935   0.        ]", shape="box"] ;
321 -> 331 ;
332 [label="gini = -0.0000\nsamples = 534\nvalue = [ 192.19161241    0.        ]", shape="box"] ;
320 -> 332 ;
333 [label="gini = -0.0000\nsamples = 115\nvalue = [ 44.91310515   0.        ]", shape="box"] ;
319 -> 333 ;
334 [label="gini = 0.0000\nsamples = 32\nvalue = [ 11.39926527   0.        ]", shape="box"] ;
292 -> 334 ;
335 [label="X[4] <= 0.4895\ngini = 0.0917441175919\nsamples = 607", shape="box"] ;
291 -> 335 ;
336 [label="X[5] <= 0.3148\ngini = 0.212612397883\nsamples = 210", shape="box"] ;
335 -> 336 ;
337 [label="X[8] <= 0.5000\ngini = 0.301038466858\nsamples = 130", shape="box"] ;
336 -> 337 ;
338 [label="gini = 0.3789\nsamples = 89\nvalue = [ 31.23398683  10.63208817]", shape="box"] ;
337 -> 338 ;
339 [label="gini = -0.0000\nsamples = 41\nvalue = [ 15.73098607   0.        ]", shape="box"] ;
337 -> 339 ;
340 [label="gini = 0.0000\nsamples = 80\nvalue = [ 30.32204561   0.        ]", shape="box"] ;
336 -> 340 ;
341 [label="gini = -0.0000\nsamples = 397\nvalue = [ 132.68744771    0.        ]", shape="box"] ;
335 -> 341 ;
342 [label="gini = 0.3552\nsamples = 7\nvalue = [ 1.59589714  5.31604408]", shape="box"] ;
192 -> 342 ;
343 [label="X[13] <= 0.5000\ngini = 0.325206226111\nsamples = 1621", shape="box"] ;
191 -> 343 ;
344 [label="X[3] <= 0.9593\ngini = 0.322542049832\nsamples = 1576", shape="box"] ;
343 -> 344 ;
345 [label="X[7] <= 0.6606\ngini = 0.383112837079\nsamples = 691", shape="box"] ;
344 -> 345 ;
346 [label="X[4] <= 0.4017\ngini = 0.288942923506\nsamples = 203", shape="box"] ;
345 -> 346 ;
347 [label="X[3] <= 0.8843\ngini = 0.293589778034\nsamples = 201", shape="box"] ;
346 -> 347 ;
348 [label="X[5] <= 0.3395\ngini = 0.300003955972\nsamples = 199", shape="box"] ;
347 -> 348 ;
349 [label="X[10] <= 0.5000\ngini = 0.267740327164\nsamples = 140", shape="box"] ;
348 -> 349 ;
350 [label="X[5] <= 0.2778\ngini = 0.258981371649\nsamples = 123", shape="box"] ;
349 -> 350 ;
351 [label="X[0] <= 0.1608\ngini = 0.30384307413\nsamples = 100", shape="box"] ;
350 -> 351 ;
352 [label="gini = 0.4040\nsamples = 76\nvalue = [ 19.37875095  49.61641145]", shape="box"] ;
351 -> 352 ;
353 [label="gini = 0.1206\nsamples = 24\nvalue = [  3.41977958  49.61641145]", shape="box"] ;
351 -> 353 ;
354 [label="gini = 0.1286\nsamples = 23\nvalue = [  3.41977958  46.07238206]", shape="box"] ;
350 -> 354 ;
355 [label="gini = 0.3512\nsamples = 17\nvalue = [  3.64776489  12.40410286]", shape="box"] ;
349 -> 355 ;
356 [label="gini = 0.3804\nsamples = 59\nvalue = [ 16.41494199  47.84439676]", shape="box"] ;
348 -> 356 ;
357 [label="gini = -0.0000\nsamples = 2\nvalue = [ 0.          7.08805878]", shape="box"] ;
347 -> 357 ;
358 [label="gini = 0.0000\nsamples = 2\nvalue = [ 0.          5.31604408]", shape="box"] ;
346 -> 358 ;
359 [label="X[0] <= 0.1249\ngini = 0.426140042439\nsamples = 488", shape="box"] ;
345 -> 359 ;
360 [label="X[5] <= 0.4877\ngini = 0.448842371884\nsamples = 241", shape="box"] ;
359 -> 360 ;
361 [label="X[5] <= 0.1914\ngini = 0.394325352932\nsamples = 218", shape="box"] ;
360 -> 361 ;
362 [label="gini = 0.0000\nsamples = 45\nvalue = [ 15.95897137   0.        ]", shape="box"] ;
361 -> 362 ;
363 [label="X[5] <= 0.2037\ngini = 0.434171817899\nsamples = 173", shape="box"] ;
361 -> 363 ;
364 [label="gini = 0.4282\nsamples = 11\nvalue = [ 3.19179427  7.08805878]", shape="box"] ;
363 -> 364 ;
365 [label="X[1] <= 0.9299\ngini = 0.394325352932\nsamples = 162", shape="box"] ;
363 -> 365 ;
366 [label="X[5] <= 0.2654\ngini = 0.416638639275\nsamples = 144", shape="box"] ;
365 -> 366 ;
367 [label="gini = 0.0000\nsamples = 32\nvalue = [ 11.62725057   0.        ]", shape="box"] ;
366 -> 367 ;
368 [label="X[5] <= 0.4259\ngini = 0.456743393992\nsamples = 112", shape="box"] ;
366 -> 368 ;
369 [label="gini = 0.4831\nsamples = 83\nvalue = [ 28.27017786  19.49216164]", shape="box"] ;
368 -> 369 ;
370 [label="gini = 0.2435\nsamples = 29\nvalue = [ 10.71530935   1.77201469]", shape="box"] ;
368 -> 370 ;
371 [label="gini = 0.0000\nsamples = 18\nvalue = [ 6.83955916  0.        ]", shape="box"] ;
365 -> 371 ;
372 [label="gini = 0.4158\nsamples = 23\nvalue = [  5.92761794  14.17611756]", shape="box"] ;
360 -> 372 ;
373 [label="X[0] <= 0.1834\ngini = 0.281254683186\nsamples = 247", shape="box"] ;
359 -> 373 ;
374 [label="X[8] <= 0.5000\ngini = 0.401863991976\nsamples = 152", shape="box"] ;
373 -> 374 ;
375 [label="X[5] <= 0.1543\ngini = 0.412657178409\nsamples = 112", shape="box"] ;
374 -> 375 ;
376 [label="gini = 0.2020\nsamples = 19\nvalue = [  3.19179427  24.80820573]", shape="box"] ;
375 -> 376 ;
377 [label="gini = 0.4582\nsamples = 93\nvalue = [ 27.35823664  49.61641145]", shape="box"] ;
375 -> 377 ;
378 [label="gini = 0.3705\nsamples = 40\nvalue = [  9.80336813  30.12424981]", shape="box"] ;
374 -> 378 ;
379 [label="gini = 0.1435\nsamples = 95\nvalue = [  13.45113302  159.48132252]", shape="box"] ;
373 -> 379 ;
380 [label="X[0] <= 0.1243\ngini = 0.279288465792\nsamples = 885", shape="box"] ;
344 -> 380 ;
381 [label="X[12] <= 0.5000\ngini = 0.450256136181\nsamples = 348", shape="box"] ;
380 -> 381 ;
382 [label="X[10] <= 0.5000\ngini = 0.43884712426\nsamples = 283", shape="box"] ;
381 -> 382 ;
383 [label="X[8] <= 0.5000\ngini = 0.450571692373\nsamples = 234", shape="box"] ;
382 -> 383 ;
384 [label="X[0] <= 0.1034\ngini = 0.437921388217\nsamples = 163", shape="box"] ;
383 -> 384 ;
385 [label="gini = 0.4458\nsamples = 52\nvalue = [ 17.55486851   8.86007347]", shape="box"] ;
384 -> 385 ;
386 [label="X[3] <= 0.9787\ngini = 0.370577976209\nsamples = 111", shape="box"] ;
384 -> 386 ;
387 [label="gini = 0.0000\nsamples = 2\nvalue = [ 0.68395592  0.        ]", shape="box"] ;
386 -> 387 ;
388 [label="X[3] <= 0.9807\ngini = 0.365948634778\nsamples = 109", shape="box"] ;
386 -> 388 ;
389 [label="gini = 0.2873\nsamples = 35\nvalue = [  8.20747099  38.98432328]", shape="box"] ;
388 -> 389 ;
390 [label="gini = 0.4103\nsamples = 74\nvalue = [ 19.37875095  47.84439676]", shape="box"] ;
388 -> 390 ;
391 [label="gini = 0.4754\nsamples = 71\nvalue = [ 22.57054523  35.44029389]", shape="box"] ;
383 -> 391 ;
392 [label="gini = 0.3757\nsamples = 49\nvalue = [ 11.85523588  35.44029389]", shape="box"] ;
382 -> 392 ;
393 [label="gini = 0.4882\nsamples = 65\nvalue = [ 22.11457462  30.12424981]", shape="box"] ;
381 -> 393 ;
394 [label="X[1] <= 0.9389\ngini = 0.190980810117\nsamples = 537", shape="box"] ;
380 -> 394 ;
395 [label="gini = 0.3000\nsamples = 5\nvalue = [ 1.59589714  7.08805878]", shape="box"] ;
394 -> 395 ;
396 [label="X[0] <= 0.1632\ngini = 0.189742847526\nsamples = 532", shape="box"] ;
394 -> 396 ;
397 [label="X[3] <= 0.9828\ngini = 0.263591097515\nsamples = 250", shape="box"] ;
396 -> 397 ;
398 [label="X[3] <= 0.9818\ngini = 0.259495329922\nsamples = 247", shape="box"] ;
397 -> 398 ;
399 [label="X[5] <= 0.3148\ngini = 0.294211274325\nsamples = 190", shape="box"] ;
398 -> 399 ;
400 [label="X[3] <= 0.9804\ngini = 0.257625657234\nsamples = 118", shape="box"] ;
399 -> 400 ;
401 [label="gini = 0.1264\nsamples = 25\nvalue = [  2.96380897  40.75633798]", shape="box"] ;
400 -> 401 ;
402 [label="gini = 0.3016\nsamples = 93\nvalue = [ 20.51867748  90.37274943]", shape="box"] ;
400 -> 402 ;
403 [label="gini = 0.3559\nsamples = 72\nvalue = [ 18.69479504  62.02051431]", shape="box"] ;
399 -> 403 ;
404 [label="gini = 0.1547\nsamples = 57\nvalue = [  7.52351508  81.51267595]", shape="box"] ;
398 -> 404 ;
405 [label="gini = -0.0000\nsamples = 3\nvalue = [ 1.13992653  0.        ]", shape="box"] ;
397 -> 405 ;
406 [label="X[7] <= 0.5768\ngini = 0.13871899213\nsamples = 282", shape="box"] ;
396 -> 406 ;
407 [label="gini = 0.1216\nsamples = 73\nvalue = [   9.11941221  131.1290874 ]", shape="box"] ;
406 -> 407 ;
408 [label="X[3] <= 0.9787\ngini = 0.144896384731\nsamples = 209", shape="box"] ;
406 -> 408 ;
409 [label="gini = 0.0604\nsamples = 13\nvalue = [  1.13992653  35.44029389]", shape="box"] ;
408 -> 409 ;
410 [label="X[14] <= 0.5000\ngini = 0.153301141559\nsamples = 196", shape="box"] ;
408 -> 410 ;
411 [label="X[3] <= 0.9802\ngini = 0.159693484175\nsamples = 181", shape="box"] ;
410 -> 411 ;
412 [label="gini = 0.2455\nsamples = 14\nvalue = [  2.96380897  17.72014695]", shape="box"] ;
411 -> 412 ;
413 [label="X[0] <= 0.2710\ngini = 0.15314134675\nsamples = 167", shape="box"] ;
411 -> 413 ;
414 [label="X[10] <= 0.5000\ngini = 0.182257203788\nsamples = 139", shape="box"] ;
413 -> 414 ;
415 [label="X[0] <= 0.2693\ngini = 0.191307969801\nsamples = 110", shape="box"] ;
414 -> 415 ;
416 [label="X[11] <= 0.5000\ngini = 0.189491906668\nsamples = 109", shape="box"] ;
415 -> 416 ;
417 [label="X[4] <= 0.3577\ngini = 0.191184465265\nsamples = 108", shape="box"] ;
416 -> 417 ;
418 [label="gini = 0.2020\nsamples = 77\nvalue = [  13.22314771  102.77685229]", shape="box"] ;
417 -> 418 ;
419 [label="gini = 0.1692\nsamples = 31\nvalue = [  5.47164733  53.16044084]", shape="box"] ;
417 -> 419 ;
420 [label="gini = -0.0000\nsamples = 1\nvalue = [ 0.          1.77201469]", shape="box"] ;
416 -> 420 ;
421 [label="gini = -0.0000\nsamples = 1\nvalue = [ 0.22798531  0.        ]", shape="box"] ;
415 -> 421 ;
422 [label="gini = 0.1480\nsamples = 29\nvalue = [  3.87575019  44.30036737]", shape="box"] ;
414 -> 422 ;
423 [label="gini = 0.0464\nsamples = 28\nvalue = [  1.59589714  65.5645437 ]", shape="box"] ;
413 -> 423 ;
424 [label="gini = 0.0908\nsamples = 15\nvalue = [  1.59589714  31.8962645 ]", shape="box"] ;
410 -> 424 ;
425 [label="gini = 0.4252\nsamples = 45\nvalue = [ 12.53919179  28.35223511]", shape="box"] ;
343 -> 425 ;
426 [label="X[7] <= 0.0795\ngini = 0.319058668019\nsamples = 854", shape="box"] ;
42 -> 426 ;
427 [label="X[11] <= 0.5000\ngini = 0.385531594984\nsamples = 344", shape="box"] ;
426 -> 427 ;
428 [label="X[0] <= 0.0324\ngini = 0.382746067011\nsamples = 312", shape="box"] ;
427 -> 428 ;
429 [label="X[14] <= 0.5000\ngini = 0.480845076315\nsamples = 131", shape="box"] ;
428 -> 429 ;
430 [label="X[3] <= 0.0341\ngini = 0.482189846891\nsamples = 129", shape="box"] ;
429 -> 430 ;
431 [label="gini = 0.0000\nsamples = 14\nvalue = [ 6.38358855  0.        ]", shape="box"] ;
430 -> 431 ;
432 [label="X[10] <= 0.5000\ngini = 0.493149144209\nsamples = 115", shape="box"] ;
430 -> 432 ;
433 [label="gini = 0.4995\nsamples = 88\nvalue = [ 29.866075   31.8962645]", shape="box"] ;
432 -> 433 ;
434 [label="gini = 0.0000\nsamples = 27\nvalue = [ 10.48732405   0.        ]", shape="box"] ;
432 -> 434 ;
435 [label="gini = -0.0000\nsamples = 2\nvalue = [ 0.68395592  0.        ]", shape="box"] ;
429 -> 435 ;
436 [label="X[13] <= 0.5000\ngini = 0.253659852953\nsamples = 181", shape="box"] ;
428 -> 436 ;
437 [label="X[5] <= 0.7840\ngini = 0.257549931388\nsamples = 177", shape="box"] ;
436 -> 437 ;
438 [label="X[5] <= 0.1296\ngini = 0.251886005903\nsamples = 173", shape="box"] ;
437 -> 438 ;
439 [label="gini = 0.0789\nsamples = 9\nvalue = [  0.91194122  21.26417634]", shape="box"] ;
438 -> 439 ;
440 [label="X[0] <= 0.2237\ngini = 0.267008987321\nsamples = 164", shape="box"] ;
438 -> 440 ;
441 [label="X[8] <= 0.5000\ngini = 0.26090224353\nsamples = 160", shape="box"] ;
440 -> 441 ;
442 [label="gini = 0.2206\nsamples = 85\nvalue = [  16.64292729  115.18095515]", shape="box"] ;
441 -> 442 ;
443 [label="gini = 0.3178\nsamples = 75\nvalue = [ 16.64292729  67.3365584 ]", shape="box"] ;
441 -> 443 ;
444 [label="gini = 0.0000\nsamples = 4\nvalue = [ 1.13992653  0.        ]", shape="box"] ;
440 -> 444 ;
445 [label="gini = 0.0000\nsamples = 4\nvalue = [ 1.13992653  0.        ]", shape="box"] ;
437 -> 445 ;
446 [label="gini = 0.1136\nsamples = 4\nvalue = [ 0.45597061  7.08805878]", shape="box"] ;
436 -> 446 ;
447 [label="gini = 0.4101\nsamples = 32\nvalue = [ 10.03135344  24.80820573]", shape="box"] ;
427 -> 447 ;
448 [label="X[0] <= 0.0192\ngini = 0.276938800012\nsamples = 510", shape="box"] ;
426 -> 448 ;
449 [label="gini = 0.3712\nsamples = 79\nvalue = [ 27.13025134   8.86007347]", shape="box"] ;
448 -> 449 ;
450 [label="X[1] <= 0.1871\ngini = 0.230251234158\nsamples = 431", shape="box"] ;
448 -> 450 ;
451 [label="X[10] <= 0.5000\ngini = 0.206832837462\nsamples = 118", shape="box"] ;
450 -> 451 ;
452 [label="gini = 0.1767\nsamples = 85\nvalue = [  14.81904485  136.44513149]", shape="box"] ;
451 -> 452 ;
453 [label="gini = 0.3042\nsamples = 33\nvalue = [  7.75150038  33.6682792 ]", shape="box"] ;
451 -> 453 ;
454 [label="X[3] <= 0.0871\ngini = 0.240138107674\nsamples = 313", shape="box"] ;
450 -> 454 ;
455 [label="X[7] <= 0.0970\ngini = 0.255898307274\nsamples = 273", shape="box"] ;
454 -> 455 ;
456 [label="X[0] <= 0.0582\ngini = 0.235337569784\nsamples = 133", shape="box"] ;
455 -> 456 ;
457 [label="gini = 0.3482\nsamples = 86\nvalue = [ 20.51867748  70.88058779]", shape="box"] ;
456 -> 457 ;
458 [label="gini = 0.1040\nsamples = 47\nvalue = [  5.47164733  93.91677882]", shape="box"] ;
456 -> 458 ;
459 [label="X[3] <= 0.0730\ngini = 0.276956812217\nsamples = 140", shape="box"] ;
455 -> 459 ;
460 [label="X[0] <= 0.0529\ngini = 0.265307736054\nsamples = 135", shape="box"] ;
459 -> 460 ;
461 [label="gini = 0.3522\nsamples = 78\nvalue = [ 19.37875095  65.5645437 ]", shape="box"] ;
460 -> 461 ;
462 [label="gini = 0.1670\nsamples = 57\nvalue = [  8.4354563   83.28469065]", shape="box"] ;
460 -> 462 ;
463 [label="gini = 0.0000\nsamples = 5\nvalue = [ 1.82388244  0.        ]", shape="box"] ;
459 -> 463 ;
464 [label="gini = 0.1535\nsamples = 40\nvalue = [  6.15560324  67.3365584 ]", shape="box"] ;
454 -> 464 ;
}