digraph Tree {
0 [label="X[9] <= 0.5110\ngini = 0.499875563302\nsamples = 17378", shape="box"] ;
1 [label="X[0] <= 0.0255\ngini = 0.115044459633\nsamples = 655", shape="box"] ;
0 -> 1 ;
2 [label="gini = 0.4832\nsamples = 87\nvalue = [ 25.77684302  37.33350256]", shape="box"] ;
1 -> 2 ;
3 [label="X[1] <= 0.6951\ngini = 0.083846201846\nsamples = 568", shape="box"] ;
1 -> 3 ;
4 [label="X[3] <= 0.0936\ngini = 0.0793019602039\nsamples = 558", shape="box"] ;
3 -> 4 ;
5 [label="X[9] <= 0.0155\ngini = 0.0613079922391\nsamples = 454", shape="box"] ;
4 -> 5 ;
6 [label="X[7] <= 0.0347\ngini = 0.0576076008652\nsamples = 442", shape="box"] ;
5 -> 6 ;
7 [label="gini = 0.0994\nsamples = 52\nvalue = [   5.99978243  108.444936  ]", shape="box"] ;
6 -> 7 ;
8 [label="X[10] <= 0.5000\ngini = 0.0523476510868\nsamples = 390", shape="box"] ;
6 -> 8 ;
9 [label="X[0] <= 0.0259\ngini = 0.0384875051706\nsamples = 314", shape="box"] ;
8 -> 9 ;
10 [label="gini = 0.0000\nsamples = 1\nvalue = [ 0.22221416  0.        ]", shape="box"] ;
9 -> 10 ;
11 [label="X[2] <= 0.5000\ngini = 0.0379589692145\nsamples = 313", shape="box"] ;
9 -> 11 ;
12 [label="gini = 0.1466\nsamples = 29\nvalue = [  3.99985495  46.22243174]", shape="box"] ;
11 -> 12 ;
13 [label="X[3] <= 0.0146\ngini = 0.0300802863678\nsamples = 284", shape="box"] ;
11 -> 13 ;
14 [label="gini = 0.0085\nsamples = 62\nvalue = [   0.66664249  154.66736773]", shape="box"] ;
13 -> 14 ;
15 [label="X[1] <= 0.0529\ngini = 0.0357010758281\nsamples = 222", shape="box"] ;
13 -> 15 ;
16 [label="gini = 0.0183\nsamples = 59\nvalue = [   1.55549915  167.11186859]", shape="box"] ;
15 -> 16 ;
17 [label="X[9] <= 0.0145\ngini = 0.0426419581281\nsamples = 163", shape="box"] ;
15 -> 17 ;
18 [label="X[6] <= 0.5000\ngini = 0.0416461777229\nsamples = 162", shape="box"] ;
17 -> 18 ;
19 [label="X[3] <= 0.0162\ngini = 0.0401706532792\nsamples = 141", shape="box"] ;
18 -> 19 ;
20 [label="gini = 0.4234\nsamples = 5\nvalue = [ 1.55549915  3.55557167]", shape="box"] ;
19 -> 20 ;
21 [label="X[4] <= 0.7322\ngini = 0.0324808329656\nsamples = 136", shape="box"] ;
19 -> 21 ;
22 [label="gini = 0.0396\nsamples = 83\nvalue = [   4.22206912  204.44537114]", shape="box"] ;
21 -> 22 ;
23 [label="gini = 0.0227\nsamples = 53\nvalue = [   1.77771331  152.8895819 ]", shape="box"] ;
21 -> 23 ;
24 [label="gini = 0.0526\nsamples = 21\nvalue = [  1.33328498  48.00021757]", shape="box"] ;
18 -> 24 ;
25 [label="gini = -0.0000\nsamples = 1\nvalue = [ 0.22221416  0.        ]", shape="box"] ;
17 -> 25 ;
26 [label="gini = 0.1263\nsamples = 76\nvalue = [   9.55520905  131.55615187]", shape="box"] ;
8 -> 26 ;
27 [label="gini = 0.1975\nsamples = 12\nvalue = [  2.88878413  23.11121587]", shape="box"] ;
5 -> 27 ;
28 [label="X[9] <= 0.0115\ngini = 0.179994125515\nsamples = 104", shape="box"] ;
4 -> 28 ;
29 [label="gini = 0.1596\nsamples = 96\nvalue = [  15.33277731  160.00072524]", shape="box"] ;
28 -> 29 ;
30 [label="gini = -0.0000\nsamples = 8\nvalue = [ 2.4443558  0.       ]", shape="box"] ;
28 -> 30 ;
31 [label="gini = 0.4537\nsamples = 10\nvalue = [ 3.33321246  1.77778584]", shape="box"] ;
3 -> 31 ;
32 [label="X[1] <= 0.4690\ngini = 0.494862393026\nsamples = 16723", shape="box"] ;
0 -> 32 ;
33 [label="X[7] <= 0.0795\ngini = 0.303509800549\nsamples = 1565", shape="box"] ;
32 -> 33 ;
34 [label="X[10] <= 0.5000\ngini = 0.363763452704\nsamples = 335", shape="box"] ;
33 -> 34 ;
35 [label="X[0] <= 0.0284\ngini = 0.350589805966\nsamples = 285", shape="box"] ;
34 -> 35 ;
36 [label="gini = 0.3156\nsamples = 86\nvalue = [ 29.11005548   7.11114334]", shape="box"] ;
35 -> 36 ;
37 [label="X[3] <= 0.0566\ngini = 0.261488050931\nsamples = 199", shape="box"] ;
35 -> 37 ;
38 [label="X[0] <= 0.0413\ngini = 0.245860930916\nsamples = 184", shape="box"] ;
37 -> 38 ;
39 [label="gini = 0.3820\nsamples = 54\nvalue = [ 15.99941981  46.22243174]", shape="box"] ;
38 -> 39 ;
40 [label="X[14] <= 0.5000\ngini = 0.197524596641\nsamples = 130", shape="box"] ;
38 -> 40 ;
41 [label="X[7] <= 0.0347\ngini = 0.200437689449\nsamples = 127", shape="box"] ;
40 -> 41 ;
42 [label="X[8] <= 0.5000\ngini = 0.208441696914\nsamples = 103", shape="box"] ;
41 -> 42 ;
43 [label="gini = 0.1789\nsamples = 57\nvalue = [  9.99963738  90.66707764]", shape="box"] ;
42 -> 43 ;
44 [label="gini = 0.2503\nsamples = 46\nvalue = [  9.77742321  56.88914675]", shape="box"] ;
42 -> 44 ;
45 [label="gini = 0.1683\nsamples = 24\nvalue = [  3.99985495  39.11128839]", shape="box"] ;
41 -> 45 ;
46 [label="gini = 0.1107\nsamples = 3\nvalue = [ 0.44442833  7.11114334]", shape="box"] ;
40 -> 46 ;
47 [label="gini = 0.4978\nsamples = 15\nvalue = [ 4.66649744  5.33335751]", shape="box"] ;
37 -> 47 ;
48 [label="gini = 0.4444\nsamples = 50\nvalue = [ 14.22170649  28.44457338]", shape="box"] ;
34 -> 48 ;
49 [label="X[0] <= 0.0322\ngini = 0.287673536135\nsamples = 1230", shape="box"] ;
33 -> 49 ;
50 [label="X[8] <= 0.5000\ngini = 0.498720508912\nsamples = 443", shape="box"] ;
49 -> 50 ;
51 [label="X[0] <= 0.0198\ngini = 0.484714621891\nsamples = 260", shape="box"] ;
50 -> 51 ;
52 [label="X[4] <= 0.4289\ngini = 0.214917074309\nsamples = 113", shape="box"] ;
51 -> 52 ;
53 [label="gini = 0.4688\nsamples = 32\nvalue = [ 8.88856656  5.33335751]", shape="box"] ;
52 -> 53 ;
54 [label="gini = 0.0000\nsamples = 81\nvalue = [ 29.33226964   0.        ]", shape="box"] ;
52 -> 54 ;
55 [label="X[1] <= 0.1382\ngini = 0.398674691241\nsamples = 147", shape="box"] ;
51 -> 55 ;
56 [label="gini = 0.2344\nsamples = 29\nvalue = [ 11.33292236   1.77778584]", shape="box"] ;
55 -> 56 ;
57 [label="X[0] <= 0.0304\ngini = 0.340093746462\nsamples = 118", shape="box"] ;
55 -> 57 ;
58 [label="X[14] <= 0.5000\ngini = 0.316655052643\nsamples = 107", shape="box"] ;
57 -> 58 ;
59 [label="X[7] <= 0.6280\ngini = 0.311547584668\nsamples = 105", shape="box"] ;
58 -> 59 ;
60 [label="gini = 0.2879\nsamples = 97\nvalue = [  21.77698807  103.11157849]", shape="box"] ;
59 -> 60 ;
61 [label="gini = 0.0000\nsamples = 8\nvalue = [ 2.88878413  0.        ]", shape="box"] ;
59 -> 61 ;
62 [label="gini = 0.0000\nsamples = 2\nvalue = [ 0.66664249  0.        ]", shape="box"] ;
58 -> 62 ;
63 [label="gini = 0.4352\nsamples = 11\nvalue = [ 3.77764079  1.77778584]", shape="box"] ;
57 -> 63 ;
64 [label="X[0] <= 0.0139\ngini = 0.484209499897\nsamples = 183", shape="box"] ;
50 -> 64 ;
65 [label="gini = 0.0000\nsamples = 32\nvalue = [ 11.77735069   0.        ]", shape="box"] ;
64 -> 65 ;
66 [label="X[3] <= 0.0176\ngini = 0.497375971288\nsamples = 151", shape="box"] ;
64 -> 66 ;
67 [label="gini = -0.0000\nsamples = 24\nvalue = [ 8.6663524  0.       ]", shape="box"] ;
66 -> 67 ;
68 [label="X[4] <= 0.2364\ngini = 0.499711510528\nsamples = 127", shape="box"] ;
66 -> 68 ;
69 [label="gini = -0.0000\nsamples = 9\nvalue = [ 3.1109983  0.       ]", shape="box"] ;
68 -> 69 ;
70 [label="X[0] <= 0.0282\ngini = 0.497969101666\nsamples = 118", shape="box"] ;
68 -> 70 ;
71 [label="gini = 0.4839\nsamples = 94\nvalue = [ 28.44341299  40.88907423]", shape="box"] ;
70 -> 71 ;
72 [label="gini = 0.2732\nsamples = 24\nvalue = [ 9.11078072  1.77778584]", shape="box"] ;
70 -> 72 ;
73 [label="X[0] <= 0.0483\ngini = 0.187018751853\nsamples = 787", shape="box"] ;
49 -> 73 ;
74 [label="X[1] <= 0.2151\ngini = 0.312414068452\nsamples = 239", shape="box"] ;
73 -> 74 ;
75 [label="X[6] <= 0.5000\ngini = 0.285366926618\nsamples = 166", shape="box"] ;
74 -> 75 ;
76 [label="X[11] <= 0.5000\ngini = 0.262870205421\nsamples = 128", shape="box"] ;
75 -> 76 ;
77 [label="X[10] <= 0.5000\ngini = 0.251148920165\nsamples = 117", shape="box"] ;
76 -> 77 ;
78 [label="gini = 0.2386\nsamples = 81\nvalue = [ 15.99941981  99.55600682]", shape="box"] ;
77 -> 78 ;
79 [label="gini = 0.2835\nsamples = 36\nvalue = [  7.33306741  35.55571672]", shape="box"] ;
77 -> 79 ;
80 [label="gini = 0.4109\nsamples = 11\nvalue = [ 2.88878413  7.11114334]", shape="box"] ;
76 -> 80 ;
81 [label="gini = 0.3720\nsamples = 38\nvalue = [  9.33299489  28.44457338]", shape="box"] ;
75 -> 81 ;
82 [label="gini = 0.3750\nsamples = 73\nvalue = [ 19.55484643  58.66693259]", shape="box"] ;
74 -> 82 ;
83 [label="X[5] <= 0.0926\ngini = 0.144823568954\nsamples = 548", shape="box"] ;
73 -> 83 ;
84 [label="gini = 0.0638\nsamples = 41\nvalue = [  3.33321246  97.77822098]", shape="box"] ;
83 -> 84 ;
85 [label="X[4] <= 0.6987\ngini = 0.153576135606\nsamples = 507", shape="box"] ;
83 -> 85 ;
86 [label="X[1] <= 0.2981\ngini = 0.135143060412\nsamples = 341", shape="box"] ;
85 -> 86 ;
87 [label="X[10] <= 0.5000\ngini = 0.118108763774\nsamples = 245", shape="box"] ;
86 -> 87 ;
88 [label="X[0] <= 0.0485\ngini = 0.110236309303\nsamples = 195", shape="box"] ;
87 -> 88 ;
89 [label="gini = 0.0000\nsamples = 1\nvalue = [ 0.22221416  0.        ]", shape="box"] ;
88 -> 89 ;
90 [label="X[7] <= 0.6822\ngini = 0.109261845116\nsamples = 194", shape="box"] ;
88 -> 90 ;
91 [label="gini = 0.0738\nsamples = 63\nvalue = [   5.11092577  128.00058019]", shape="box"] ;
90 -> 91 ;
92 [label="X[14] <= 0.5000\ngini = 0.127769877281\nsamples = 131", shape="box"] ;
90 -> 92 ;
93 [label="X[5] <= 0.2778\ngini = 0.12863018823\nsamples = 130", shape="box"] ;
92 -> 93 ;
94 [label="gini = 0.0727\nsamples = 71\nvalue = [   5.99978243  152.8895819 ]", shape="box"] ;
93 -> 94 ;
95 [label="gini = 0.2221\nsamples = 59\nvalue = [ 10.88849403  74.66700511]", shape="box"] ;
93 -> 95 ;
96 [label="gini = -0.0000\nsamples = 1\nvalue = [ 0.          1.77778584]", shape="box"] ;
92 -> 96 ;
97 [label="gini = 0.1494\nsamples = 50\nvalue = [  7.55528158  85.33372013]", shape="box"] ;
87 -> 97 ;
98 [label="gini = 0.1908\nsamples = 96\nvalue = [  14.66613482  122.66722269]", shape="box"] ;
86 -> 98 ;
99 [label="X[4] <= 0.7322\ngini = 0.193007658621\nsamples = 166", shape="box"] ;
85 -> 99 ;
100 [label="gini = 0.2999\nsamples = 26\nvalue = [  5.99978243  26.66678754]", shape="box"] ;
99 -> 100 ;
101 [label="X[5] <= 0.5864\ngini = 0.1767326995\nsamples = 140", shape="box"] ;
99 -> 101 ;
102 [label="X[11] <= 0.5000\ngini = 0.194405943606\nsamples = 123", shape="box"] ;
101 -> 102 ;
103 [label="X[3] <= 0.0258\ngini = 0.18636197851\nsamples = 118", shape="box"] ;
102 -> 103 ;
104 [label="X[4] <= 0.8054\ngini = 0.174569829656\nsamples = 115", shape="box"] ;
103 -> 104 ;
105 [label="gini = 0.0795\nsamples = 26\nvalue = [  1.99992748  46.22243174]", shape="box"] ;
104 -> 105 ;
106 [label="gini = 0.2040\nsamples = 89\nvalue = [  16.44384813  126.22279436]", shape="box"] ;
104 -> 106 ;
107 [label="gini = 0.5000\nsamples = 3\nvalue = [ 1.77771331  1.77778584]", shape="box"] ;
103 -> 107 ;
108 [label="gini = 0.4898\nsamples = 5\nvalue = [ 1.33328498  1.77778584]", shape="box"] ;
102 -> 108 ;
109 [label="gini = 0.0889\nsamples = 17\nvalue = [  1.99992748  40.88907423]", shape="box"] ;
101 -> 109 ;
110 [label="X[12] <= 0.5000\ngini = 0.460162686777\nsamples = 15158", shape="box"] ;
32 -> 110 ;
111 [label="X[0] <= 0.0918\ngini = 0.459858646815\nsamples = 12638", shape="box"] ;
110 -> 111 ;
112 [label="X[6] <= 0.5000\ngini = 0.224871696299\nsamples = 10804", shape="box"] ;
111 -> 112 ;
113 [label="X[3] <= 0.4336\ngini = 0.209603208505\nsamples = 10782", shape="box"] ;
112 -> 113 ;
114 [label="X[4] <= 0.1736\ngini = 0.444187024337\nsamples = 2612", shape="box"] ;
113 -> 114 ;
115 [label="X[5] <= 0.1914\ngini = 0.494927266594\nsamples = 798", shape="box"] ;
114 -> 115 ;
116 [label="X[5] <= 0.1420\ngini = 0.411167029992\nsamples = 224", shape="box"] ;
115 -> 116 ;
117 [label="X[4] <= 0.0941\ngini = 0.355301047397\nsamples = 116", shape="box"] ;
116 -> 117 ;
118 [label="gini = 0.1911\nsamples = 27\nvalue = [  5.11092577  42.66686006]", shape="box"] ;
117 -> 118 ;
119 [label="gini = 0.4213\nsamples = 89\nvalue = [ 25.33241469  58.66693259]", shape="box"] ;
117 -> 119 ;
120 [label="X[8] <= 0.5000\ngini = 0.471831875897\nsamples = 108", shape="box"] ;
116 -> 120 ;
121 [label="gini = 0.1742\nsamples = 47\nvalue = [ 16.6660623    1.77778584]", shape="box"] ;
120 -> 121 ;
122 [label="gini = 0.3573\nsamples = 61\nvalue = [ 15.11056315  49.77800341]", shape="box"] ;
120 -> 122 ;
123 [label="X[0] <= 0.0191\ngini = 0.493482980095\nsamples = 574", shape="box"] ;
115 -> 123 ;
124 [label="gini = 0.0000\nsamples = 137\nvalue = [ 46.44276027   0.        ]", shape="box"] ;
123 -> 124 ;
125 [label="X[0] <= 0.0320\ngini = 0.499365640663\nsamples = 437", shape="box"] ;
123 -> 125 ;
126 [label="X[10] <= 0.5000\ngini = 0.491057083185\nsamples = 121", shape="box"] ;
125 -> 126 ;
127 [label="gini = 0.5000\nsamples = 93\nvalue = [ 30.2211263   30.22235921]", shape="box"] ;
126 -> 127 ;
128 [label="gini = 0.0000\nsamples = 28\nvalue = [ 9.33299489  0.        ]", shape="box"] ;
126 -> 128 ;
129 [label="X[5] <= 0.4506\ngini = 0.495647955405\nsamples = 316", shape="box"] ;
125 -> 129 ;
130 [label="X[5] <= 0.2654\ngini = 0.484916041695\nsamples = 265", shape="box"] ;
129 -> 130 ;
131 [label="gini = 0.4975\nsamples = 95\nvalue = [ 27.7767705   32.00014505]", shape="box"] ;
130 -> 131 ;
132 [label="X[7] <= 0.2954\ngini = 0.438282395893\nsamples = 170", shape="box"] ;
130 -> 132 ;
133 [label="gini = 0.3496\nsamples = 7\nvalue = [ 1.55549915  5.33335751]", shape="box"] ;
132 -> 133 ;
134 [label="X[3] <= 0.1742\ngini = 0.405990422467\nsamples = 163", shape="box"] ;
132 -> 134 ;
135 [label="gini = 0.2854\nsamples = 9\nvalue = [  2.22214164  10.66671502]", shape="box"] ;
134 -> 135 ;
136 [label="X[0] <= 0.0904\ngini = 0.283286695562\nsamples = 154", shape="box"] ;
134 -> 136 ;
137 [label="X[5] <= 0.4259\ngini = 0.250111199615\nsamples = 153", shape="box"] ;
136 -> 137 ;
138 [label="X[5] <= 0.3025\ngini = 0.127406050019\nsamples = 142", shape="box"] ;
137 -> 138 ;
139 [label="gini = 0.0000\nsamples = 48\nvalue = [ 16.22163397   0.        ]", shape="box"] ;
138 -> 139 ;
140 [label="gini = 0.1790\nsamples = 94\nvalue = [ 32.22105378   3.55557167]", shape="box"] ;
138 -> 140 ;
141 [label="gini = 0.4734\nsamples = 11\nvalue = [ 3.33321246  5.33335751]", shape="box"] ;
137 -> 141 ;
142 [label="gini = -0.0000\nsamples = 1\nvalue = [ 0.          1.77778584]", shape="box"] ;
136 -> 142 ;
143 [label="gini = 0.2577\nsamples = 51\nvalue = [  9.55520905  53.33357508]", shape="box"] ;
129 -> 143 ;
144 [label="X[0] <= 0.0495\ngini = 0.298981156738\nsamples = 1814", shape="box"] ;
114 -> 144 ;
145 [label="X[5] <= 0.5247\ngini = 0.083794722205\nsamples = 1316", shape="box"] ;
144 -> 145 ;
146 [label="X[3] <= 0.1454\ngini = 0.0715562587278\nsamples = 1303", shape="box"] ;
145 -> 146 ;
147 [label="X[8] <= 0.5000\ngini = 0.161262047845\nsamples = 466", shape="box"] ;
146 -> 147 ;
148 [label="X[3] <= 0.1437\ngini = 0.127406050019\nsamples = 340", shape="box"] ;
147 -> 148 ;
149 [label="X[5] <= 0.2407\ngini = 0.0824658702704\nsamples = 331", shape="box"] ;
148 -> 149 ;
150 [label="X[10] <= 0.5000\ngini = 0.132657699848\nsamples = 196", shape="box"] ;
149 -> 150 ;
151 [label="X[11] <= 0.5000\ngini = 0.111499208386\nsamples = 162", shape="box"] ;
150 -> 151 ;
152 [label="X[0] <= 0.0386\ngini = 0.0617156633197\nsamples = 154", shape="box"] ;
151 -> 152 ;
153 [label="gini = 0.0000\nsamples = 135\nvalue = [ 48.22047358   0.        ]", shape="box"] ;
152 -> 153 ;
154 [label="gini = 0.3599\nsamples = 19\nvalue = [ 5.77756826  1.77778584]", shape="box"] ;
152 -> 154 ;
155 [label="gini = 0.4875\nsamples = 8\nvalue = [ 2.4443558   1.77778584]", shape="box"] ;
151 -> 155 ;
156 [label="gini = 0.2130\nsamples = 34\nvalue = [ 12.88842151   1.77778584]", shape="box"] ;
150 -> 156 ;
157 [label="gini = 0.0000\nsamples = 135\nvalue = [ 49.10933024   0.        ]", shape="box"] ;
149 -> 157 ;
158 [label="gini = 0.4898\nsamples = 9\nvalue = [ 2.66656997  3.55557167]", shape="box"] ;
148 -> 158 ;
159 [label="X[5] <= 0.1173\ngini = 0.240429637198\nsamples = 126", shape="box"] ;
147 -> 159 ;
160 [label="gini = 0.5000\nsamples = 12\nvalue = [ 3.55542662  3.55557167]", shape="box"] ;
159 -> 160 ;
161 [label="X[13] <= 0.5000\ngini = 0.149248831676\nsamples = 114", shape="box"] ;
159 -> 161 ;
162 [label="X[11] <= 0.5000\ngini = 0.150642875276\nsamples = 113", shape="box"] ;
161 -> 162 ;
163 [label="X[5] <= 0.4012\ngini = 0.151349613257\nsamples = 112", shape="box"] ;
162 -> 163 ;
164 [label="gini = 0.0000\nsamples = 98\nvalue = [ 34.44319542   0.        ]", shape="box"] ;
163 -> 164 ;
165 [label="gini = 0.4839\nsamples = 14\nvalue = [ 5.11092577  3.55557167]", shape="box"] ;
163 -> 165 ;
166 [label="gini = 0.0000\nsamples = 1\nvalue = [ 0.22221416  0.        ]", shape="box"] ;
162 -> 166 ;
167 [label="gini = 0.0000\nsamples = 1\nvalue = [ 0.44442833  0.        ]", shape="box"] ;
161 -> 167 ;
168 [label="X[13] <= 0.5000\ngini = 0.0118783027345\nsamples = 837", shape="box"] ;
146 -> 168 ;
169 [label="X[14] <= 0.5000\ngini = 0.0121212499038\nsamples = 824", shape="box"] ;
168 -> 169 ;
170 [label="X[3] <= 0.1621\ngini = 0.0136751156764\nsamples = 736", shape="box"] ;
169 -> 170 ;
171 [label="gini = 0.0000\nsamples = 699\nvalue = [ 242.4356529    0.       ]", shape="box"] ;
170 -> 171 ;
172 [label="gini = 0.2000\nsamples = 37\nvalue = [ 13.99949233   1.77778584]", shape="box"] ;
170 -> 172 ;
173 [label="gini = 0.0000\nsamples = 88\nvalue = [ 33.3321246   0.       ]", shape="box"] ;
169 -> 173 ;
174 [label="gini = 0.0000\nsamples = 13\nvalue = [ 5.99978243  0.        ]", shape="box"] ;
168 -> 174 ;
175 [label="gini = 0.4875\nsamples = 13\nvalue = [ 4.88871161  3.55557167]", shape="box"] ;
145 -> 175 ;
176 [label="X[8] <= 0.5000\ngini = 0.485965262835\nsamples = 498", shape="box"] ;
144 -> 176 ;
177 [label="X[10] <= 0.5000\ngini = 0.466792026504\nsamples = 391", shape="box"] ;
176 -> 177 ;
178 [label="X[0] <= 0.0791\ngini = 0.42918915366\nsamples = 317", shape="box"] ;
177 -> 178 ;
179 [label="X[14] <= 0.5000\ngini = 0.293631490248\nsamples = 263", shape="box"] ;
178 -> 179 ;
180 [label="X[3] <= 0.1425\ngini = 0.316051894641\nsamples = 235", shape="box"] ;
179 -> 180 ;
181 [label="gini = 0.4346\nsamples = 23\nvalue = [  6.66642492  14.22228669]", shape="box"] ;
180 -> 181 ;
182 [label="X[5] <= 0.2901\ngini = 0.149248831676\nsamples = 212", shape="box"] ;
180 -> 182 ;
183 [label="X[3] <= 0.1514\ngini = 0.0626816682658\nsamples = 149", shape="box"] ;
182 -> 183 ;
184 [label="gini = 0.1244\nsamples = 70\nvalue = [ 24.88798637   1.77778584]", shape="box"] ;
183 -> 184 ;
185 [label="gini = 0.0000\nsamples = 79\nvalue = [ 28.22119883   0.        ]", shape="box"] ;
183 -> 185 ;
186 [label="gini = 0.2732\nsamples = 63\nvalue = [ 27.33234217   5.33335751]", shape="box"] ;
182 -> 186 ;
187 [label="gini = 0.0000\nsamples = 28\nvalue = [ 10.88849403   0.        ]", shape="box"] ;
179 -> 187 ;
188 [label="gini = 0.4507\nsamples = 54\nvalue = [ 15.77720564  30.22235921]", shape="box"] ;
178 -> 188 ;
189 [label="gini = 0.4912\nsamples = 74\nvalue = [ 21.77698807  28.44457338]", shape="box"] ;
177 -> 189 ;
190 [label="X[11] <= 0.5000\ngini = 0.495767231243\nsamples = 107", shape="box"] ;
176 -> 190 ;
191 [label="X[5] <= 0.2284\ngini = 0.495146149864\nsamples = 106", shape="box"] ;
190 -> 191 ;
192 [label="gini = 0.4765\nsamples = 57\nvalue = [ 19.33263227  12.44450085]", shape="box"] ;
191 -> 192 ;
193 [label="gini = 0.4444\nsamples = 49\nvalue = [ 14.22170649  28.44457338]", shape="box"] ;
191 -> 193 ;
194 [label="gini = 0.0000\nsamples = 1\nvalue = [ 0.44442833  0.        ]", shape="box"] ;
190 -> 194 ;
195 [label="X[4] <= 0.3724\ngini = 0.0450348806111\nsamples = 8170", shape="box"] ;
113 -> 195 ;
196 [label="X[4] <= 0.3536\ngini = 0.0741240822531\nsamples = 3084", shape="box"] ;
195 -> 196 ;
197 [label="X[0] <= 0.0842\ngini = 0.0448239929504\nsamples = 1975", shape="box"] ;
196 -> 197 ;
198 [label="X[3] <= 0.9802\ngini = 0.015763184745\nsamples = 1926", shape="box"] ;
197 -> 198 ;
199 [label="X[14] <= 0.5000\ngini = 0.102923821334\nsamples = 181", shape="box"] ;
198 -> 199 ;
200 [label="X[4] <= 0.2720\ngini = 0.108854557823\nsamples = 170", shape="box"] ;
199 -> 200 ;
201 [label="gini = 0.0000\nsamples = 4\nvalue = [ 1.11107082  0.        ]", shape="box"] ;
200 -> 201 ;
202 [label="X[5] <= 0.0926\ngini = 0.110730629381\nsamples = 166", shape="box"] ;
200 -> 202 ;
203 [label="gini = 0.5000\nsamples = 13\nvalue = [ 3.55542662  3.55557167]", shape="box"] ;
202 -> 203 ;
204 [label="gini = 0.0000\nsamples = 153\nvalue = [ 53.33139935   0.        ]", shape="box"] ;
202 -> 204 ;
205 [label="gini = 0.0000\nsamples = 11\nvalue = [ 3.77764079  0.        ]", shape="box"] ;
199 -> 205 ;
206 [label="X[13] <= 0.5000\ngini = 0.00585027832079\nsamples = 1745", shape="box"] ;
198 -> 206 ;
207 [label="X[3] <= 0.9813\ngini = 0.0060884701574\nsamples = 1674", shape="box"] ;
206 -> 207 ;
208 [label="gini = 0.0000\nsamples = 1163\nvalue = [ 405.09642093    0.        ]", shape="box"] ;
207 -> 208 ;
209 [label="X[5] <= 0.4136\ngini = 0.0198745683289\nsamples = 511", shape="box"] ;
207 -> 209 ;
210 [label="gini = 0.0000\nsamples = 443\nvalue = [ 152.88334482    0.        ]", shape="box"] ;
209 -> 210 ;
211 [label="gini = 0.1360\nsamples = 68\nvalue = [ 22.44363056   1.77778584]", shape="box"] ;
209 -> 211 ;
212 [label="gini = 0.0000\nsamples = 71\nvalue = [ 23.77691555   0.        ]", shape="box"] ;
206 -> 212 ;
213 [label="gini = 0.4826\nsamples = 49\nvalue = [ 15.55499148  10.66671502]", shape="box"] ;
197 -> 213 ;
214 [label="X[13] <= 0.5000\ngini = 0.121809327611\nsamples = 1109", shape="box"] ;
196 -> 214 ;
215 [label="X[3] <= 0.8161\ngini = 0.116584459745\nsamples = 1086", shape="box"] ;
214 -> 215 ;
216 [label="X[0] <= 0.0560\ngini = 0.0873948551928\nsamples = 1065", shape="box"] ;
215 -> 216 ;
217 [label="gini = 0.0000\nsamples = 908\nvalue = [ 316.87739783    0.        ]", shape="box"] ;
216 -> 217 ;
218 [label="X[5] <= 0.2407\ngini = 0.37422762768\nsamples = 157", shape="box"] ;
216 -> 218 ;
219 [label="gini = 0.4770\nsamples = 67\nvalue = [ 21.99920223  14.22228669]", shape="box"] ;
218 -> 219 ;
220 [label="gini = 0.1820\nsamples = 90\nvalue = [ 31.55441128   3.55557167]", shape="box"] ;
218 -> 220 ;
221 [label="gini = 0.4866\nsamples = 21\nvalue = [ 5.11092577  7.11114334]", shape="box"] ;
215 -> 221 ;
222 [label="gini = 0.3200\nsamples = 23\nvalue = [ 7.11085325  1.77778584]", shape="box"] ;
214 -> 222 ;
223 [label="X[3] <= 0.9822\ngini = 0.0269158983869\nsamples = 5086", shape="box"] ;
195 -> 223 ;
224 [label="X[0] <= 0.0755\ngini = 0.0185989504771\nsamples = 4764", shape="box"] ;
223 -> 224 ;
225 [label="X[1] <= 0.9299\ngini = 0.00663552851953\nsamples = 4503", shape="box"] ;
224 -> 225 ;
226 [label="X[3] <= 0.9573\ngini = 0.00893872871565\nsamples = 2252", shape="box"] ;
225 -> 226 ;
227 [label="X[13] <= 0.5000\ngini = 0.0343256396323\nsamples = 573", shape="box"] ;
226 -> 227 ;
228 [label="X[14] <= 0.5000\ngini = 0.0359444191101\nsamples = 551", shape="box"] ;
227 -> 228 ;
229 [label="X[0] <= 0.0369\ngini = 0.0395404515649\nsamples = 497", shape="box"] ;
228 -> 229 ;
230 [label="gini = 0.0000\nsamples = 284\nvalue = [ 99.77415963   0.        ]", shape="box"] ;
229 -> 230 ;
231 [label="X[0] <= 0.0372\ngini = 0.0886998746325\nsamples = 213", shape="box"] ;
229 -> 231 ;
232 [label="gini = 0.3200\nsamples = 4\nvalue = [ 0.88885666  3.55557167]", shape="box"] ;
231 -> 232 ;
233 [label="gini = 0.0000\nsamples = 209\nvalue = [ 71.99738913   0.        ]", shape="box"] ;
231 -> 233 ;
234 [label="gini = -0.0000\nsamples = 54\nvalue = [ 17.99934728   0.        ]", shape="box"] ;
228 -> 234 ;
235 [label="gini = -0.0000\nsamples = 22\nvalue = [ 9.33299489  0.        ]", shape="box"] ;
227 -> 235 ;
236 [label="gini = 0.0000\nsamples = 1679\nvalue = [ 588.42310621    0.        ]", shape="box"] ;
226 -> 236 ;
237 [label="X[14] <= 0.5000\ngini = 0.00437891977092\nsamples = 2251", shape="box"] ;
225 -> 237 ;
238 [label="X[5] <= 0.3025\ngini = 0.00466897055257\nsamples = 2098", shape="box"] ;
237 -> 238 ;
239 [label="gini = 0.0000\nsamples = 1118\nvalue = [ 407.09634841    0.        ]", shape="box"] ;
238 -> 239 ;
240 [label="X[5] <= 0.3148\ngini = 0.0100314981592\nsamples = 980", shape="box"] ;
238 -> 240 ;
241 [label="gini = 0.1327\nsamples = 70\nvalue = [ 23.11027305   1.77778584]", shape="box"] ;
240 -> 241 ;
242 [label="gini = -0.0000\nsamples = 910\nvalue = [ 327.76589187    0.        ]", shape="box"] ;
240 -> 242 ;
243 [label="gini = 0.0000\nsamples = 153\nvalue = [ 50.44261522   0.        ]", shape="box"] ;
237 -> 243 ;
244 [label="X[7] <= 0.5916\ngini = 0.186924748673\nsamples = 261", shape="box"] ;
224 -> 244 ;
245 [label="gini = 0.4383\nsamples = 38\nvalue = [ 11.1107082    5.33335751]", shape="box"] ;
244 -> 245 ;
246 [label="X[0] <= 0.0800\ngini = 0.11662474646\nsamples = 223", shape="box"] ;
244 -> 246 ;
247 [label="gini = 0.0000\nsamples = 67\nvalue = [ 25.55462886   0.        ]", shape="box"] ;
246 -> 247 ;
248 [label="X[10] <= 0.5000\ngini = 0.161441129722\nsamples = 156", shape="box"] ;
246 -> 248 ;
249 [label="gini = 0.0000\nsamples = 120\nvalue = [ 43.55397614   0.        ]", shape="box"] ;
248 -> 249 ;
250 [label="gini = 0.4352\nsamples = 36\nvalue = [ 11.33292236   5.33335751]", shape="box"] ;
248 -> 250 ;
251 [label="X[0] <= 0.0772\ngini = 0.13741308498\nsamples = 322", shape="box"] ;
223 -> 251 ;
252 [label="gini = 0.0000\nsamples = 302\nvalue = [ 105.32951373    0.        ]", shape="box"] ;
251 -> 252 ;
253 [label="gini = 0.4734\nsamples = 20\nvalue = [ 5.5553541   8.88892918]", shape="box"] ;
251 -> 253 ;
254 [label="gini = 0.0743\nsamples = 22\nvalue = [  1.99992748  49.77800341]", shape="box"] ;
112 -> 254 ;
255 [label="X[7] <= 0.6839\ngini = 0.307237727243\nsamples = 1834", shape="box"] ;
111 -> 255 ;
256 [label="X[5] <= 0.2407\ngini = 0.265999411094\nsamples = 1237", shape="box"] ;
255 -> 256 ;
257 [label="X[0] <= 0.1075\ngini = 0.236259440386\nsamples = 558", shape="box"] ;
256 -> 257 ;
258 [label="X[3] <= 0.9802\ngini = 0.46900839334\nsamples = 136", shape="box"] ;
257 -> 258 ;
259 [label="gini = 0.3817\nsamples = 84\nvalue = [ 20.88813141  60.44471842]", shape="box"] ;
258 -> 259 ;
260 [label="gini = 0.3457\nsamples = 52\nvalue = [ 18.66598977   5.33335751]", shape="box"] ;
258 -> 260 ;
261 [label="X[7] <= 0.3650\ngini = 0.181516085413\nsamples = 422", shape="box"] ;
257 -> 261 ;
262 [label="X[11] <= 0.5000\ngini = 0.150666756375\nsamples = 166", shape="box"] ;
261 -> 262 ;
263 [label="X[0] <= 0.1123\ngini = 0.157054718914\nsamples = 156", shape="box"] ;
262 -> 263 ;
264 [label="gini = 0.4898\nsamples = 12\nvalue = [ 3.99985495  5.33335751]", shape="box"] ;
263 -> 264 ;
265 [label="X[3] <= 0.1710\ngini = 0.135480361215\nsamples = 144", shape="box"] ;
263 -> 265 ;
266 [label="X[7] <= 0.3051\ngini = 0.123266010325\nsamples = 121", shape="box"] ;
265 -> 266 ;
267 [label="X[14] <= 0.5000\ngini = 0.136504947067\nsamples = 109", shape="box"] ;
266 -> 267 ;
268 [label="X[8] <= 0.5000\ngini = 0.14877225841\nsamples = 102", shape="box"] ;
267 -> 268 ;
269 [label="gini = 0.1519\nsamples = 84\nvalue = [  11.55513653  128.00058019]", shape="box"] ;
268 -> 269 ;
270 [label="gini = 0.1344\nsamples = 18\nvalue = [  2.22214164  28.44457338]", shape="box"] ;
268 -> 270 ;
271 [label="gini = 0.0222\nsamples = 7\nvalue = [  0.22221416  19.5556442 ]", shape="box"] ;
267 -> 271 ;
272 [label="gini = 0.0303\nsamples = 12\nvalue = [  0.44442833  28.44457338]", shape="box"] ;
266 -> 272 ;
273 [label="gini = 0.2174\nsamples = 23\nvalue = [  3.77764079  26.66678754]", shape="box"] ;
265 -> 273 ;
274 [label="gini = 0.0638\nsamples = 10\nvalue = [  0.66664249  19.5556442 ]", shape="box"] ;
262 -> 274 ;
275 [label="X[7] <= 0.4369\ngini = 0.201161845667\nsamples = 256", shape="box"] ;
261 -> 275 ;
276 [label="gini = 0.2988\nsamples = 64\nvalue = [ 15.11056315  67.55586177]", shape="box"] ;
275 -> 276 ;
277 [label="X[0] <= 0.1454\ngini = 0.174402080092\nsamples = 192", shape="box"] ;
275 -> 277 ;
278 [label="gini = 0.3041\nsamples = 77\nvalue = [ 17.99934728  78.22257679]", shape="box"] ;
277 -> 278 ;
279 [label="X[11] <= 0.5000\ngini = 0.113764122218\nsamples = 115", shape="box"] ;
277 -> 279 ;
280 [label="X[0] <= 0.1926\ngini = 0.109193239332\nsamples = 113", shape="box"] ;
279 -> 280 ;
281 [label="gini = 0.1388\nsamples = 53\nvalue = [   8.22192407  101.33379265]", shape="box"] ;
280 -> 281 ;
282 [label="gini = 0.0837\nsamples = 60\nvalue = [   5.77756826  126.22279436]", shape="box"] ;
280 -> 282 ;
283 [label="gini = 0.0000\nsamples = 2\nvalue = [ 0.66664249  0.        ]", shape="box"] ;
279 -> 283 ;
284 [label="X[10] <= 0.5000\ngini = 0.293534209554\nsamples = 679", shape="box"] ;
256 -> 284 ;
285 [label="X[13] <= 0.5000\ngini = 0.312473414285\nsamples = 540", shape="box"] ;
284 -> 285 ;
286 [label="X[3] <= 0.1478\ngini = 0.303109620365\nsamples = 517", shape="box"] ;
285 -> 286 ;
287 [label="gini = 0.1314\nsamples = 45\nvalue = [  6.22199659  81.77814846]", shape="box"] ;
286 -> 287 ;
288 [label="X[3] <= 0.1555\ngini = 0.326345759479\nsamples = 472", shape="box"] ;
286 -> 288 ;
289 [label="gini = 0.4995\nsamples = 20\nvalue = [ 6.66642492  7.11114334]", shape="box"] ;
288 -> 289 ;
290 [label="X[5] <= 0.5000\ngini = 0.317515849445\nsamples = 452", shape="box"] ;
288 -> 290 ;
291 [label="X[0] <= 0.1256\ngini = 0.330040897076\nsamples = 415", shape="box"] ;
290 -> 291 ;
292 [label="X[8] <= 0.5000\ngini = 0.480736826768\nsamples = 168", shape="box"] ;
291 -> 292 ;
293 [label="X[3] <= 0.1703\ngini = 0.493237249007\nsamples = 111", shape="box"] ;
292 -> 293 ;
294 [label="gini = 0.3681\nsamples = 15\nvalue = [  3.99985495  12.44450085]", shape="box"] ;
293 -> 294 ;
295 [label="gini = 0.5000\nsamples = 96\nvalue = [ 29.77669797  30.22235921]", shape="box"] ;
293 -> 295 ;
296 [label="gini = 0.4421\nsamples = 57\nvalue = [ 13.99949233  28.44457338]", shape="box"] ;
292 -> 296 ;
297 [label="X[0] <= 0.1700\ngini = 0.242495236098\nsamples = 247", shape="box"] ;
291 -> 297 ;
298 [label="X[3] <= 0.8889\ngini = 0.350569959336\nsamples = 123", shape="box"] ;
297 -> 298 ;
299 [label="gini = 0.4072\nsamples = 58\nvalue = [ 15.55499148  39.11128839]", shape="box"] ;
298 -> 299 ;
300 [label="gini = 0.3034\nsamples = 65\nvalue = [ 14.66613482  64.0002901 ]", shape="box"] ;
298 -> 300 ;
301 [label="X[4] <= 0.4916\ngini = 0.157941021779\nsamples = 124", shape="box"] ;
297 -> 301 ;
302 [label="X[3] <= 0.1848\ngini = 0.172848517362\nsamples = 100", shape="box"] ;
301 -> 302 ;
303 [label="gini = 0.0991\nsamples = 33\nvalue = [  3.33321246  60.44471842]", shape="box"] ;
302 -> 303 ;
304 [label="gini = 0.2154\nsamples = 67\nvalue = [ 12.44399318  88.8892918 ]", shape="box"] ;
302 -> 304 ;
305 [label="gini = 0.0978\nsamples = 24\nvalue = [  2.22214164  40.88907423]", shape="box"] ;
301 -> 305 ;
306 [label="gini = 0.2028\nsamples = 37\nvalue = [  6.66642492  51.55578924]", shape="box"] ;
290 -> 306 ;
307 [label="gini = 0.4537\nsamples = 23\nvalue = [ 6.66642492  3.55557167]", shape="box"] ;
285 -> 307 ;
308 [label="X[14] <= 0.5000\ngini = 0.22316880564\nsamples = 139", shape="box"] ;
284 -> 308 ;
309 [label="X[0] <= 0.1127\ngini = 0.227798274338\nsamples = 134", shape="box"] ;
308 -> 309 ;
310 [label="gini = 0.4734\nsamples = 43\nvalue = [ 11.1107082   17.77785836]", shape="box"] ;
309 -> 310 ;
311 [label="gini = 0.1505\nsamples = 91\nvalue = [  12.22177902  136.88950937]", shape="box"] ;
309 -> 311 ;
312 [label="gini = 0.1298\nsamples = 5\nvalue = [ 0.66664249  8.88892918]", shape="box"] ;
308 -> 312 ;
313 [label="X[0] <= 0.1320\ngini = 0.404989510698\nsamples = 597", shape="box"] ;
255 -> 313 ;
314 [label="X[5] <= 0.5123\ngini = 0.496655457994\nsamples = 306", shape="box"] ;
313 -> 314 ;
315 [label="X[5] <= 0.4383\ngini = 0.493046422189\nsamples = 299", shape="box"] ;
314 -> 315 ;
316 [label="X[3] <= 0.9575\ngini = 0.497791172282\nsamples = 272", shape="box"] ;
315 -> 316 ;
317 [label="X[10] <= 0.5000\ngini = 0.433364982757\nsamples = 112", shape="box"] ;
316 -> 317 ;
318 [label="gini = 0.4619\nsamples = 91\nvalue = [ 31.33219712  17.77785836]", shape="box"] ;
317 -> 318 ;
319 [label="gini = 0.0000\nsamples = 21\nvalue = [ 6.88863908  0.        ]", shape="box"] ;
317 -> 319 ;
320 [label="X[0] <= 0.0949\ngini = 0.496067926034\nsamples = 160", shape="box"] ;
316 -> 320 ;
321 [label="gini = 0.0000\nsamples = 18\nvalue = [ 7.55528158  0.        ]", shape="box"] ;
320 -> 321 ;
322 [label="X[1] <= 0.9299\ngini = 0.485421960844\nsamples = 142", shape="box"] ;
320 -> 322 ;
323 [label="gini = 0.4693\nsamples = 70\nvalue = [ 18.22156145  30.22235921]", shape="box"] ;
322 -> 323 ;
324 [label="gini = 0.4951\nsamples = 72\nvalue = [ 23.33248722  28.44457338]", shape="box"] ;
322 -> 324 ;
325 [label="gini = -0.0000\nsamples = 27\nvalue = [ 9.55520905  0.        ]", shape="box"] ;
315 -> 325 ;
326 [label="gini = 0.2945\nsamples = 7\nvalue = [ 1.55549915  7.11114334]", shape="box"] ;
314 -> 326 ;
327 [label="X[11] <= 0.5000\ngini = 0.262818195208\nsamples = 291", shape="box"] ;
313 -> 327 ;
328 [label="X[8] <= 0.5000\ngini = 0.254226638547\nsamples = 283", shape="box"] ;
327 -> 328 ;
329 [label="X[0] <= 0.1865\ngini = 0.244303208645\nsamples = 231", shape="box"] ;
328 -> 329 ;
330 [label="X[0] <= 0.1818\ngini = 0.33633850222\nsamples = 129", shape="box"] ;
329 -> 330 ;
331 [label="X[0] <= 0.1487\ngini = 0.326093403549\nsamples = 125", shape="box"] ;
330 -> 331 ;
332 [label="gini = 0.4032\nsamples = 51\nvalue = [ 12.44399318  32.00014505]", shape="box"] ;
331 -> 332 ;
333 [label="gini = 0.2819\nsamples = 74\nvalue = [ 15.99941981  78.22257679]", shape="box"] ;
331 -> 333 ;
334 [label="gini = -0.0000\nsamples = 4\nvalue = [ 1.55549915  0.        ]", shape="box"] ;
330 -> 334 ;
335 [label="X[13] <= 0.5000\ngini = 0.152223413629\nsamples = 102", shape="box"] ;
329 -> 335 ;
336 [label="X[10] <= 0.5000\ngini = 0.151660613528\nsamples = 100", shape="box"] ;
335 -> 336 ;
337 [label="gini = 0.1538\nsamples = 86\nvalue = [  12.22177902  133.3339377 ]", shape="box"] ;
336 -> 337 ;
338 [label="gini = 0.1365\nsamples = 14\nvalue = [  1.55549915  19.5556442 ]", shape="box"] ;
336 -> 338 ;
339 [label="gini = 0.1975\nsamples = 2\nvalue = [ 0.22221416  1.77778584]", shape="box"] ;
335 -> 339 ;
340 [label="gini = 0.3047\nsamples = 52\nvalue = [ 10.66627987  46.22243174]", shape="box"] ;
328 -> 340 ;
341 [label="gini = 0.4995\nsamples = 8\nvalue = [ 3.33321246  3.55557167]", shape="box"] ;
327 -> 341 ;
342 [label="X[6] <= 0.5000\ngini = 0.461656207916\nsamples = 2520", shape="box"] ;
110 -> 342 ;
343 [label="X[3] <= 0.2607\ngini = 0.457690469935\nsamples = 2515", shape="box"] ;
342 -> 343 ;
344 [label="X[0] <= 0.0329\ngini = 0.495169921597\nsamples = 446", shape="box"] ;
343 -> 344 ;
345 [label="X[7] <= 0.2599\ngini = 0.232758866251\nsamples = 198", shape="box"] ;
344 -> 345 ;
346 [label="gini = 0.4608\nsamples = 12\nvalue = [ 3.99985495  7.11114334]", shape="box"] ;
345 -> 346 ;
347 [label="X[5] <= 0.1914\ngini = 0.0988057199104\nsamples = 186", shape="box"] ;
345 -> 347 ;
348 [label="gini = 0.2159\nsamples = 73\nvalue = [ 25.33241469   3.55557167]", shape="box"] ;
347 -> 348 ;
349 [label="gini = 0.0000\nsamples = 113\nvalue = [ 39.33190702   0.        ]", shape="box"] ;
347 -> 349 ;
350 [label="X[0] <= 0.0692\ngini = 0.425277892324\nsamples = 248", shape="box"] ;
344 -> 350 ;
351 [label="X[10] <= 0.5000\ngini = 0.496126218696\nsamples = 156", shape="box"] ;
350 -> 351 ;
352 [label="X[3] <= 0.1633\ngini = 0.481048623976\nsamples = 115", shape="box"] ;
351 -> 352 ;
353 [label="gini = 0.3862\nsamples = 77\nvalue = [ 25.11020053   8.88892918]", shape="box"] ;
352 -> 353 ;
354 [label="gini = 0.2837\nsamples = 38\nvalue = [  8.44413823  40.88907423]", shape="box"] ;
352 -> 354 ;
355 [label="gini = 0.4731\nsamples = 41\nvalue = [ 17.11049063  10.66671502]", shape="box"] ;
351 -> 355 ;
356 [label="gini = 0.2757\nsamples = 92\nvalue = [ 19.33263227  97.77822098]", shape="box"] ;
350 -> 356 ;
357 [label="X[10] <= 0.5000\ngini = 0.414759432545\nsamples = 2069", shape="box"] ;
343 -> 357 ;
358 [label="X[3] <= 0.9820\ngini = 0.419984795824\nsamples = 1683", shape="box"] ;
357 -> 358 ;
359 [label="X[8] <= 0.5000\ngini = 0.403989968166\nsamples = 1429", shape="box"] ;
358 -> 359 ;
360 [label="X[0] <= 0.0988\ngini = 0.41658582758\nsamples = 1059", shape="box"] ;
359 -> 360 ;
361 [label="X[7] <= 0.7905\ngini = 0.0415413507375\nsamples = 938", shape="box"] ;
360 -> 361 ;
362 [label="X[5] <= 0.1914\ngini = 0.0350779104975\nsamples = 837", shape="box"] ;
361 -> 362 ;
363 [label="X[7] <= 0.4369\ngini = 0.0856217409711\nsamples = 214", shape="box"] ;
362 -> 363 ;
364 [label="gini = 0.2873\nsamples = 25\nvalue = [ 8.44413823  1.77778584]", shape="box"] ;
363 -> 364 ;
365 [label="X[14] <= 0.5000\ngini = 0.0501254908972\nsamples = 189", shape="box"] ;
363 -> 365 ;
366 [label="X[0] <= 0.0517\ngini = 0.0514130683291\nsamples = 184", shape="box"] ;
365 -> 366 ;
367 [label="gini = 0.0000\nsamples = 148\nvalue = [ 54.44247017   0.        ]", shape="box"] ;
366 -> 367 ;
368 [label="gini = 0.2378\nsamples = 36\nvalue = [ 11.1107082    1.77778584]", shape="box"] ;
366 -> 368 ;
369 [label="gini = 0.0000\nsamples = 5\nvalue = [ 1.77771331  0.        ]", shape="box"] ;
365 -> 369 ;
370 [label="X[14] <= 0.5000\ngini = 0.0160799909198\nsamples = 623", shape="box"] ;
362 -> 370 ;
371 [label="X[4] <= 0.6088\ngini = 0.0163094396994\nsamples = 613", shape="box"] ;
370 -> 371 ;
372 [label="gini = 0.0000\nsamples = 446\nvalue = [ 154.88327229    0.        ]", shape="box"] ;
371 -> 372 ;
373 [label="X[5] <= 0.3765\ngini = 0.0562928585536\nsamples = 167", shape="box"] ;
371 -> 373 ;
374 [label="gini = 0.0000\nsamples = 138\nvalue = [ 48.88711607   0.        ]", shape="box"] ;
373 -> 374 ;
375 [label="gini = 0.2449\nsamples = 29\nvalue = [ 10.66627987   1.77778584]", shape="box"] ;
373 -> 375 ;
376 [label="gini = -0.0000\nsamples = 10\nvalue = [ 3.1109983  0.       ]", shape="box"] ;
370 -> 376 ;
377 [label="X[3] <= 0.9811\ngini = 0.0928053202293\nsamples = 101", shape="box"] ;
361 -> 377 ;
378 [label="gini = -0.0000\nsamples = 90\nvalue = [ 31.33219712   0.        ]", shape="box"] ;
377 -> 378 ;
379 [label="gini = 0.4537\nsamples = 11\nvalue = [ 3.33321246  1.77778584]", shape="box"] ;
377 -> 379 ;
380 [label="X[5] <= 0.3025\ngini = 0.244336713651\nsamples = 121", shape="box"] ;
360 -> 380 ;
381 [label="gini = 0.1896\nsamples = 75\nvalue = [  12.44399318  104.88936433]", shape="box"] ;
380 -> 381 ;
382 [label="gini = 0.3590\nsamples = 46\nvalue = [ 10.88849403  35.55571672]", shape="box"] ;
380 -> 382 ;
383 [label="X[0] <= 0.1029\ngini = 0.358825025997\nsamples = 370", shape="box"] ;
359 -> 383 ;
384 [label="X[5] <= 0.1914\ngini = 0.0583435790202\nsamples = 336", shape="box"] ;
383 -> 384 ;
385 [label="X[7] <= 0.5768\ngini = 0.146536052646\nsamples = 126", shape="box"] ;
384 -> 385 ;
386 [label="gini = 0.2232\nsamples = 73\nvalue = [ 24.22134387   3.55557167]", shape="box"] ;
385 -> 386 ;
387 [label="gini = 0.0000\nsamples = 53\nvalue = [ 16.88827646   0.        ]", shape="box"] ;
385 -> 387 ;
388 [label="gini = 0.0000\nsamples = 210\nvalue = [ 73.55288828   0.        ]", shape="box"] ;
384 -> 388 ;
389 [label="gini = 0.2931\nsamples = 34\nvalue = [  7.33306741  33.77793088]", shape="box"] ;
383 -> 389 ;
390 [label="X[7] <= 0.5768\ngini = 0.473537148369\nsamples = 254", shape="box"] ;
358 -> 390 ;
391 [label="X[3] <= 0.9822\ngini = 0.499816893398\nsamples = 171", shape="box"] ;
390 -> 391 ;
392 [label="gini = 0.4915\nsamples = 73\nvalue = [ 25.99905719  33.77793088]", shape="box"] ;
391 -> 392 ;
393 [label="gini = 0.4842\nsamples = 98\nvalue = [ 33.10991043  23.11121587]", shape="box"] ;
391 -> 393 ;
394 [label="gini = -0.0000\nsamples = 83\nvalue = [ 31.77662545   0.        ]", shape="box"] ;
390 -> 394 ;
395 [label="X[1] <= 0.8688\ngini = 0.388577145006\nsamples = 386", shape="box"] ;
357 -> 395 ;
396 [label="gini = 0.2825\nsamples = 73\nvalue = [ 25.99905719   5.33335751]", shape="box"] ;
395 -> 396 ;
397 [label="X[14] <= 0.5000\ngini = 0.407031376162\nsamples = 313", shape="box"] ;
395 -> 397 ;
398 [label="X[7] <= 0.7757\ngini = 0.409694603122\nsamples = 309", shape="box"] ;
397 -> 398 ;
399 [label="X[1] <= 0.9389\ngini = 0.43301465384\nsamples = 246", shape="box"] ;
398 -> 399 ;
400 [label="gini = 0.3829\nsamples = 34\nvalue = [ 10.22185154   3.55557167]", shape="box"] ;
399 -> 400 ;
401 [label="X[4] <= 0.4770\ngini = 0.438606606091\nsamples = 212", shape="box"] ;
399 -> 401 ;
402 [label="gini = 0.4537\nsamples = 63\nvalue = [ 19.99927476  10.66671502]", shape="box"] ;
401 -> 402 ;
403 [label="X[0] <= 0.0849\ngini = 0.43166858551\nsamples = 149", shape="box"] ;
401 -> 403 ;
404 [label="gini = 0.0000\nsamples = 130\nvalue = [ 46.22054611   0.        ]", shape="box"] ;
403 -> 404 ;
405 [label="gini = 0.2515\nsamples = 19\nvalue = [  3.99985495  23.11121587]", shape="box"] ;
403 -> 405 ;
406 [label="gini = 0.2486\nsamples = 63\nvalue = [ 20.88813141   3.55557167]", shape="box"] ;
398 -> 406 ;
407 [label="gini = -0.0000\nsamples = 4\nvalue = [ 1.55549915  0.        ]", shape="box"] ;
397 -> 407 ;
408 [label="gini = 0.0303\nsamples = 5\nvalue = [  0.22221416  14.22228669]", shape="box"] ;
342 -> 408 ;
}