digraph Tree {
0 [label="X[1] <= 0.4690\ngini = 0.499913303623\nsamples = 17369", shape="box"] ;
1 [label="X[8] <= 0.5000\ngini = 0.230847760381\nsamples = 2104", shape="box"] ;
0 -> 1 ;
2 [label="X[10] <= 0.5000\ngini = 0.239151790666\nsamples = 1252", shape="box"] ;
1 -> 2 ;
3 [label="X[4] <= 0.2364\ngini = 0.217738563379\nsamples = 966", shape="box"] ;
2 -> 3 ;
4 [label="gini = 0.1505\nsamples = 65\nvalue = [  8.88856656  99.55600682]", shape="box"] ;
3 -> 4 ;
5 [label="X[0] <= 0.0282\ngini = 0.222698122576\nsamples = 901", shape="box"] ;
3 -> 5 ;
6 [label="X[3] <= 0.0226\ngini = 0.495369881863\nsamples = 218", shape="box"] ;
5 -> 6 ;
7 [label="gini = 0.4086\nsamples = 55\nvalue = [ 17.11049063  42.66686006]", shape="box"] ;
6 -> 7 ;
8 [label="X[5] <= 0.6481\ngini = 0.493098534113\nsamples = 163", shape="box"] ;
6 -> 8 ;
9 [label="X[5] <= 0.3765\ngini = 0.471659909926\nsamples = 140", shape="box"] ;
8 -> 9 ;
10 [label="gini = 0.4980\nsamples = 91\nvalue = [ 30.2211263   26.66678754]", shape="box"] ;
9 -> 10 ;
11 [label="gini = 0.1800\nsamples = 49\nvalue = [ 15.99941981   1.77778584]", shape="box"] ;
9 -> 11 ;
12 [label="gini = 0.4268\nsamples = 23\nvalue = [  5.5553541   12.44450085]", shape="box"] ;
8 -> 12 ;
13 [label="X[3] <= 0.0231\ngini = 0.159793600064\nsamples = 683", shape="box"] ;
5 -> 13 ;
14 [label="X[13] <= 0.5000\ngini = 0.111529260279\nsamples = 230", shape="box"] ;
13 -> 14 ;
15 [label="X[5] <= 0.9012\ngini = 0.112868822719\nsamples = 216", shape="box"] ;
14 -> 15 ;
16 [label="X[0] <= 0.0430\ngini = 0.110722657939\nsamples = 214", shape="box"] ;
15 -> 16 ;
17 [label="gini = 0.2209\nsamples = 54\nvalue = [  9.77742321  67.55586177]", shape="box"] ;
16 -> 17 ;
18 [label="X[4] <= 0.9331\ngini = 0.0838790135707\nsamples = 160", shape="box"] ;
16 -> 18 ;
19 [label="X[3] <= 0.0213\ngini = 0.0967143760963\nsamples = 137", shape="box"] ;
18 -> 19 ;
20 [label="X[7] <= 0.1871\ngini = 0.0939911367793\nsamples = 135", shape="box"] ;
19 -> 20 ;
21 [label="gini = 0.1470\nsamples = 38\nvalue = [  5.5553541  64.0002901]", shape="box"] ;
20 -> 21 ;
22 [label="gini = 0.0755\nsamples = 97\nvalue = [   8.22192407  200.88979947]", shape="box"] ;
20 -> 22 ;
23 [label="gini = -0.0000\nsamples = 2\nvalue = [ 0.44442833  0.        ]", shape="box"] ;
19 -> 23 ;
24 [label="gini = 0.0310\nsamples = 23\nvalue = [  1.11107082  69.3336476 ]", shape="box"] ;
18 -> 24 ;
25 [label="gini = 0.3967\nsamples = 2\nvalue = [ 0.66664249  1.77778584]", shape="box"] ;
15 -> 25 ;
26 [label="gini = 0.0907\nsamples = 14\nvalue = [  1.33328498  26.66678754]", shape="box"] ;
14 -> 26 ;
27 [label="X[2] <= 0.5000\ngini = 0.186739258477\nsamples = 453", shape="box"] ;
13 -> 27 ;
28 [label="X[3] <= 0.0244\ngini = 0.234905342013\nsamples = 348", shape="box"] ;
27 -> 28 ;
29 [label="gini = 0.4675\nsamples = 13\nvalue = [ 4.22206912  7.11114334]", shape="box"] ;
28 -> 29 ;
30 [label="X[1] <= 0.3147\ngini = 0.227482901353\nsamples = 335", shape="box"] ;
28 -> 30 ;
31 [label="X[0] <= 0.0426\ngini = 0.259361496958\nsamples = 154", shape="box"] ;
30 -> 31 ;
32 [label="gini = 0.4846\nsamples = 34\nvalue = [ 12.66620735   8.88892918]", shape="box"] ;
31 -> 32 ;
33 [label="X[1] <= 0.0529\ngini = 0.187980013935\nsamples = 120", shape="box"] ;
31 -> 33 ;
34 [label="gini = 0.2468\nsamples = 31\nvalue = [  6.88863908  40.88907423]", shape="box"] ;
33 -> 34 ;
35 [label="gini = 0.1675\nsamples = 89\nvalue = [  13.555064   133.3339377]", shape="box"] ;
33 -> 35 ;
36 [label="X[5] <= 0.6296\ngini = 0.20434524388\nsamples = 181", shape="box"] ;
30 -> 36 ;
37 [label="X[9] <= 0.0080\ngini = 0.190323359731\nsamples = 168", shape="box"] ;
36 -> 37 ;
38 [label="gini = 0.0000\nsamples = 1\nvalue = [ 0.22221416  0.        ]", shape="box"] ;
37 -> 38 ;
39 [label="X[14] <= 0.5000\ngini = 0.189281558289\nsamples = 167", shape="box"] ;
37 -> 39 ;
40 [label="X[5] <= 0.4136\ngini = 0.188995558381\nsamples = 161", shape="box"] ;
39 -> 40 ;
41 [label="X[7] <= 0.0522\ngini = 0.212676087714\nsamples = 118", shape="box"] ;
40 -> 41 ;
42 [label="gini = 0.2303\nsamples = 53\nvalue = [ 10.88849403  71.11143344]", shape="box"] ;
41 -> 42 ;
43 [label="gini = 0.2001\nsamples = 65\nvalue = [  13.33284984  104.88936433]", shape="box"] ;
41 -> 43 ;
44 [label="gini = 0.1330\nsamples = 43\nvalue = [  6.44421076  83.55593429]", shape="box"] ;
40 -> 44 ;
45 [label="gini = 0.1975\nsamples = 6\nvalue = [ 1.11107082  8.88892918]", shape="box"] ;
39 -> 45 ;
46 [label="gini = 0.4366\nsamples = 13\nvalue = [ 4.22206912  8.88892918]", shape="box"] ;
36 -> 46 ;
47 [label="X[0] <= 0.0341\ngini = 0.0604891255927\nsamples = 105", shape="box"] ;
27 -> 47 ;
48 [label="gini = 0.3200\nsamples = 8\nvalue = [ 1.77771331  7.11114334]", shape="box"] ;
47 -> 48 ;
49 [label="gini = 0.0480\nsamples = 97\nvalue = [   5.5553541   220.44544367]", shape="box"] ;
47 -> 49 ;
50 [label="X[0] <= 0.0296\ngini = 0.321211466266\nsamples = 286", shape="box"] ;
2 -> 50 ;
51 [label="gini = 0.4546\nsamples = 97\nvalue = [ 33.10991043  17.77785836]", shape="box"] ;
50 -> 51 ;
52 [label="X[4] <= 0.9393\ngini = 0.217765186777\nsamples = 189", shape="box"] ;
50 -> 52 ;
53 [label="X[9] <= 0.0095\ngini = 0.196477787463\nsamples = 175", shape="box"] ;
52 -> 53 ;
54 [label="gini = 0.1008\nsamples = 38\nvalue = [  3.99985495  71.11143344]", shape="box"] ;
53 -> 54 ;
55 [label="X[14] <= 0.5000\ngini = 0.226313481234\nsamples = 137", shape="box"] ;
53 -> 55 ;
56 [label="X[7] <= 0.8601\ngini = 0.236456562949\nsamples = 132", shape="box"] ;
55 -> 56 ;
57 [label="X[4] <= 0.8724\ngini = 0.205347422532\nsamples = 118", shape="box"] ;
56 -> 57 ;
58 [label="X[3] <= 0.0007\ngini = 0.199104549285\nsamples = 115", shape="box"] ;
57 -> 58 ;
59 [label="gini = 0.0000\nsamples = 1\nvalue = [ 0.44442833  0.        ]", shape="box"] ;
58 -> 59 ;
60 [label="X[13] <= 0.5000\ngini = 0.195936868959\nsamples = 114", shape="box"] ;
58 -> 60 ;
61 [label="X[3] <= 0.0182\ngini = 0.184601589925\nsamples = 111", shape="box"] ;
60 -> 61 ;
62 [label="gini = 0.1237\nsamples = 36\nvalue = [  4.66649744  65.77807593]", shape="box"] ;
61 -> 62 ;
63 [label="gini = 0.2174\nsamples = 75\nvalue = [  15.11056315  106.66715016]", shape="box"] ;
61 -> 63 ;
64 [label="gini = 0.0000\nsamples = 3\nvalue = [ 1.55549915  0.        ]", shape="box"] ;
60 -> 64 ;
65 [label="gini = -0.0000\nsamples = 3\nvalue = [ 0.88885666  0.        ]", shape="box"] ;
57 -> 65 ;
66 [label="gini = 0.4998\nsamples = 14\nvalue = [ 5.5553541   5.33335751]", shape="box"] ;
56 -> 66 ;
67 [label="gini = 0.0345\nsamples = 5\nvalue = [  0.22221416  12.44450085]", shape="box"] ;
55 -> 67 ;
68 [label="gini = -0.0000\nsamples = 14\nvalue = [ 4.66649744  0.        ]", shape="box"] ;
52 -> 68 ;
69 [label="X[4] <= 0.7782\ngini = 0.218775549718\nsamples = 852", shape="box"] ;
1 -> 69 ;
70 [label="X[9] <= 0.0175\ngini = 0.197165444003\nsamples = 539", shape="box"] ;
69 -> 70 ;
71 [label="X[0] <= 0.0270\ngini = 0.0636405061115\nsamples = 143", shape="box"] ;
70 -> 71 ;
72 [label="gini = 0.4854\nsamples = 15\nvalue = [ 3.77764079  5.33335751]", shape="box"] ;
71 -> 72 ;
73 [label="X[11] <= 0.5000\ngini = 0.0418262966424\nsamples = 128", shape="box"] ;
71 -> 73 ;
74 [label="X[4] <= 0.5397\ngini = 0.0359147097719\nsamples = 122", shape="box"] ;
73 -> 74 ;
75 [label="gini = 0.0471\nsamples = 80\nvalue = [   4.44428328  179.55636944]", shape="box"] ;
74 -> 75 ;
76 [label="gini = 0.0164\nsamples = 42\nvalue = [   0.88885666  106.66715016]", shape="box"] ;
74 -> 76 ;
77 [label="gini = 0.1975\nsamples = 6\nvalue = [ 1.11107082  8.88892918]", shape="box"] ;
73 -> 77 ;
78 [label="X[7] <= 0.3761\ngini = 0.262384038549\nsamples = 396", shape="box"] ;
70 -> 78 ;
79 [label="X[10] <= 0.5000\ngini = 0.301965442969\nsamples = 180", shape="box"] ;
78 -> 79 ;
80 [label="X[4] <= 0.5690\ngini = 0.2802978234\nsamples = 138", shape="box"] ;
79 -> 80 ;
81 [label="gini = 0.3007\nsamples = 94\nvalue = [ 20.88813141  92.44486347]", shape="box"] ;
80 -> 81 ;
82 [label="gini = 0.2405\nsamples = 44\nvalue = [  8.6663524   53.33357508]", shape="box"] ;
80 -> 82 ;
83 [label="gini = 0.3788\nsamples = 42\nvalue = [ 10.88849403  32.00014505]", shape="box"] ;
79 -> 83 ;
84 [label="X[9] <= 0.5090\ngini = 0.233954775378\nsamples = 216", shape="box"] ;
78 -> 84 ;
85 [label="gini = 0.0000\nsamples = 1\nvalue = [ 0.22221416  0.        ]", shape="box"] ;
84 -> 85 ;
86 [label="X[13] <= 0.5000\ngini = 0.233095926066\nsamples = 215", shape="box"] ;
84 -> 86 ;
87 [label="X[5] <= 0.3642\ngini = 0.231370551014\nsamples = 213", shape="box"] ;
86 -> 87 ;
88 [label="X[1] <= 0.1382\ngini = 0.209627378284\nsamples = 164", shape="box"] ;
87 -> 88 ;
89 [label="X[1] <= 0.0529\ngini = 0.230088262412\nsamples = 115", shape="box"] ;
88 -> 89 ;
90 [label="gini = 0.2288\nsamples = 53\nvalue = [ 11.33292236  74.66700511]", shape="box"] ;
89 -> 90 ;
91 [label="gini = 0.2311\nsamples = 62\nvalue = [ 14.22170649  92.44486347]", shape="box"] ;
89 -> 91 ;
92 [label="gini = 0.1597\nsamples = 49\nvalue = [  7.33306741  76.44479095]", shape="box"] ;
88 -> 92 ;
93 [label="gini = 0.3367\nsamples = 49\nvalue = [ 10.66627987  39.11128839]", shape="box"] ;
87 -> 93 ;
94 [label="gini = -0.0000\nsamples = 2\nvalue = [ 0.44442833  0.        ]", shape="box"] ;
86 -> 94 ;
95 [label="X[12] <= 0.5000\ngini = 0.258826834392\nsamples = 313", shape="box"] ;
69 -> 95 ;
96 [label="X[2] <= 0.5000\ngini = 0.255886830232\nsamples = 283", shape="box"] ;
95 -> 96 ;
97 [label="X[4] <= 0.9393\ngini = 0.305699241136\nsamples = 227", shape="box"] ;
96 -> 97 ;
98 [label="X[4] <= 0.8724\ngini = 0.335552114018\nsamples = 173", shape="box"] ;
97 -> 98 ;
99 [label="X[10] <= 0.5000\ngini = 0.345140864115\nsamples = 141", shape="box"] ;
98 -> 99 ;
100 [label="X[0] <= 0.0250\ngini = 0.318385933339\nsamples = 112", shape="box"] ;
99 -> 100 ;
101 [label="gini = 0.2645\nsamples = 33\nvalue = [ 9.55520905  1.77778584]", shape="box"] ;
100 -> 101 ;
102 [label="gini = 0.2389\nsamples = 79\nvalue = [  16.88827646  104.88936433]", shape="box"] ;
100 -> 102 ;
103 [label="gini = 0.4608\nsamples = 29\nvalue = [  7.9997099   14.22228669]", shape="box"] ;
99 -> 103 ;
104 [label="gini = 0.3009\nsamples = 32\nvalue = [  8.44413823  37.33350256]", shape="box"] ;
98 -> 104 ;
105 [label="gini = 0.2281\nsamples = 54\nvalue = [ 11.55513653  76.44479095]", shape="box"] ;
97 -> 105 ;
106 [label="gini = 0.0990\nsamples = 56\nvalue = [   5.77756826  104.88936433]", shape="box"] ;
96 -> 106 ;
107 [label="gini = 0.2897\nsamples = 30\nvalue = [  6.44421076  30.22235921]", shape="box"] ;
95 -> 107 ;
108 [label="X[4] <= 0.1736\ngini = 0.448995719622\nsamples = 15265", shape="box"] ;
0 -> 108 ;
109 [label="X[0] <= 0.0190\ngini = 0.462034865828\nsamples = 1148", shape="box"] ;
108 -> 109 ;
110 [label="X[0] <= 0.0166\ngini = 0.0816954927918\nsamples = 229", shape="box"] ;
109 -> 110 ;
111 [label="gini = 0.0000\nsamples = 185\nvalue = [ 64.21989339   0.        ]", shape="box"] ;
110 -> 111 ;
112 [label="gini = 0.3029\nsamples = 44\nvalue = [ 15.55499148   3.55557167]", shape="box"] ;
110 -> 112 ;
113 [label="X[0] <= 0.0564\ngini = 0.420716994885\nsamples = 919", shape="box"] ;
109 -> 113 ;
114 [label="X[14] <= 0.5000\ngini = 0.497917523836\nsamples = 518", shape="box"] ;
113 -> 114 ;
115 [label="X[8] <= 0.5000\ngini = 0.496687054759\nsamples = 498", shape="box"] ;
114 -> 115 ;
116 [label="X[9] <= 0.0070\ngini = 0.493248149677\nsamples = 340", shape="box"] ;
115 -> 116 ;
117 [label="gini = 0.1420\nsamples = 4\nvalue = [ 0.44442833  5.33335751]", shape="box"] ;
116 -> 117 ;
118 [label="X[5] <= 0.5370\ngini = 0.489358417251\nsamples = 336", shape="box"] ;
116 -> 118 ;
119 [label="X[5] <= 0.0309\ngini = 0.439492728916\nsamples = 310", shape="box"] ;
118 -> 119 ;
120 [label="gini = 0.3967\nsamples = 5\nvalue = [ 1.33328498  3.55557167]", shape="box"] ;
119 -> 120 ;
121 [label="X[3] <= 0.2021\ngini = 0.429905373903\nsamples = 305", shape="box"] ;
119 -> 121 ;
122 [label="X[3] <= 0.1755\ngini = 0.311448283456\nsamples = 284", shape="box"] ;
121 -> 122 ;
123 [label="X[12] <= 0.5000\ngini = 0.423945308\nsamples = 161", shape="box"] ;
122 -> 123 ;
124 [label="X[11] <= 0.5000\ngini = 0.358955301415\nsamples = 136", shape="box"] ;
123 -> 124 ;
125 [label="X[0] <= 0.0463\ngini = 0.339891266954\nsamples = 130", shape="box"] ;
124 -> 125 ;
126 [label="gini = 0.1705\nsamples = 96\nvalue = [ 34.22098125   3.55557167]", shape="box"] ;
125 -> 126 ;
127 [label="gini = 0.4959\nsamples = 34\nvalue = [ 10.66627987   8.88892918]", shape="box"] ;
125 -> 127 ;
128 [label="gini = 0.4978\nsamples = 6\nvalue = [ 1.55549915  1.77778584]", shape="box"] ;
124 -> 128 ;
129 [label="gini = 0.4844\nsamples = 25\nvalue = [ 6.22199659  8.88892918]", shape="box"] ;
123 -> 129 ;
130 [label="gini = 0.0000\nsamples = 123\nvalue = [ 43.99840447   0.        ]", shape="box"] ;
122 -> 130 ;
131 [label="gini = 0.2882\nsamples = 21\nvalue = [  4.88871161  23.11121587]", shape="box"] ;
121 -> 131 ;
132 [label="gini = 0.2235\nsamples = 26\nvalue = [  4.44428328  30.22235921]", shape="box"] ;
118 -> 132 ;
133 [label="X[11] <= 0.5000\ngini = 0.428952910232\nsamples = 158", shape="box"] ;
115 -> 133 ;
134 [label="X[3] <= 0.2021\ngini = 0.432814793888\nsamples = 155", shape="box"] ;
133 -> 134 ;
135 [label="X[0] <= 0.0524\ngini = 0.471391874898\nsamples = 135", shape="box"] ;
134 -> 135 ;
136 [label="X[2] <= 0.5000\ngini = 0.483423843002\nsamples = 125", shape="box"] ;
135 -> 136 ;
137 [label="X[12] <= 0.5000\ngini = 0.481048623976\nsamples = 122", shape="box"] ;
136 -> 137 ;
138 [label="X[3] <= 0.1848\ngini = 0.482849575591\nsamples = 106", shape="box"] ;
137 -> 138 ;
139 [label="gini = 0.4705\nsamples = 96\nvalue = [ 25.99905719  42.66686006]", shape="box"] ;
138 -> 139 ;
140 [label="gini = 0.0000\nsamples = 10\nvalue = [ 3.33321246  0.        ]", shape="box"] ;
138 -> 140 ;
141 [label="gini = 0.4675\nsamples = 16\nvalue = [ 4.22206912  7.11114334]", shape="box"] ;
137 -> 141 ;
142 [label="gini = 0.0000\nsamples = 3\nvalue = [ 0.88885666  0.        ]", shape="box"] ;
136 -> 142 ;
143 [label="gini = 0.3200\nsamples = 10\nvalue = [  2.66656997  10.66671502]", shape="box"] ;
135 -> 143 ;
144 [label="gini = 0.1629\nsamples = 20\nvalue = [  2.4443558  24.8890017]", shape="box"] ;
134 -> 144 ;
145 [label="gini = 0.2659\nsamples = 3\nvalue = [ 0.66664249  3.55557167]", shape="box"] ;
133 -> 145 ;
146 [label="gini = 0.3324\nsamples = 20\nvalue = [ 6.66642492  1.77778584]", shape="box"] ;
114 -> 146 ;
147 [label="X[3] <= 0.1733\ngini = 0.302165605108\nsamples = 401", shape="box"] ;
113 -> 147 ;
148 [label="gini = 0.0884\nsamples = 63\nvalue = [   6.22199659  128.00058019]", shape="box"] ;
147 -> 148 ;
149 [label="X[5] <= 0.2284\ngini = 0.364603959023\nsamples = 338", shape="box"] ;
147 -> 149 ;
150 [label="X[8] <= 0.5000\ngini = 0.201295768711\nsamples = 112", shape="box"] ;
149 -> 150 ;
151 [label="gini = 0.2449\nsamples = 76\nvalue = [ 14.22170649  85.33372013]", shape="box"] ;
150 -> 151 ;
152 [label="gini = 0.1253\nsamples = 36\nvalue = [  4.22206912  58.66693259]", shape="box"] ;
150 -> 152 ;
153 [label="X[7] <= 0.2954\ngini = 0.456741924338\nsamples = 226", shape="box"] ;
149 -> 153 ;
154 [label="gini = 0.1709\nsamples = 7\nvalue = [  1.11107082  10.66671502]", shape="box"] ;
153 -> 154 ;
155 [label="X[0] <= 0.1698\ngini = 0.466663697811\nsamples = 219", shape="box"] ;
153 -> 155 ;
156 [label="X[5] <= 0.4877\ngini = 0.495188108261\nsamples = 185", shape="box"] ;
155 -> 156 ;
157 [label="X[3] <= 0.1780\ngini = 0.454773920073\nsamples = 171", shape="box"] ;
156 -> 157 ;
158 [label="X[2] <= 0.5000\ngini = 0.396701570879\nsamples = 125", shape="box"] ;
157 -> 158 ;
159 [label="X[8] <= 0.5000\ngini = 0.355721202974\nsamples = 121", shape="box"] ;
158 -> 159 ;
160 [label="gini = 0.3776\nsamples = 95\nvalue = [ 31.55441128  10.66671502]", shape="box"] ;
159 -> 160 ;
161 [label="gini = 0.2604\nsamples = 26\nvalue = [ 9.77742321  1.77778584]", shape="box"] ;
159 -> 161 ;
162 [label="gini = 0.3967\nsamples = 4\nvalue = [ 1.33328498  3.55557167]", shape="box"] ;
158 -> 162 ;
163 [label="gini = 0.4997\nsamples = 46\nvalue = [ 13.555064    14.22228669]", shape="box"] ;
157 -> 163 ;
164 [label="gini = 0.1975\nsamples = 14\nvalue = [  2.22214164  17.77785836]", shape="box"] ;
156 -> 164 ;
165 [label="gini = 0.1309\nsamples = 34\nvalue = [  4.44428328  58.66693259]", shape="box"] ;
155 -> 165 ;
166 [label="X[4] <= 0.3536\ngini = 0.420823079294\nsamples = 14117", shape="box"] ;
108 -> 166 ;
167 [label="X[9] <= 0.0115\ngini = 0.465630799263\nsamples = 5225", shape="box"] ;
166 -> 167 ;
168 [label="gini = 0.3316\nsamples = 49\nvalue = [ 11.33292236  42.66686006]", shape="box"] ;
167 -> 168 ;
169 [label="X[3] <= 0.9818\ngini = 0.461033507849\nsamples = 5176", shape="box"] ;
167 -> 169 ;
170 [label="X[0] <= 0.0845\ngini = 0.4663708587\nsamples = 4941", shape="box"] ;
169 -> 170 ;
171 [label="X[3] <= 0.1454\ngini = 0.105704900195\nsamples = 4073", shape="box"] ;
170 -> 171 ;
172 [label="X[14] <= 0.5000\ngini = 0.253863743925\nsamples = 685", shape="box"] ;
171 -> 172 ;
173 [label="X[5] <= 0.1420\ngini = 0.263295148289\nsamples = 648", shape="box"] ;
172 -> 173 ;
174 [label="X[5] <= 0.1049\ngini = 0.379385543733\nsamples = 138", shape="box"] ;
173 -> 174 ;
175 [label="gini = -0.0000\nsamples = 63\nvalue = [ 21.99920223   0.        ]", shape="box"] ;
174 -> 175 ;
176 [label="gini = 0.4764\nsamples = 75\nvalue = [ 24.88798637  16.00007252]", shape="box"] ;
174 -> 176 ;
177 [label="X[2] <= 0.5000\ngini = 0.221125147506\nsamples = 510", shape="box"] ;
173 -> 177 ;
178 [label="X[10] <= 0.5000\ngini = 0.222529888546\nsamples = 507", shape="box"] ;
177 -> 178 ;
179 [label="X[0] <= 0.0310\ngini = 0.229353347409\nsamples = 363", shape="box"] ;
178 -> 179 ;
180 [label="X[3] <= 0.1437\ngini = 0.0498136033728\nsamples = 192", shape="box"] ;
179 -> 180 ;
181 [label="gini = 0.0000\nsamples = 175\nvalue = [ 62.21996591   0.        ]", shape="box"] ;
180 -> 181 ;
182 [label="gini = 0.3673\nsamples = 17\nvalue = [ 5.5553541   1.77778584]", shape="box"] ;
180 -> 182 ;
183 [label="X[0] <= 0.0317\ngini = 0.350544296674\nsamples = 171", shape="box"] ;
179 -> 183 ;
184 [label="gini = 0.2659\nsamples = 3\nvalue = [ 0.66664249  3.55557167]", shape="box"] ;
183 -> 184 ;
185 [label="X[3] <= 0.1437\ngini = 0.309807357531\nsamples = 168", shape="box"] ;
183 -> 185 ;
186 [label="X[13] <= 0.5000\ngini = 0.28875765684\nsamples = 162", shape="box"] ;
185 -> 186 ;
187 [label="X[8] <= 0.5000\ngini = 0.261734738155\nsamples = 160", shape="box"] ;
186 -> 187 ;
188 [label="X[5] <= 0.2407\ngini = 0.33241782331\nsamples = 112", shape="box"] ;
187 -> 188 ;
189 [label="gini = 0.1408\nsamples = 55\nvalue = [ 21.55477391   1.77778584]", shape="box"] ;
188 -> 189 ;
190 [label="gini = 0.4389\nsamples = 57\nvalue = [ 18.44377561   8.88892918]", shape="box"] ;
188 -> 190 ;
191 [label="gini = -0.0000\nsamples = 48\nvalue = [ 18.22156145   0.        ]", shape="box"] ;
187 -> 191 ;
192 [label="gini = 0.3200\nsamples = 2\nvalue = [ 0.44442833  1.77778584]", shape="box"] ;
186 -> 192 ;
193 [label="gini = 0.4898\nsamples = 6\nvalue = [ 1.33328498  1.77778584]", shape="box"] ;
185 -> 193 ;
194 [label="X[5] <= 0.3519\ngini = 0.20565271805\nsamples = 144", shape="box"] ;
178 -> 194 ;
195 [label="X[12] <= 0.5000\ngini = 0.150642875276\nsamples = 108", shape="box"] ;
194 -> 195 ;
196 [label="gini = 0.1810\nsamples = 86\nvalue = [ 31.77662545   3.55557167]", shape="box"] ;
195 -> 196 ;
197 [label="gini = 0.0000\nsamples = 22\nvalue = [ 7.9997099  0.       ]", shape="box"] ;
195 -> 197 ;
198 [label="gini = 0.3200\nsamples = 36\nvalue = [ 14.22170649   3.55557167]", shape="box"] ;
194 -> 198 ;
199 [label="gini = -0.0000\nsamples = 3\nvalue = [ 1.55549915  0.        ]", shape="box"] ;
177 -> 199 ;
200 [label="gini = 0.0000\nsamples = 37\nvalue = [ 12.44399318   0.        ]", shape="box"] ;
172 -> 200 ;
201 [label="X[5] <= 0.0556\ngini = 0.0665438280452\nsamples = 3388", shape="box"] ;
171 -> 201 ;
202 [label="gini = 0.4983\nsamples = 12\nvalue = [ 3.99985495  3.55557167]", shape="box"] ;
201 -> 202 ;
203 [label="X[5] <= 0.5123\ngini = 0.0615432123786\nsamples = 3376", shape="box"] ;
201 -> 203 ;
204 [label="X[5] <= 0.2654\ngini = 0.0541972339319\nsamples = 3337", shape="box"] ;
203 -> 204 ;
205 [label="X[3] <= 0.1499\ngini = 0.0348922017093\nsamples = 1939", shape="box"] ;
204 -> 205 ;
206 [label="X[5] <= 0.1914\ngini = 0.0973079675004\nsamples = 277", shape="box"] ;
205 -> 206 ;
207 [label="X[5] <= 0.1790\ngini = 0.167579538752\nsamples = 141", shape="box"] ;
206 -> 207 ;
208 [label="gini = 0.0000\nsamples = 121\nvalue = [ 44.66504696   0.        ]", shape="box"] ;
207 -> 208 ;
209 [label="gini = 0.4826\nsamples = 20\nvalue = [ 7.77749574  5.33335751]", shape="box"] ;
207 -> 209 ;
210 [label="gini = 0.0000\nsamples = 136\nvalue = [ 46.22054611   0.        ]", shape="box"] ;
206 -> 210 ;
211 [label="X[5] <= 0.1173\ngini = 0.0235529840969\nsamples = 1662", shape="box"] ;
205 -> 211 ;
212 [label="X[0] <= 0.0707\ngini = 0.0836126561582\nsamples = 209", shape="box"] ;
211 -> 212 ;
213 [label="X[1] <= 0.7561\ngini = 0.0459533435264\nsamples = 199", shape="box"] ;
212 -> 213 ;
214 [label="gini = 0.2311\nsamples = 32\nvalue = [ 11.55513653   1.77778584]", shape="box"] ;
213 -> 214 ;
215 [label="gini = 0.0000\nsamples = 167\nvalue = [ 62.21996591   0.        ]", shape="box"] ;
213 -> 215 ;
216 [label="gini = 0.4260\nsamples = 10\nvalue = [ 3.99985495  1.77778584]", shape="box"] ;
212 -> 216 ;
217 [label="X[3] <= 0.9813\ngini = 0.0137043957585\nsamples = 1453", shape="box"] ;
211 -> 217 ;
218 [label="X[14] <= 0.5000\ngini = 0.00826465487391\nsamples = 1213", shape="box"] ;
217 -> 218 ;
219 [label="X[10] <= 0.5000\ngini = 0.00887428125212\nsamples = 1129", shape="box"] ;
218 -> 219 ;
220 [label="gini = 0.0000\nsamples = 809\nvalue = [ 287.98955651    0.        ]", shape="box"] ;
219 -> 220 ;
221 [label="X[0] <= 0.0507\ngini = 0.0315513199515\nsamples = 320", shape="box"] ;
219 -> 221 ;
222 [label="gini = 0.0000\nsamples = 251\nvalue = [ 85.7746673   0.       ]", shape="box"] ;
221 -> 222 ;
223 [label="gini = 0.1316\nsamples = 69\nvalue = [ 23.33248722   1.77778584]", shape="box"] ;
221 -> 223 ;
224 [label="gini = 0.0000\nsamples = 84\nvalue = [ 29.55448381   0.        ]", shape="box"] ;
218 -> 224 ;
225 [label="X[0] <= 0.0515\ngini = 0.0400850319491\nsamples = 240", shape="box"] ;
217 -> 225 ;
226 [label="gini = 0.0000\nsamples = 186\nvalue = [ 67.55310585   0.        ]", shape="box"] ;
225 -> 226 ;
227 [label="gini = 0.1670\nsamples = 54\nvalue = [ 17.55491895   1.77778584]", shape="box"] ;
225 -> 227 ;
228 [label="X[0] <= 0.0566\ngini = 0.0799969418731\nsamples = 1398", shape="box"] ;
204 -> 228 ;
229 [label="gini = 0.0000\nsamples = 1155\nvalue = [ 401.54099431    0.        ]", shape="box"] ;
228 -> 229 ;
230 [label="X[3] <= 0.1478\ngini = 0.313623584384\nsamples = 243", shape="box"] ;
228 -> 230 ;
231 [label="gini = 0.4608\nsamples = 8\nvalue = [ 1.99992748  3.55557167]", shape="box"] ;
230 -> 231 ;
232 [label="X[5] <= 0.3519\ngini = 0.283446867704\nsamples = 235", shape="box"] ;
230 -> 232 ;
233 [label="X[0] <= 0.0723\ngini = 0.181349031509\nsamples = 118", shape="box"] ;
232 -> 233 ;
234 [label="gini = 0.0950\nsamples = 81\nvalue = [ 33.77655292   1.77778584]", shape="box"] ;
233 -> 234 ;
235 [label="gini = 0.3261\nsamples = 37\nvalue = [ 13.77727817   3.55557167]", shape="box"] ;
233 -> 235 ;
236 [label="X[11] <= 0.5000\ngini = 0.368400905097\nsamples = 117", shape="box"] ;
232 -> 236 ;
237 [label="X[5] <= 0.5000\ngini = 0.213046069963\nsamples = 116", shape="box"] ;
236 -> 237 ;
238 [label="X[1] <= 0.6582\ngini = 0.159580157406\nsamples = 108", shape="box"] ;
237 -> 238 ;
239 [label="gini = 0.2344\nsamples = 32\nvalue = [ 11.33292236   1.77778584]", shape="box"] ;
238 -> 239 ;
240 [label="gini = 0.1207\nsamples = 76\nvalue = [ 25.77684302   1.77778584]", shape="box"] ;
238 -> 240 ;
241 [label="gini = 0.4978\nsamples = 8\nvalue = [ 1.55549915  1.77778584]", shape="box"] ;
237 -> 241 ;
242 [label="gini = -0.0000\nsamples = 1\nvalue = [ 0.          7.11114334]", shape="box"] ;
236 -> 242 ;
243 [label="gini = 0.4053\nsamples = 39\nvalue = [ 13.555064     5.33335751]", shape="box"] ;
203 -> 243 ;
244 [label="X[0] <= 0.1075\ngini = 0.294040424782\nsamples = 868", shape="box"] ;
170 -> 244 ;
245 [label="X[0] <= 0.1020\ngini = 0.497504128639\nsamples = 274", shape="box"] ;
244 -> 245 ;
246 [label="X[0] <= 0.0985\ngini = 0.487506920206\nsamples = 218", shape="box"] ;
245 -> 246 ;
247 [label="X[3] <= 0.1431\ngini = 0.498526628907\nsamples = 182", shape="box"] ;
246 -> 247 ;
248 [label="gini = 0.2449\nsamples = 12\nvalue = [  2.66656997  16.00007252]", shape="box"] ;
247 -> 248 ;
249 [label="X[4] <= 0.2657\ngini = 0.497258018226\nsamples = 170", shape="box"] ;
247 -> 249 ;
250 [label="gini = 0.4978\nsamples = 82\nvalue = [ 23.33248722  26.66678754]", shape="box"] ;
249 -> 250 ;
251 [label="gini = 0.4742\nsamples = 88\nvalue = [ 28.22119883  17.77785836]", shape="box"] ;
249 -> 251 ;
252 [label="gini = 0.3796\nsamples = 36\nvalue = [  9.11078072  26.66678754]", shape="box"] ;
246 -> 252 ;
253 [label="gini = 0.4260\nsamples = 56\nvalue = [ 19.99927476   8.88892918]", shape="box"] ;
245 -> 253 ;
254 [label="X[11] <= 0.5000\ngini = 0.21296364746\nsamples = 594", shape="box"] ;
244 -> 254 ;
255 [label="X[13] <= 0.5000\ngini = 0.2096521909\nsamples = 585", shape="box"] ;
254 -> 255 ;
256 [label="X[0] <= 0.1684\ngini = 0.204941027056\nsamples = 569", shape="box"] ;
255 -> 256 ;
257 [label="X[7] <= 0.4694\ngini = 0.269665602984\nsamples = 350", shape="box"] ;
256 -> 257 ;
258 [label="X[5] <= 0.4506\ngini = 0.231644125286\nsamples = 145", shape="box"] ;
257 -> 258 ;
259 [label="X[12] <= 0.5000\ngini = 0.22089431086\nsamples = 136", shape="box"] ;
258 -> 259 ;
260 [label="X[8] <= 0.5000\ngini = 0.213208785813\nsamples = 117", shape="box"] ;
259 -> 260 ;
261 [label="gini = 0.1997\nsamples = 96\nvalue = [  16.22163397  128.00058019]", shape="box"] ;
260 -> 261 ;
262 [label="gini = 0.2744\nsamples = 21\nvalue = [  4.88871161  24.8890017 ]", shape="box"] ;
260 -> 262 ;
263 [label="gini = 0.2854\nsamples = 19\nvalue = [  3.33321246  16.00007252]", shape="box"] ;
259 -> 263 ;
264 [label="gini = 0.4310\nsamples = 9\nvalue = [ 2.4443558   5.33335751]", shape="box"] ;
258 -> 264 ;
265 [label="X[14] <= 0.5000\ngini = 0.299106409395\nsamples = 205", shape="box"] ;
257 -> 265 ;
266 [label="X[12] <= 0.5000\ngini = 0.300066088186\nsamples = 194", shape="box"] ;
265 -> 266 ;
267 [label="X[3] <= 0.9802\ngini = 0.284515563595\nsamples = 157", shape="box"] ;
266 -> 267 ;
268 [label="gini = 0.0884\nsamples = 15\nvalue = [  1.55549915  32.00014505]", shape="box"] ;
267 -> 268 ;
269 [label="X[10] <= 0.5000\ngini = 0.318616160919\nsamples = 142", shape="box"] ;
267 -> 269 ;
270 [label="X[3] <= 0.9813\ngini = 0.331417747621\nsamples = 105", shape="box"] ;
269 -> 270 ;
271 [label="gini = 0.3681\nsamples = 68\nvalue = [ 15.99941981  49.77800341]", shape="box"] ;
270 -> 271 ;
272 [label="gini = 0.2688\nsamples = 37\nvalue = [  7.11085325  37.33350256]", shape="box"] ;
270 -> 272 ;
273 [label="gini = 0.2854\nsamples = 37\nvalue = [  7.77749574  37.33350256]", shape="box"] ;
269 -> 273 ;
274 [label="gini = 0.3628\nsamples = 37\nvalue = [  9.99963738  32.00014505]", shape="box"] ;
266 -> 274 ;
275 [label="gini = 0.2778\nsamples = 11\nvalue = [ 1.77771331  8.88892918]", shape="box"] ;
265 -> 275 ;
276 [label="X[10] <= 0.5000\ngini = 0.128445339095\nsamples = 219", shape="box"] ;
256 -> 276 ;
277 [label="X[0] <= 0.1835\ngini = 0.134828705059\nsamples = 175", shape="box"] ;
276 -> 277 ;
278 [label="gini = 0.0619\nsamples = 36\nvalue = [  3.1109983   94.22264931]", shape="box"] ;
277 -> 278 ;
279 [label="X[0] <= 0.1864\ngini = 0.164116004184\nsamples = 139", shape="box"] ;
277 -> 279 ;
280 [label="gini = 0.4628\nsamples = 7\nvalue = [ 3.1109983   1.77778584]", shape="box"] ;
279 -> 280 ;
281 [label="X[5] <= 0.3765\ngini = 0.144090847328\nsamples = 132", shape="box"] ;
279 -> 281 ;
282 [label="X[3] <= 0.9804\ngini = 0.128272805207\nsamples = 110", shape="box"] ;
281 -> 282 ;
283 [label="gini = 0.0990\nsamples = 59\nvalue = [   5.77756826  104.88936433]", shape="box"] ;
282 -> 283 ;
284 [label="gini = 0.1687\nsamples = 51\nvalue = [  7.11085325  69.3336476 ]", shape="box"] ;
282 -> 284 ;
285 [label="gini = 0.2235\nsamples = 22\nvalue = [  4.44428328  30.22235921]", shape="box"] ;
281 -> 285 ;
286 [label="gini = 0.1069\nsamples = 44\nvalue = [  5.5553541   92.44486347]", shape="box"] ;
276 -> 286 ;
287 [label="gini = 0.4366\nsamples = 16\nvalue = [ 4.22206912  8.88892918]", shape="box"] ;
255 -> 287 ;
288 [label="gini = 0.4898\nsamples = 9\nvalue = [ 2.66656997  3.55557167]", shape="box"] ;
254 -> 288 ;
289 [label="X[0] <= 0.1259\ngini = 0.144241308344\nsamples = 235", shape="box"] ;
169 -> 289 ;
290 [label="gini = 0.0000\nsamples = 224\nvalue = [ 79.99709903   0.        ]", shape="box"] ;
289 -> 290 ;
291 [label="gini = 0.4531\nsamples = 11\nvalue = [ 3.77764079  7.11114334]", shape="box"] ;
289 -> 291 ;
292 [label="X[14] <= 0.5000\ngini = 0.379888038128\nsamples = 8892", shape="box"] ;
166 -> 292 ;
293 [label="X[0] <= 0.1012\ngini = 0.384523134517\nsamples = 8400", shape="box"] ;
292 -> 293 ;
294 [label="X[3] <= 0.9864\ngini = 0.0904121452257\nsamples = 7445", shape="box"] ;
293 -> 294 ;
295 [label="X[0] <= 0.0753\ngini = 0.0859442893032\nsamples = 7440", shape="box"] ;
294 -> 295 ;
296 [label="X[6] <= 0.5000\ngini = 0.0314864276308\nsamples = 6864", shape="box"] ;
295 -> 296 ;
297 [label="X[0] <= 0.0363\ngini = 0.0217000356026\nsamples = 6853", shape="box"] ;
296 -> 297 ;
298 [label="X[1] <= 0.9389\ngini = 0.00677602910675\nsamples = 4452", shape="box"] ;
297 -> 298 ;
299 [label="X[12] <= 0.5000\ngini = 0.0132158062232\nsamples = 2254", shape="box"] ;
298 -> 299 ;
300 [label="X[11] <= 0.5000\ngini = 0.0154486703571\nsamples = 1912", shape="box"] ;
299 -> 300 ;
301 [label="X[1] <= 0.8688\ngini = 0.0155790226707\nsamples = 1893", shape="box"] ;
300 -> 301 ;
302 [label="gini = 0.0000\nsamples = 1157\nvalue = [ 412.20727418    0.        ]", shape="box"] ;
301 -> 302 ;
303 [label="X[3] <= 0.8161\ngini = 0.0391376371238\nsamples = 736", shape="box"] ;
301 -> 303 ;
304 [label="gini = 0.0000\nsamples = 716\nvalue = [ 255.54628857    0.        ]", shape="box"] ;
303 -> 304 ;
305 [label="gini = 0.4970\nsamples = 20\nvalue = [ 6.22199659  5.33335751]", shape="box"] ;
303 -> 305 ;
306 [label="gini = 0.0000\nsamples = 19\nvalue = [ 5.77756826  0.        ]", shape="box"] ;
300 -> 306 ;
307 [label="gini = 0.0000\nsamples = 342\nvalue = [ 116.66243609    0.        ]", shape="box"] ;
299 -> 307 ;
308 [label="gini = 0.0000\nsamples = 2198\nvalue = [ 767.08329405    0.        ]", shape="box"] ;
298 -> 308 ;
309 [label="X[3] <= 0.9394\ngini = 0.048274173957\nsamples = 2401", shape="box"] ;
297 -> 309 ;
310 [label="X[5] <= 0.2037\ngini = 0.125811708086\nsamples = 370", shape="box"] ;
309 -> 310 ;
311 [label="gini = 0.0000\nsamples = 108\nvalue = [ 34.44319542   0.        ]", shape="box"] ;
310 -> 311 ;
312 [label="X[0] <= 0.0365\ngini = 0.16597371664\nsamples = 262", shape="box"] ;
310 -> 312 ;
313 [label="gini = 0.3967\nsamples = 5\nvalue = [ 1.33328498  3.55557167]", shape="box"] ;
312 -> 313 ;
314 [label="X[12] <= 0.5000\ngini = 0.108731734518\nsamples = 257", shape="box"] ;
312 -> 314 ;
315 [label="X[13] <= 0.5000\ngini = 0.0889458224438\nsamples = 213", shape="box"] ;
314 -> 315 ;
316 [label="X[5] <= 0.4136\ngini = 0.0904505566351\nsamples = 208", shape="box"] ;
315 -> 316 ;
317 [label="X[2] <= 0.5000\ngini = 0.122086795617\nsamples = 154", shape="box"] ;
316 -> 317 ;
318 [label="X[10] <= 0.5000\ngini = 0.125910191656\nsamples = 149", shape="box"] ;
317 -> 318 ;
319 [label="X[5] <= 0.4012\ngini = 0.149248831676\nsamples = 124", shape="box"] ;
318 -> 319 ;
320 [label="X[0] <= 0.0416\ngini = 0.0863130116222\nsamples = 114", shape="box"] ;
319 -> 320 ;
321 [label="gini = 0.2563\nsamples = 31\nvalue = [ 9.99963738  1.77778584]", shape="box"] ;
320 -> 321 ;
322 [label="gini = 0.0000\nsamples = 83\nvalue = [ 27.55455633   0.        ]", shape="box"] ;
320 -> 322 ;
323 [label="gini = 0.4800\nsamples = 10\nvalue = [ 2.66656997  1.77778584]", shape="box"] ;
319 -> 323 ;
324 [label="gini = 0.0000\nsamples = 25\nvalue = [ 8.88856656  0.        ]", shape="box"] ;
318 -> 324 ;
325 [label="gini = 0.0000\nsamples = 5\nvalue = [ 1.77771331  0.        ]", shape="box"] ;
317 -> 325 ;
326 [label="gini = 0.0000\nsamples = 54\nvalue = [ 20.44370309   0.        ]", shape="box"] ;
316 -> 326 ;
327 [label="gini = 0.0000\nsamples = 5\nvalue = [ 1.33328498  0.        ]", shape="box"] ;
315 -> 327 ;
328 [label="gini = 0.1952\nsamples = 44\nvalue = [ 14.44392066   1.77778584]", shape="box"] ;
314 -> 328 ;
329 [label="X[12] <= 0.5000\ngini = 0.0335044536346\nsamples = 2031", shape="box"] ;
309 -> 329 ;
330 [label="X[3] <= 0.9806\ngini = 0.0179767691272\nsamples = 1647", shape="box"] ;
329 -> 330 ;
331 [label="X[5] <= 0.1173\ngini = 0.0263844555129\nsamples = 1130", shape="box"] ;
330 -> 331 ;
332 [label="gini = 0.2050\nsamples = 42\nvalue = [ 13.555064     1.77778584]", shape="box"] ;
331 -> 332 ;
333 [label="X[3] <= 0.9804\ngini = 0.018368846913\nsamples = 1088", shape="box"] ;
331 -> 333 ;
334 [label="X[0] <= 0.0371\ngini = 0.00962711919615\nsamples = 1041", shape="box"] ;
333 -> 334 ;
335 [label="gini = 0.1862\nsamples = 52\nvalue = [ 15.33277731   1.77778584]", shape="box"] ;
334 -> 335 ;
336 [label="gini = 0.0000\nsamples = 989\nvalue = [ 350.43173659    0.        ]", shape="box"] ;
334 -> 336 ;
337 [label="gini = 0.1975\nsamples = 47\nvalue = [ 14.22170649   1.77778584]", shape="box"] ;
333 -> 337 ;
338 [label="gini = 0.0000\nsamples = 517\nvalue = [ 189.10425354    0.        ]", shape="box"] ;
330 -> 338 ;
339 [label="X[5] <= 0.1790\ngini = 0.0950034880729\nsamples = 384", shape="box"] ;
329 -> 339 ;
340 [label="gini = 0.2063\nsamples = 81\nvalue = [ 26.88791384   3.55557167]", shape="box"] ;
339 -> 340 ;
341 [label="X[1] <= 0.9299\ngini = 0.0615969997986\nsamples = 303", shape="box"] ;
339 -> 341 ;
342 [label="gini = 0.0000\nsamples = 135\nvalue = [ 47.33161693   0.        ]", shape="box"] ;
341 -> 342 ;
343 [label="X[4] <= 0.4958\ngini = 0.10426062105\nsamples = 168", shape="box"] ;
341 -> 343 ;
344 [label="gini = 0.0000\nsamples = 49\nvalue = [ 17.77713312   0.        ]", shape="box"] ;
343 -> 344 ;
345 [label="X[8] <= 0.5000\ngini = 0.140775842851\nsamples = 119", shape="box"] ;
343 -> 345 ;
346 [label="gini = 0.1906\nsamples = 81\nvalue = [ 29.77669797   3.55557167]", shape="box"] ;
345 -> 346 ;
347 [label="gini = 0.0000\nsamples = 38\nvalue = [ 13.33284984   0.        ]", shape="box"] ;
345 -> 347 ;
348 [label="gini = 0.1748\nsamples = 11\nvalue = [  1.33328498  12.44450085]", shape="box"] ;
296 -> 348 ;
349 [label="X[7] <= 0.6606\ngini = 0.417397185483\nsamples = 576", shape="box"] ;
295 -> 349 ;
350 [label="X[6] <= 0.5000\ngini = 0.499846464032\nsamples = 200", shape="box"] ;
349 -> 350 ;
351 [label="X[11] <= 0.5000\ngini = 0.498899676455\nsamples = 199", shape="box"] ;
350 -> 351 ;
352 [label="X[5] <= 0.2654\ngini = 0.499200814398\nsamples = 198", shape="box"] ;
351 -> 352 ;
353 [label="X[5] <= 0.1667\ngini = 0.492971627506\nsamples = 104", shape="box"] ;
352 -> 353 ;
354 [label="gini = 0.4522\nsamples = 27\nvalue = [  8.44413823  16.00007252]", shape="box"] ;
353 -> 354 ;
355 [label="gini = 0.4997\nsamples = 77\nvalue = [ 23.77691555  24.8890017 ]", shape="box"] ;
353 -> 355 ;
356 [label="gini = 0.4619\nsamples = 94\nvalue = [ 31.33219712  17.77785836]", shape="box"] ;
352 -> 356 ;
357 [label="gini = 0.0000\nsamples = 1\nvalue = [ 0.88885666  0.        ]", shape="box"] ;
351 -> 357 ;
358 [label="gini = 0.0000\nsamples = 1\nvalue = [ 0.          3.55557167]", shape="box"] ;
350 -> 358 ;
359 [label="X[4] <= 0.4895\ngini = 0.237532468012\nsamples = 376", shape="box"] ;
349 -> 359 ;
360 [label="X[3] <= 0.9808\ngini = 0.308397810889\nsamples = 108", shape="box"] ;
359 -> 360 ;
361 [label="gini = -0.0000\nsamples = 66\nvalue = [ 23.99912971   0.        ]", shape="box"] ;
360 -> 361 ;
362 [label="gini = 0.4767\nsamples = 42\nvalue = [ 13.77727817   8.88892918]", shape="box"] ;
360 -> 362 ;
363 [label="X[5] <= 0.2654\ngini = 0.203540582464\nsamples = 268", shape="box"] ;
359 -> 363 ;
364 [label="gini = 0.0000\nsamples = 130\nvalue = [ 47.55383109   0.        ]", shape="box"] ;
363 -> 364 ;
365 [label="X[13] <= 0.5000\ngini = 0.326109094819\nsamples = 138", shape="box"] ;
363 -> 365 ;
366 [label="X[10] <= 0.5000\ngini = 0.330593726894\nsamples = 134", shape="box"] ;
365 -> 366 ;
367 [label="gini = 0.0000\nsamples = 107\nvalue = [ 37.99862204   0.        ]", shape="box"] ;
366 -> 367 ;
368 [label="gini = 0.4880\nsamples = 27\nvalue = [  9.11078072  12.44450085]", shape="box"] ;
366 -> 368 ;
369 [label="gini = 0.0000\nsamples = 4\nvalue = [ 1.11107082  0.        ]", shape="box"] ;
365 -> 369 ;
370 [label="gini = 0.2659\nsamples = 5\nvalue = [ 1.33328498  7.11114334]", shape="box"] ;
294 -> 370 ;
371 [label="X[3] <= 0.9815\ngini = 0.322358610592\nsamples = 955", shape="box"] ;
293 -> 371 ;
372 [label="X[3] <= 0.9585\ngini = 0.354020340967\nsamples = 780", shape="box"] ;
371 -> 372 ;
373 [label="X[3] <= 0.9573\ngini = 0.378027829238\nsamples = 532", shape="box"] ;
372 -> 373 ;
374 [label="X[0] <= 0.2262\ngini = 0.336538840469\nsamples = 275", shape="box"] ;
373 -> 374 ;
375 [label="X[1] <= 0.8688\ngini = 0.387804140151\nsamples = 234", shape="box"] ;
374 -> 375 ;
376 [label="gini = 0.4622\nsamples = 78\nvalue = [ 20.22148892  35.55571672]", shape="box"] ;
375 -> 376 ;
377 [label="X[2] <= 0.5000\ngini = 0.353443881784\nsamples = 156", shape="box"] ;
375 -> 377 ;
378 [label="X[3] <= 0.7940\ngini = 0.360552767454\nsamples = 153", shape="box"] ;
377 -> 378 ;
379 [label="X[8] <= 0.5000\ngini = 0.323392318737\nsamples = 109", shape="box"] ;
378 -> 379 ;
380 [label="gini = 0.3893\nsamples = 61\nvalue = [ 15.99941981  44.4446459 ]", shape="box"] ;
379 -> 380 ;
381 [label="gini = 0.2477\nsamples = 48\nvalue = [  9.33299489  55.11136092]", shape="box"] ;
379 -> 381 ;
382 [label="gini = 0.4608\nsamples = 44\nvalue = [ 11.99956485  21.33343003]", shape="box"] ;
378 -> 382 ;
383 [label="gini = 0.0768\nsamples = 3\nvalue = [ 0.22221416  5.33335751]", shape="box"] ;
377 -> 383 ;
384 [label="gini = 0.1134\nsamples = 41\nvalue = [  4.22206912  65.77807593]", shape="box"] ;
374 -> 384 ;
385 [label="X[11] <= 0.5000\ngini = 0.423433694016\nsamples = 257", shape="box"] ;
373 -> 385 ;
386 [label="X[5] <= 0.4506\ngini = 0.421206814805\nsamples = 254", shape="box"] ;
385 -> 386 ;
387 [label="X[8] <= 0.5000\ngini = 0.399517069318\nsamples = 225", shape="box"] ;
386 -> 387 ;
388 [label="X[0] <= 0.1503\ngini = 0.382395783437\nsamples = 175", shape="box"] ;
387 -> 388 ;
389 [label="X[13] <= 0.5000\ngini = 0.495192175335\nsamples = 100", shape="box"] ;
388 -> 389 ;
390 [label="gini = 0.4966\nsamples = 93\nvalue = [ 28.66562715  33.77793088]", shape="box"] ;
389 -> 390 ;
391 [label="gini = 0.4608\nsamples = 7\nvalue = [ 1.99992748  3.55557167]", shape="box"] ;
389 -> 391 ;
392 [label="gini = 0.2240\nsamples = 75\nvalue = [ 13.11063567  88.8892918 ]", shape="box"] ;
388 -> 392 ;
393 [label="gini = 0.4619\nsamples = 50\nvalue = [ 13.11063567  23.11121587]", shape="box"] ;
387 -> 393 ;
394 [label="gini = 0.4038\nsamples = 29\nvalue = [ 9.11078072  3.55557167]", shape="box"] ;
386 -> 394 ;
395 [label="gini = -0.0000\nsamples = 3\nvalue = [ 0.88885666  0.        ]", shape="box"] ;
385 -> 395 ;
396 [label="X[11] <= 0.5000\ngini = 0.308469309725\nsamples = 248", shape="box"] ;
372 -> 396 ;
397 [label="X[7] <= 0.6606\ngini = 0.305489071857\nsamples = 244", shape="box"] ;
396 -> 397 ;
398 [label="gini = 0.3418\nsamples = 58\nvalue = [ 12.44399318  44.4446459 ]", shape="box"] ;
397 -> 398 ;
399 [label="X[3] <= 0.9686\ngini = 0.296453954155\nsamples = 186", shape="box"] ;
397 -> 399 ;
400 [label="gini = 0.2629\nsamples = 89\nvalue = [  19.99927476  108.444936  ]", shape="box"] ;
399 -> 400 ;
401 [label="gini = 0.3310\nsamples = 97\nvalue = [ 23.99912971  90.66707764]", shape="box"] ;
399 -> 401 ;
402 [label="gini = -0.0000\nsamples = 4\nvalue = [ 0.88885666  0.        ]", shape="box"] ;
396 -> 402 ;
403 [label="X[0] <= 0.1121\ngini = 0.207755154332\nsamples = 175", shape="box"] ;
371 -> 403 ;
404 [label="gini = 0.4997\nsamples = 31\nvalue = [ 8.44413823  8.88892918]", shape="box"] ;
403 -> 404 ;
405 [label="X[0] <= 0.1392\ngini = 0.16739043655\nsamples = 144", shape="box"] ;
403 -> 405 ;
406 [label="gini = 0.2740\nsamples = 56\nvalue = [ 12.88842151  65.77807593]", shape="box"] ;
405 -> 406 ;
407 [label="gini = 0.1118\nsamples = 88\nvalue = [  10.22185154  161.77851108]", shape="box"] ;
405 -> 407 ;
408 [label="X[12] <= 0.5000\ngini = 0.280353704846\nsamples = 492", shape="box"] ;
292 -> 408 ;
409 [label="X[0] <= 0.1871\ngini = 0.28783616703\nsamples = 477", shape="box"] ;
408 -> 409 ;
410 [label="X[4] <= 0.5188\ngini = 0.0789787884029\nsamples = 459", shape="box"] ;
409 -> 410 ;
411 [label="X[6] <= 0.5000\ngini = 0.174196475259\nsamples = 180", shape="box"] ;
410 -> 411 ;
412 [label="X[3] <= 0.9591\ngini = 0.137178978357\nsamples = 179", shape="box"] ;
411 -> 412 ;
413 [label="gini = 0.2486\nsamples = 77\nvalue = [ 31.33219712   5.33335751]", shape="box"] ;
412 -> 413 ;
414 [label="gini = 0.0000\nsamples = 102\nvalue = [ 35.33205207   0.        ]", shape="box"] ;
412 -> 414 ;
415 [label="gini = 0.0000\nsamples = 1\nvalue = [ 0.          1.77778584]", shape="box"] ;
411 -> 415 ;
416 [label="gini = -0.0000\nsamples = 279\nvalue = [ 98.88530297   0.        ]", shape="box"] ;
410 -> 416 ;
417 [label="gini = 0.1674\nsamples = 18\nvalue = [  2.88878413  28.44457338]", shape="box"] ;
409 -> 417 ;
418 [label="gini = -0.0000\nsamples = 15\nvalue = [ 6.88863908  0.        ]", shape="box"] ;
408 -> 418 ;
}