digraph Tree {
0 [label="X[6] <= 0.5000\ngini = 0.499998960118\nsamples = 17334", shape="box"] ;
1 [label="X[2] <= 0.5000\ngini = 0.499632542205\nsamples = 17046", shape="box"] ;
0 -> 1 ;
2 [label="X[5] <= 0.5370\ngini = 0.492455315337\nsamples = 16526", shape="box"] ;
1 -> 2 ;
3 [label="X[7] <= 0.2599\ngini = 0.488368108756\nsamples = 16257", shape="box"] ;
2 -> 3 ;
4 [label="X[3] <= 0.0566\ngini = 0.305034434217\nsamples = 575", shape="box"] ;
3 -> 4 ;
5 [label="X[1] <= 0.3261\ngini = 0.352906364307\nsamples = 384", shape="box"] ;
4 -> 5 ;
6 [label="X[3] <= 0.0376\ngini = 0.330963313843\nsamples = 201", shape="box"] ;
5 -> 6 ;
7 [label="X[4] <= 0.8054\ngini = 0.306808345353\nsamples = 179", shape="box"] ;
6 -> 7 ;
8 [label="gini = 0.1972\nsamples = 40\nvalue = [  7.29552977  58.47648492]", shape="box"] ;
7 -> 8 ;
9 [label="X[11] <= 0.5000\ngini = 0.345391534933\nsamples = 139", shape="box"] ;
7 -> 9 ;
10 [label="X[0] <= 0.0419\ngini = 0.328311445958\nsamples = 132", shape="box"] ;
9 -> 10 ;
11 [label="gini = 0.4753\nsamples = 73\nvalue = [ 21.4306187  33.6682792]", shape="box"] ;
10 -> 11 ;
12 [label="gini = 0.1893\nsamples = 59\nvalue = [ 10.48732405  88.60073473]", shape="box"] ;
10 -> 12 ;
13 [label="gini = -0.0000\nsamples = 7\nvalue = [ 2.96380897  0.        ]", shape="box"] ;
9 -> 13 ;
14 [label="gini = 0.4900\nsamples = 22\nvalue = [ 7.06754447  5.31604408]", shape="box"] ;
6 -> 14 ;
15 [label="X[8] <= 0.5000\ngini = 0.378588915549\nsamples = 183", shape="box"] ;
5 -> 15 ;
16 [label="gini = 0.3255\nsamples = 98\nvalue = [ 23.25450115  90.37274943]", shape="box"] ;
15 -> 16 ;
17 [label="gini = 0.4431\nsamples = 85\nvalue = [ 23.71047176  47.84439676]", shape="box"] ;
15 -> 17 ;
18 [label="X[5] <= 0.5247\ngini = 0.223221568447\nsamples = 191", shape="box"] ;
4 -> 18 ;
19 [label="X[10] <= 0.5000\ngini = 0.219092541972\nsamples = 189", shape="box"] ;
18 -> 19 ;
20 [label="X[14] <= 0.5000\ngini = 0.199249002396\nsamples = 142", shape="box"] ;
19 -> 20 ;
21 [label="X[3] <= 0.4375\ngini = 0.193682319065\nsamples = 139", shape="box"] ;
20 -> 21 ;
22 [label="X[8] <= 0.5000\ngini = 0.188018988684\nsamples = 136", shape="box"] ;
21 -> 22 ;
23 [label="gini = 0.1558\nsamples = 77\nvalue = [  12.53919179  134.67311679]", shape="box"] ;
22 -> 23 ;
24 [label="gini = 0.2441\nsamples = 59\nvalue = [ 11.17127996  67.3365584 ]", shape="box"] ;
22 -> 24 ;
25 [label="gini = -0.0000\nsamples = 3\nvalue = [ 0.91194122  0.        ]", shape="box"] ;
21 -> 25 ;
26 [label="gini = -0.0000\nsamples = 3\nvalue = [ 0.91194122  0.        ]", shape="box"] ;
20 -> 26 ;
27 [label="gini = 0.2881\nsamples = 47\nvalue = [ 10.48732405  49.61641145]", shape="box"] ;
19 -> 27 ;
28 [label="gini = -0.0000\nsamples = 2\nvalue = [ 0.91194122  0.        ]", shape="box"] ;
18 -> 28 ;
29 [label="X[0] <= 0.0798\ngini = 0.476565584431\nsamples = 15682", shape="box"] ;
3 -> 29 ;
30 [label="X[4] <= 0.6423\ngini = 0.27780982959\nsamples = 12855", shape="box"] ;
29 -> 30 ;
31 [label="X[1] <= 0.4690\ngini = 0.253871952564\nsamples = 12764", shape="box"] ;
30 -> 31 ;
32 [label="X[0] <= 0.0330\ngini = 0.351162413968\nsamples = 486", shape="box"] ;
31 -> 32 ;
33 [label="X[9] <= 0.0075\ngini = 0.46797187018\nsamples = 225", shape="box"] ;
32 -> 33 ;
34 [label="gini = 0.0000\nsamples = 1\nvalue = [ 0.          1.77201469]", shape="box"] ;
33 -> 34 ;
35 [label="X[14] <= 0.5000\ngini = 0.462981850326\nsamples = 224", shape="box"] ;
33 -> 35 ;
36 [label="X[12] <= 0.5000\ngini = 0.454811680635\nsamples = 218", shape="box"] ;
35 -> 36 ;
37 [label="X[1] <= 0.2981\ngini = 0.470480820781\nsamples = 186", shape="box"] ;
36 -> 37 ;
38 [label="X[11] <= 0.5000\ngini = 0.271310686196\nsamples = 103", shape="box"] ;
37 -> 38 ;
39 [label="gini = 0.1702\nsamples = 96\nvalue = [ 34.1977958    3.54402939]", shape="box"] ;
38 -> 39 ;
40 [label="gini = 0.4853\nsamples = 7\nvalue = [ 2.50783836  3.54402939]", shape="box"] ;
38 -> 40 ;
41 [label="gini = 0.4945\nsamples = 83\nvalue = [ 24.39442767  30.12424981]", shape="box"] ;
37 -> 41 ;
42 [label="gini = 0.2329\nsamples = 32\nvalue = [ 11.39926527   1.77201469]", shape="box"] ;
36 -> 42 ;
43 [label="gini = 0.4487\nsamples = 6\nvalue = [ 1.82388244  3.54402939]", shape="box"] ;
35 -> 43 ;
44 [label="X[0] <= 0.0389\ngini = 0.202738382949\nsamples = 261", shape="box"] ;
32 -> 44 ;
45 [label="gini = 0.4177\nsamples = 49\nvalue = [ 15.73098607  37.21230859]", shape="box"] ;
44 -> 45 ;
46 [label="X[13] <= 0.5000\ngini = 0.160749143085\nsamples = 212", shape="box"] ;
44 -> 46 ;
47 [label="X[7] <= 0.7818\ngini = 0.154843018461\nsamples = 208", shape="box"] ;
46 -> 47 ;
48 [label="X[7] <= 0.7506\ngini = 0.165647644482\nsamples = 165", shape="box"] ;
47 -> 48 ;
49 [label="X[3] <= 0.1428\ngini = 0.153560190579\nsamples = 140", shape="box"] ;
48 -> 49 ;
50 [label="X[10] <= 0.5000\ngini = 0.138712136474\nsamples = 106", shape="box"] ;
49 -> 50 ;
51 [label="gini = 0.1438\nsamples = 78\nvalue = [  10.48732405  124.04102863]", shape="box"] ;
50 -> 51 ;
52 [label="gini = 0.1267\nsamples = 28\nvalue = [  3.87575019  53.16044084]", shape="box"] ;
50 -> 52 ;
53 [label="gini = 0.2020\nsamples = 34\nvalue = [  6.38358855  49.61641145]", shape="box"] ;
49 -> 53 ;
54 [label="gini = 0.2447\nsamples = 25\nvalue = [  5.01567672  30.12424981]", shape="box"] ;
48 -> 54 ;
55 [label="gini = 0.1159\nsamples = 43\nvalue = [  5.01567672  76.19663187]", shape="box"] ;
47 -> 55 ;
56 [label="gini = 0.4986\nsamples = 4\nvalue = [ 1.59589714  1.77201469]", shape="box"] ;
46 -> 56 ;
57 [label="X[11] <= 0.5000\ngini = 0.145395452255\nsamples = 12278", shape="box"] ;
31 -> 57 ;
58 [label="X[5] <= 0.1420\ngini = 0.137967959049\nsamples = 12134", shape="box"] ;
57 -> 58 ;
59 [label="X[4] <= 0.1736\ngini = 0.30314129614\nsamples = 992", shape="box"] ;
58 -> 59 ;
60 [label="gini = 0.3831\nsamples = 79\nvalue = [ 20.97464809  60.24849962]", shape="box"] ;
59 -> 60 ;
61 [label="X[8] <= 0.5000\ngini = 0.106070625004\nsamples = 913", shape="box"] ;
59 -> 61 ;
62 [label="X[1] <= 0.6860\ngini = 0.0943116457879\nsamples = 743", shape="box"] ;
61 -> 62 ;
63 [label="X[13] <= 0.5000\ngini = 0.252311404331\nsamples = 188", shape="box"] ;
62 -> 63 ;
64 [label="X[14] <= 0.5000\ngini = 0.256343533382\nsamples = 185", shape="box"] ;
63 -> 64 ;
65 [label="X[0] <= 0.0617\ngini = 0.262321270389\nsamples = 177", shape="box"] ;
64 -> 65 ;
66 [label="X[5] <= 0.1173\ngini = 0.053462445993\nsamples = 162", shape="box"] ;
65 -> 66 ;
67 [label="gini = 0.0000\nsamples = 68\nvalue = [ 26.67428073   0.        ]", shape="box"] ;
66 -> 67 ;
68 [label="gini = 0.0894\nsamples = 94\nvalue = [ 36.02167825   1.77201469]", shape="box"] ;
66 -> 68 ;
69 [label="gini = 0.4282\nsamples = 15\nvalue = [  4.78769141  10.63208817]", shape="box"] ;
65 -> 69 ;
70 [label="gini = 0.0000\nsamples = 8\nvalue = [ 2.27985305  0.        ]", shape="box"] ;
64 -> 70 ;
71 [label="gini = 0.0000\nsamples = 3\nvalue = [ 1.59589714  0.        ]", shape="box"] ;
63 -> 71 ;
72 [label="X[10] <= 0.5000\ngini = 0.0173956473025\nsamples = 555", shape="box"] ;
62 -> 72 ;
73 [label="X[3] <= 0.9824\ngini = 0.0223144392992\nsamples = 437", shape="box"] ;
72 -> 73 ;
74 [label="gini = -0.0000\nsamples = 419\nvalue = [ 150.47030153    0.        ]", shape="box"] ;
73 -> 74 ;
75 [label="gini = 0.3943\nsamples = 18\nvalue = [ 4.78769141  1.77201469]", shape="box"] ;
73 -> 75 ;
76 [label="gini = -0.0000\nsamples = 118\nvalue = [ 44.91310515   0.        ]", shape="box"] ;
72 -> 76 ;
77 [label="X[3] <= 0.1437\ngini = 0.158701067073\nsamples = 170", shape="box"] ;
61 -> 77 ;
78 [label="gini = 0.4999\nsamples = 20\nvalue = [ 5.47164733  5.31604408]", shape="box"] ;
77 -> 78 ;
79 [label="gini = -0.0000\nsamples = 150\nvalue = [ 50.38475248   0.        ]", shape="box"] ;
77 -> 79 ;
80 [label="X[3] <= 0.4658\ngini = 0.118694662893\nsamples = 11142", shape="box"] ;
58 -> 80 ;
81 [label="X[3] <= 0.1621\ngini = 0.320027858969\nsamples = 2344", shape="box"] ;
80 -> 81 ;
82 [label="X[0] <= 0.0550\ngini = 0.142917452398\nsamples = 1653", shape="box"] ;
81 -> 82 ;
83 [label="X[10] <= 0.5000\ngini = 0.0918599929017\nsamples = 1359", shape="box"] ;
82 -> 83 ;
84 [label="X[12] <= 0.5000\ngini = 0.0762094321398\nsamples = 1069", shape="box"] ;
83 -> 84 ;
85 [label="X[3] <= 0.1454\ngini = 0.0580503266461\nsamples = 950", shape="box"] ;
84 -> 85 ;
86 [label="X[14] <= 0.5000\ngini = 0.138089723245\nsamples = 297", shape="box"] ;
85 -> 86 ;
87 [label="X[8] <= 0.5000\ngini = 0.149709125946\nsamples = 268", shape="box"] ;
86 -> 87 ;
88 [label="X[0] <= 0.0387\ngini = 0.0925614205993\nsamples = 190", shape="box"] ;
87 -> 88 ;
89 [label="gini = 0.0000\nsamples = 154\nvalue = [ 56.76834103   0.        ]", shape="box"] ;
88 -> 89 ;
90 [label="gini = 0.3436\nsamples = 36\nvalue = [ 12.53919179   3.54402939]", shape="box"] ;
88 -> 90 ;
91 [label="gini = 0.2525\nsamples = 78\nvalue = [ 30.55003092   5.31604408]", shape="box"] ;
87 -> 91 ;
92 [label="gini = 0.0000\nsamples = 29\nvalue = [ 10.03135344   0.        ]", shape="box"] ;
86 -> 92 ;
93 [label="X[0] <= 0.0525\ngini = 0.014867001027\nsamples = 653", shape="box"] ;
85 -> 93 ;
94 [label="gini = 0.0000\nsamples = 630\nvalue = [ 225.24948169    0.        ]", shape="box"] ;
93 -> 94 ;
95 [label="gini = 0.2635\nsamples = 23\nvalue = [ 9.57538282  1.77201469]", shape="box"] ;
93 -> 95 ;
96 [label="X[14] <= 0.5000\ngini = 0.202199099727\nsamples = 119", shape="box"] ;
84 -> 96 ;
97 [label="X[8] <= 0.5000\ngini = 0.205706142097\nsamples = 116", shape="box"] ;
96 -> 97 ;
98 [label="gini = 0.2836\nsamples = 74\nvalue = [ 25.7623395    5.31604408]", shape="box"] ;
97 -> 98 ;
99 [label="gini = -0.0000\nsamples = 42\nvalue = [ 14.59105954   0.        ]", shape="box"] ;
97 -> 99 ;
100 [label="gini = -0.0000\nsamples = 3\nvalue = [ 0.91194122  0.        ]", shape="box"] ;
96 -> 100 ;
101 [label="X[5] <= 0.2407\ngini = 0.145536284009\nsamples = 290", shape="box"] ;
83 -> 101 ;
102 [label="X[5] <= 0.2284\ngini = 0.267044237013\nsamples = 124", shape="box"] ;
101 -> 102 ;
103 [label="X[5] <= 0.1667\ngini = 0.148432592701\nsamples = 110", shape="box"] ;
102 -> 103 ;
104 [label="gini = 0.3544\nsamples = 35\nvalue = [ 11.85523588   3.54402939]", shape="box"] ;
103 -> 104 ;
105 [label="gini = -0.0000\nsamples = 75\nvalue = [ 28.49816317   0.        ]", shape="box"] ;
103 -> 105 ;
106 [label="gini = 0.4941\nsamples = 14\nvalue = [ 6.61157386  5.31604408]", shape="box"] ;
102 -> 106 ;
107 [label="gini = 0.0000\nsamples = 166\nvalue = [ 56.31237042   0.        ]", shape="box"] ;
101 -> 107 ;
108 [label="X[12] <= 0.5000\ngini = 0.315324031078\nsamples = 294", shape="box"] ;
82 -> 108 ;
109 [label="X[10] <= 0.5000\ngini = 0.253387455756\nsamples = 261", shape="box"] ;
108 -> 109 ;
110 [label="X[14] <= 0.5000\ngini = 0.257739633125\nsamples = 225", shape="box"] ;
109 -> 110 ;
111 [label="X[13] <= 0.5000\ngini = 0.276532075988\nsamples = 202", shape="box"] ;
110 -> 111 ;
112 [label="X[3] <= 0.1454\ngini = 0.252879988492\nsamples = 200", shape="box"] ;
111 -> 112 ;
113 [label="gini = 0.4771\nsamples = 54\nvalue = [ 19.15076565  12.40410286]", shape="box"] ;
112 -> 113 ;
114 [label="gini = 0.0000\nsamples = 146\nvalue = [ 51.98064962   0.        ]", shape="box"] ;
112 -> 114 ;
115 [label="gini = 0.2020\nsamples = 2\nvalue = [ 0.22798531  1.77201469]", shape="box"] ;
111 -> 115 ;
116 [label="gini = 0.0000\nsamples = 23\nvalue = [ 7.75150038  0.        ]", shape="box"] ;
110 -> 116 ;
117 [label="gini = 0.2231\nsamples = 36\nvalue = [ 12.08322118   1.77201469]", shape="box"] ;
109 -> 117 ;
118 [label="gini = 0.4965\nsamples = 33\nvalue = [ 10.48732405   8.86007347]", shape="box"] ;
108 -> 118 ;
119 [label="X[0] <= 0.0217\ngini = 0.479315092017\nsamples = 691", shape="box"] ;
81 -> 119 ;
120 [label="X[13] <= 0.5000\ngini = 0.0833961795905\nsamples = 205", shape="box"] ;
119 -> 120 ;
121 [label="X[0] <= 0.0190\ngini = 0.0441964598394\nsamples = 202", shape="box"] ;
120 -> 121 ;
122 [label="gini = 0.0000\nsamples = 166\nvalue = [ 64.29185611   0.        ]", shape="box"] ;
121 -> 122 ;
123 [label="gini = 0.2200\nsamples = 36\nvalue = [ 12.31120649   1.77201469]", shape="box"] ;
121 -> 123 ;
124 [label="gini = 0.4764\nsamples = 3\nvalue = [ 1.13992653  1.77201469]", shape="box"] ;
120 -> 124 ;
125 [label="X[3] <= 0.1742\ngini = 0.499797255191\nsamples = 486", shape="box"] ;
119 -> 125 ;
126 [label="gini = 0.3477\nsamples = 91\nvalue = [ 20.97464809  72.65260248]", shape="box"] ;
125 -> 126 ;
127 [label="X[10] <= 0.5000\ngini = 0.465557070506\nsamples = 395", shape="box"] ;
125 -> 127 ;
128 [label="X[5] <= 0.1667\ngini = 0.489302056503\nsamples = 279", shape="box"] ;
127 -> 128 ;
129 [label="gini = 0.3334\nsamples = 18\nvalue = [  5.69963263  21.26417634]", shape="box"] ;
128 -> 129 ;
130 [label="X[0] <= 0.0249\ngini = 0.457702690113\nsamples = 261", shape="box"] ;
128 -> 130 ;
131 [label="gini = 0.4091\nsamples = 22\nvalue = [  5.69963263  14.17611756]", shape="box"] ;
130 -> 131 ;
132 [label="X[8] <= 0.5000\ngini = 0.413984943665\nsamples = 239", shape="box"] ;
130 -> 132 ;
133 [label="X[3] <= 0.1802\ngini = 0.379604883913\nsamples = 181", shape="box"] ;
132 -> 133 ;
134 [label="X[3] <= 0.1754\ngini = 0.419574108695\nsamples = 134", shape="box"] ;
133 -> 134 ;
135 [label="gini = 0.3015\nsamples = 87\nvalue = [ 31.23398683   7.08805878]", shape="box"] ;
134 -> 135 ;
136 [label="gini = 0.4973\nsamples = 47\nvalue = [ 14.36307424  12.40410286]", shape="box"] ;
134 -> 136 ;
137 [label="gini = 0.1739\nsamples = 47\nvalue = [ 16.64292729   1.77201469]", shape="box"] ;
133 -> 137 ;
138 [label="gini = 0.4771\nsamples = 58\nvalue = [ 19.15076565  12.40410286]", shape="box"] ;
132 -> 138 ;
139 [label="X[3] <= 0.1817\ngini = 0.331495330822\nsamples = 116", shape="box"] ;
127 -> 139 ;
140 [label="X[0] <= 0.0234\ngini = 0.341117663853\nsamples = 108", shape="box"] ;
139 -> 140 ;
141 [label="gini = 0.2020\nsamples = 6\nvalue = [ 0.91194122  7.08805878]", shape="box"] ;
140 -> 141 ;
142 [label="X[0] <= 0.0322\ngini = 0.193923245045\nsamples = 102", shape="box"] ;
140 -> 142 ;
143 [label="gini = 0.4244\nsamples = 30\nvalue = [ 12.08322118   5.31604408]", shape="box"] ;
142 -> 143 ;
144 [label="gini = -0.0000\nsamples = 72\nvalue = [ 31.46197214   0.        ]", shape="box"] ;
142 -> 144 ;
145 [label="gini = 0.0000\nsamples = 8\nvalue = [ 2.27985305  0.        ]", shape="box"] ;
139 -> 145 ;
146 [label="X[12] <= 0.5000\ngini = 0.0385752104523\nsamples = 8798", shape="box"] ;
80 -> 146 ;
147 [label="X[0] <= 0.0684\ngini = 0.0367512080807\nsamples = 7174", shape="box"] ;
146 -> 147 ;
148 [label="X[7] <= 0.4369\ngini = 0.0198210577153\nsamples = 6748", shape="box"] ;
147 -> 148 ;
149 [label="X[3] <= 0.8100\ngini = 0.0926164240256\nsamples = 948", shape="box"] ;
148 -> 149 ;
150 [label="X[8] <= 0.5000\ngini = 0.0202507524427\nsamples = 935", shape="box"] ;
149 -> 150 ;
151 [label="X[10] <= 0.5000\ngini = 0.0353144907226\nsamples = 540", shape="box"] ;
150 -> 151 ;
152 [label="X[0] <= 0.0559\ngini = 0.0423895975399\nsamples = 453", shape="box"] ;
151 -> 152 ;
153 [label="X[0] <= 0.0304\ngini = 0.023673563146\nsamples = 413", shape="box"] ;
152 -> 153 ;
154 [label="gini = 0.0000\nsamples = 271\nvalue = [ 95.29785764   0.        ]", shape="box"] ;
153 -> 154 ;
155 [label="X[0] <= 0.0307\ngini = 0.0650919422202\nsamples = 142", shape="box"] ;
153 -> 155 ;
156 [label="gini = 0.4764\nsamples = 5\nvalue = [ 1.13992653  1.77201469]", shape="box"] ;
155 -> 156 ;
157 [label="gini = -0.0000\nsamples = 137\nvalue = [ 49.70079657   0.        ]", shape="box"] ;
155 -> 157 ;
158 [label="gini = 0.2005\nsamples = 40\nvalue = [ 13.90710363   1.77201469]", shape="box"] ;
152 -> 158 ;
159 [label="gini = -0.0000\nsamples = 87\nvalue = [ 33.51383989   0.        ]", shape="box"] ;
151 -> 159 ;
160 [label="gini = -0.0000\nsamples = 395\nvalue = [ 149.330375    0.      ]", shape="box"] ;
150 -> 160 ;
161 [label="gini = 0.3132\nsamples = 13\nvalue = [  3.41977958  14.17611756]", shape="box"] ;
149 -> 161 ;
162 [label="X[4] <= 0.6088\ngini = 0.00668293853118\nsamples = 5800", shape="box"] ;
148 -> 162 ;
163 [label="X[5] <= 0.3025\ngini = 0.00209768287084\nsamples = 4635", shape="box"] ;
162 -> 163 ;
164 [label="gini = 0.0000\nsamples = 2483\nvalue = [ 905.32964755    0.        ]", shape="box"] ;
163 -> 164 ;
165 [label="X[4] <= 0.4895\ngini = 0.00451946717723\nsamples = 2152", shape="box"] ;
163 -> 165 ;
166 [label="X[7] <= 0.7757\ngini = 0.00789255715891\nsamples = 1233", shape="box"] ;
165 -> 166 ;
167 [label="gini = 0.0000\nsamples = 717\nvalue = [ 259.44727749    0.        ]", shape="box"] ;
166 -> 167 ;
168 [label="X[8] <= 0.5000\ngini = 0.0186924420586\nsamples = 516", shape="box"] ;
166 -> 168 ;
169 [label="X[3] <= 0.9806\ngini = 0.0230420184658\nsamples = 423", shape="box"] ;
168 -> 169 ;
170 [label="X[5] <= 0.3148\ngini = 0.039685386307\nsamples = 243", shape="box"] ;
169 -> 170 ;
171 [label="gini = 0.2473\nsamples = 27\nvalue = [ 10.48732405   1.77201469]", shape="box"] ;
170 -> 171 ;
172 [label="gini = 0.0000\nsamples = 216\nvalue = [ 75.23515077   0.        ]", shape="box"] ;
170 -> 172 ;
173 [label="gini = 0.0000\nsamples = 180\nvalue = [ 64.51984141   0.        ]", shape="box"] ;
169 -> 173 ;
174 [label="gini = -0.0000\nsamples = 93\nvalue = [ 35.79369294   0.        ]", shape="box"] ;
168 -> 174 ;
175 [label="gini = -0.0000\nsamples = 919\nvalue = [ 335.13839887    0.        ]", shape="box"] ;
165 -> 175 ;
176 [label="X[3] <= 0.9815\ngini = 0.024623395508\nsamples = 1165", shape="box"] ;
162 -> 176 ;
177 [label="X[13] <= 0.5000\ngini = 0.0561644253683\nsamples = 323", shape="box"] ;
176 -> 177 ;
178 [label="X[3] <= 0.9813\ngini = 0.0587073940774\nsamples = 306", shape="box"] ;
177 -> 178 ;
179 [label="gini = 0.0000\nsamples = 76\nvalue = [ 28.27017786   0.        ]", shape="box"] ;
178 -> 179 ;
180 [label="X[0] <= 0.0625\ngini = 0.0766261154249\nsamples = 230", shape="box"] ;
178 -> 180 ;
181 [label="X[14] <= 0.5000\ngini = 0.0408315251369\nsamples = 224", shape="box"] ;
180 -> 181 ;
182 [label="X[8] <= 0.5000\ngini = 0.0427390597402\nsamples = 214", shape="box"] ;
181 -> 182 ;
183 [label="gini = 0.1023\nsamples = 76\nvalue = [ 31.00600153   1.77201469]", shape="box"] ;
182 -> 183 ;
184 [label="gini = 0.0000\nsamples = 138\nvalue = [ 48.33288473   0.        ]", shape="box"] ;
182 -> 184 ;
185 [label="gini = 0.0000\nsamples = 10\nvalue = [ 3.87575019  0.        ]", shape="box"] ;
181 -> 185 ;
186 [label="gini = 0.4973\nsamples = 6\nvalue = [ 2.05186775  1.77201469]", shape="box"] ;
180 -> 186 ;
187 [label="gini = 0.0000\nsamples = 17\nvalue = [ 5.47164733  0.        ]", shape="box"] ;
177 -> 187 ;
188 [label="X[10] <= 0.5000\ngini = 0.0115956285322\nsamples = 842", shape="box"] ;
176 -> 188 ;
189 [label="X[13] <= 0.5000\ngini = 0.0139592225984\nsamples = 686", shape="box"] ;
188 -> 189 ;
190 [label="X[5] <= 0.2778\ngini = 0.0147821810613\nsamples = 646", shape="box"] ;
189 -> 190 ;
191 [label="X[8] <= 0.5000\ngini = 0.0389889246297\nsamples = 241", shape="box"] ;
190 -> 191 ;
192 [label="gini = 0.0000\nsamples = 50\nvalue = [ 17.55486851   0.        ]", shape="box"] ;
191 -> 192 ;
193 [label="X[5] <= 0.2654\ngini = 0.0483150176673\nsamples = 191", shape="box"] ;
191 -> 193 ;
194 [label="gini = 0.0000\nsamples = 182\nvalue = [ 67.02767977   0.        ]", shape="box"] ;
193 -> 194 ;
195 [label="gini = 0.4771\nsamples = 9\nvalue = [ 2.73582366  1.77201469]", shape="box"] ;
193 -> 195 ;
196 [label="gini = -0.0000\nsamples = 405\nvalue = [ 148.87440439    0.        ]", shape="box"] ;
190 -> 196 ;
197 [label="gini = 0.0000\nsamples = 40\nvalue = [ 14.13508893   0.        ]", shape="box"] ;
189 -> 197 ;
198 [label="gini = -0.0000\nsamples = 156\nvalue = [ 51.75266431   0.        ]", shape="box"] ;
188 -> 198 ;
199 [label="X[14] <= 0.5000\ngini = 0.247575447201\nsamples = 426", shape="box"] ;
147 -> 199 ;
200 [label="X[8] <= 0.5000\ngini = 0.26201610025\nsamples = 391", shape="box"] ;
199 -> 200 ;
201 [label="X[13] <= 0.5000\ngini = 0.209597957414\nsamples = 265", shape="box"] ;
200 -> 201 ;
202 [label="X[3] <= 0.9818\ngini = 0.217402152314\nsamples = 253", shape="box"] ;
201 -> 202 ;
203 [label="X[10] <= 0.5000\ngini = 0.0820778765812\nsamples = 228", shape="box"] ;
202 -> 203 ;
204 [label="X[4] <= 0.3536\ngini = 0.100952800218\nsamples = 182", shape="box"] ;
203 -> 204 ;
205 [label="gini = 0.3269\nsamples = 43\nvalue = [ 13.67911832   3.54402939]", shape="box"] ;
204 -> 205 ;
206 [label="gini = -0.0000\nsamples = 139\nvalue = [ 49.24482596   0.        ]", shape="box"] ;
204 -> 206 ;
207 [label="gini = 0.0000\nsamples = 46\nvalue = [ 16.18695668   0.        ]", shape="box"] ;
203 -> 207 ;
208 [label="gini = 0.4997\nsamples = 25\nvalue = [ 8.4354563   8.86007347]", shape="box"] ;
202 -> 208 ;
209 [label="gini = 0.0000\nsamples = 12\nvalue = [ 4.3317208  0.       ]", shape="box"] ;
201 -> 209 ;
210 [label="X[10] <= 0.5000\ngini = 0.34610921434\nsamples = 126", shape="box"] ;
200 -> 210 ;
211 [label="X[7] <= 0.4369\ngini = 0.370698172669\nsamples = 109", shape="box"] ;
210 -> 211 ;
212 [label="gini = 0.4177\nsamples = 18\nvalue = [  5.24366202  12.40410286]", shape="box"] ;
211 -> 212 ;
213 [label="gini = -0.0000\nsamples = 91\nvalue = [ 32.82988397   0.        ]", shape="box"] ;
211 -> 213 ;
214 [label="gini = 0.0000\nsamples = 17\nvalue = [ 5.24366202  0.        ]", shape="box"] ;
210 -> 214 ;
215 [label="gini = 0.0000\nsamples = 35\nvalue = [ 11.39926527   0.        ]", shape="box"] ;
199 -> 215 ;
216 [label="X[3] <= 0.7853\ngini = 0.0466836978531\nsamples = 1624", shape="box"] ;
146 -> 216 ;
217 [label="gini = 0.1931\nsamples = 80\nvalue = [ 29.18211908   3.54402939]", shape="box"] ;
216 -> 217 ;
218 [label="X[5] <= 0.1790\ngini = 0.037245815879\nsamples = 1544", shape="box"] ;
216 -> 218 ;
219 [label="X[7] <= 0.7905\ngini = 0.134411607283\nsamples = 254", shape="box"] ;
218 -> 219 ;
220 [label="X[0] <= 0.0302\ngini = 0.0753287038405\nsamples = 242", shape="box"] ;
219 -> 220 ;
221 [label="gini = 0.0000\nsamples = 136\nvalue = [ 46.9649729   0.       ]", shape="box"] ;
220 -> 221 ;
222 [label="X[10] <= 0.5000\ngini = 0.149852306751\nsamples = 106", shape="box"] ;
220 -> 222 ;
223 [label="gini = 0.1739\nsamples = 88\nvalue = [ 33.28585458   3.54402939]", shape="box"] ;
222 -> 223 ;
224 [label="gini = -0.0000\nsamples = 18\nvalue = [ 6.61157386  0.        ]", shape="box"] ;
222 -> 224 ;
225 [label="gini = 0.4990\nsamples = 12\nvalue = [ 3.87575019  3.54402939]", shape="box"] ;
219 -> 225 ;
226 [label="X[5] <= 0.2284\ngini = 0.0152162428644\nsamples = 1290", shape="box"] ;
218 -> 226 ;
227 [label="X[8] <= 0.5000\ngini = 0.0540193470656\nsamples = 356", shape="box"] ;
226 -> 227 ;
228 [label="X[3] <= 0.9820\ngini = 0.0747859990094\nsamples = 242", shape="box"] ;
227 -> 228 ;
229 [label="gini = 0.0000\nsamples = 201\nvalue = [ 74.09522424   0.        ]", shape="box"] ;
228 -> 229 ;
230 [label="gini = 0.3301\nsamples = 41\nvalue = [ 13.45113302   3.54402939]", shape="box"] ;
228 -> 230 ;
231 [label="gini = 0.0000\nsamples = 114\nvalue = [ 36.47764886   0.        ]", shape="box"] ;
227 -> 231 ;
232 [label="gini = -0.0000\nsamples = 934\nvalue = [ 334.68242825    0.        ]", shape="box"] ;
226 -> 232 ;
233 [label="X[10] <= 0.5000\ngini = 0.457214553883\nsamples = 144", shape="box"] ;
57 -> 233 ;
234 [label="X[3] <= 0.1437\ngini = 0.456743393992\nsamples = 116", shape="box"] ;
233 -> 234 ;
235 [label="gini = 0.3409\nsamples = 11\nvalue = [  2.96380897  10.63208817]", shape="box"] ;
234 -> 235 ;
236 [label="X[5] <= 0.3457\ngini = 0.351916059864\nsamples = 105", shape="box"] ;
234 -> 236 ;
237 [label="X[3] <= 0.4819\ngini = 0.274770751463\nsamples = 104", shape="box"] ;
236 -> 237 ;
238 [label="gini = 0.4354\nsamples = 48\nvalue = [ 15.04703015   7.08805878]", shape="box"] ;
237 -> 238 ;
239 [label="gini = -0.0000\nsamples = 56\nvalue = [ 20.97464809   0.        ]", shape="box"] ;
237 -> 239 ;
240 [label="gini = -0.0000\nsamples = 1\nvalue = [ 0.          3.54402939]", shape="box"] ;
236 -> 240 ;
241 [label="gini = 0.4591\nsamples = 28\nvalue = [ 9.57538282  5.31604408]", shape="box"] ;
233 -> 241 ;
242 [label="gini = 0.2273\nsamples = 91\nvalue = [  17.32688321  115.18095515]", shape="box"] ;
30 -> 242 ;
243 [label="X[3] <= 0.1710\ngini = 0.342858776734\nsamples = 2827", shape="box"] ;
29 -> 243 ;
244 [label="X[3] <= 0.0922\ngini = 0.212800973257\nsamples = 595", shape="box"] ;
243 -> 244 ;
245 [label="X[11] <= 0.5000\ngini = 0.0693674287039\nsamples = 105", shape="box"] ;
244 -> 245 ;
246 [label="gini = 0.0776\nsamples = 94\nvalue = [   8.4354563  200.2376605]", shape="box"] ;
245 -> 246 ;
247 [label="gini = 0.0141\nsamples = 11\nvalue = [  0.22798531  31.8962645 ]", shape="box"] ;
245 -> 247 ;
248 [label="X[3] <= 0.1621\ngini = 0.256994106547\nsamples = 490", shape="box"] ;
244 -> 248 ;
249 [label="X[0] <= 0.1212\ngini = 0.281042818456\nsamples = 436", shape="box"] ;
248 -> 249 ;
250 [label="X[5] <= 0.4753\ngini = 0.39272364903\nsamples = 250", shape="box"] ;
249 -> 250 ;
251 [label="X[11] <= 0.5000\ngini = 0.382695963937\nsamples = 239", shape="box"] ;
250 -> 251 ;
252 [label="X[8] <= 0.5000\ngini = 0.38367334529\nsamples = 234", shape="box"] ;
251 -> 252 ;
253 [label="X[1] <= 0.4690\ngini = 0.431956501246\nsamples = 178", shape="box"] ;
252 -> 253 ;
254 [label="gini = 0.0878\nsamples = 14\nvalue = [  1.36791183  28.35223511]", shape="box"] ;
253 -> 254 ;
255 [label="X[5] <= 0.2654\ngini = 0.470871407547\nsamples = 164", shape="box"] ;
253 -> 255 ;
256 [label="X[3] <= 0.1478\ngini = 0.43394547796\nsamples = 108", shape="box"] ;
255 -> 256 ;
257 [label="gini = 0.3297\nsamples = 49\nvalue = [ 10.71530935  40.75633798]", shape="box"] ;
256 -> 257 ;
258 [label="gini = 0.4971\nsamples = 59\nvalue = [ 18.23882443  21.26417634]", shape="box"] ;
256 -> 258 ;
259 [label="gini = 0.4969\nsamples = 56\nvalue = [ 18.69479504  15.94813225]", shape="box"] ;
255 -> 259 ;
260 [label="gini = 0.2511\nsamples = 56\nvalue = [ 11.62725057  67.3365584 ]", shape="box"] ;
252 -> 260 ;
261 [label="gini = 0.3255\nsamples = 5\nvalue = [ 0.91194122  3.54402939]", shape="box"] ;
251 -> 261 ;
262 [label="gini = 0.4213\nsamples = 11\nvalue = [ 4.1037355   1.77201469]", shape="box"] ;
250 -> 262 ;
263 [label="X[1] <= 0.4690\ngini = 0.171689397713\nsamples = 186", shape="box"] ;
249 -> 263 ;
264 [label="gini = 0.3255\nsamples = 15\nvalue = [  3.19179427  12.40410286]", shape="box"] ;
263 -> 264 ;
265 [label="X[12] <= 0.5000\ngini = 0.162713558525\nsamples = 171", shape="box"] ;
263 -> 265 ;
266 [label="X[0] <= 0.1312\ngini = 0.157987707696\nsamples = 150", shape="box"] ;
265 -> 266 ;
267 [label="gini = 0.3157\nsamples = 19\nvalue = [  4.3317208   17.72014695]", shape="box"] ;
266 -> 267 ;
268 [label="X[11] <= 0.5000\ngini = 0.141723405956\nsamples = 131", shape="box"] ;
266 -> 268 ;
269 [label="X[14] <= 0.5000\ngini = 0.146491472426\nsamples = 128", shape="box"] ;
268 -> 269 ;
270 [label="X[0] <= 0.2188\ngini = 0.152076596785\nsamples = 117", shape="box"] ;
269 -> 270 ;
271 [label="gini = 0.1270\nsamples = 92\nvalue = [  12.31120649  168.34139599]", shape="box"] ;
270 -> 271 ;
272 [label="gini = 0.2712\nsamples = 25\nvalue = [  5.47164733  28.35223511]", shape="box"] ;
270 -> 272 ;
273 [label="gini = 0.0991\nsamples = 11\nvalue = [  1.36791183  24.80820573]", shape="box"] ;
269 -> 273 ;
274 [label="gini = 0.0000\nsamples = 3\nvalue = [ 0.          8.86007347]", shape="box"] ;
268 -> 274 ;
275 [label="gini = 0.1941\nsamples = 21\nvalue = [  4.3317208   35.44029389]", shape="box"] ;
265 -> 275 ;
276 [label="gini = 0.1007\nsamples = 54\nvalue = [  5.47164733  97.46080821]", shape="box"] ;
248 -> 276 ;
277 [label="X[8] <= 0.5000\ngini = 0.384739969527\nsamples = 2232", shape="box"] ;
243 -> 277 ;
278 [label="X[1] <= 0.8688\ngini = 0.403637867168\nsamples = 1626", shape="box"] ;
277 -> 278 ;
279 [label="X[3] <= 0.1942\ngini = 0.477650364372\nsamples = 645", shape="box"] ;
278 -> 279 ;
280 [label="X[5] <= 0.2037\ngini = 0.428172118923\nsamples = 145", shape="box"] ;
279 -> 280 ;
281 [label="gini = 0.2436\nsamples = 29\nvalue = [  6.15560324  37.21230859]", shape="box"] ;
280 -> 281 ;
282 [label="X[3] <= 0.1871\ngini = 0.474508922078\nsamples = 116", shape="box"] ;
280 -> 282 ;
283 [label="X[13] <= 0.5000\ngini = 0.457789660133\nsamples = 106", shape="box"] ;
282 -> 283 ;
284 [label="X[0] <= 0.1771\ngini = 0.460887620488\nsamples = 104", shape="box"] ;
283 -> 284 ;
285 [label="gini = 0.4931\nsamples = 80\nvalue = [ 29.18211908  23.03619103]", shape="box"] ;
284 -> 285 ;
286 [label="gini = 0.1390\nsamples = 24\nvalue = [  2.73582366  33.6682792 ]", shape="box"] ;
284 -> 286 ;
287 [label="gini = 0.2020\nsamples = 2\nvalue = [ 0.22798531  1.77201469]", shape="box"] ;
283 -> 287 ;
288 [label="gini = -0.0000\nsamples = 10\nvalue = [ 4.78769141  0.        ]", shape="box"] ;
282 -> 288 ;
289 [label="X[0] <= 0.1256\ngini = 0.489418018239\nsamples = 500", shape="box"] ;
279 -> 289 ;
290 [label="X[0] <= 0.0981\ngini = 0.378379611148\nsamples = 312", shape="box"] ;
289 -> 290 ;
291 [label="X[12] <= 0.5000\ngini = 0.0605344745642\nsamples = 166", shape="box"] ;
290 -> 291 ;
292 [label="X[10] <= 0.5000\ngini = 0.0720185451288\nsamples = 136", shape="box"] ;
291 -> 292 ;
293 [label="X[0] <= 0.0875\ngini = 0.0868844817898\nsamples = 112", shape="box"] ;
292 -> 293 ;
294 [label="gini = 0.1631\nsamples = 54\nvalue = [ 18.01083912   1.77201469]", shape="box"] ;
293 -> 294 ;
295 [label="gini = -0.0000\nsamples = 58\nvalue = [ 19.15076565   0.        ]", shape="box"] ;
293 -> 295 ;
296 [label="gini = -0.0000\nsamples = 24\nvalue = [ 8.4354563  0.       ]", shape="box"] ;
292 -> 296 ;
297 [label="gini = -0.0000\nsamples = 30\nvalue = [ 9.34739752  0.        ]", shape="box"] ;
291 -> 297 ;
298 [label="X[3] <= 0.9570\ngini = 0.481932342243\nsamples = 146", shape="box"] ;
290 -> 298 ;
299 [label="gini = 0.4487\nsamples = 8\nvalue = [ 2.73582366  5.31604408]", shape="box"] ;
298 -> 299 ;
300 [label="X[0] <= 0.1221\ngini = 0.470026989808\nsamples = 138", shape="box"] ;
298 -> 300 ;
301 [label="X[13] <= 0.5000\ngini = 0.481800285162\nsamples = 123", shape="box"] ;
300 -> 301 ;
302 [label="X[10] <= 0.5000\ngini = 0.470906818392\nsamples = 118", shape="box"] ;
301 -> 302 ;
303 [label="gini = 0.4506\nsamples = 96\nvalue = [ 33.9698105   17.72014695]", shape="box"] ;
302 -> 303 ;
304 [label="gini = 0.4994\nsamples = 22\nvalue = [ 6.61157386  7.08805878]", shape="box"] ;
302 -> 304 ;
305 [label="gini = 0.3683\nsamples = 5\nvalue = [ 1.13992653  3.54402939]", shape="box"] ;
301 -> 305 ;
306 [label="gini = 0.0000\nsamples = 15\nvalue = [ 5.01567672  0.        ]", shape="box"] ;
300 -> 306 ;
307 [label="X[7] <= 0.5197\ngini = 0.340313460811\nsamples = 188", shape="box"] ;
289 -> 307 ;
308 [label="gini = 0.0000\nsamples = 2\nvalue = [ 0.68395592  0.        ]", shape="box"] ;
307 -> 308 ;
309 [label="X[10] <= 0.5000\ngini = 0.337449377541\nsamples = 186", shape="box"] ;
307 -> 309 ;
310 [label="X[0] <= 0.2428\ngini = 0.305360352515\nsamples = 157", shape="box"] ;
309 -> 310 ;
311 [label="X[11] <= 0.5000\ngini = 0.350245033207\nsamples = 131", shape="box"] ;
310 -> 311 ;
312 [label="X[0] <= 0.1595\ngini = 0.351013690733\nsamples = 128", shape="box"] ;
311 -> 312 ;
313 [label="gini = 0.4271\nsamples = 62\nvalue = [ 16.64292729  37.21230859]", shape="box"] ;
312 -> 313 ;
314 [label="gini = 0.2879\nsamples = 66\nvalue = [ 14.59105954  69.10857309]", shape="box"] ;
312 -> 314 ;
315 [label="gini = 0.3255\nsamples = 3\nvalue = [ 0.91194122  3.54402939]", shape="box"] ;
311 -> 315 ;
316 [label="gini = 0.1179\nsamples = 26\nvalue = [  2.73582366  40.75633798]", shape="box"] ;
310 -> 316 ;
317 [label="gini = 0.4807\nsamples = 29\nvalue = [ 10.71530935  15.94813225]", shape="box"] ;
309 -> 317 ;
318 [label="X[4] <= 0.4958\ngini = 0.351884500835\nsamples = 981", shape="box"] ;
278 -> 318 ;
319 [label="X[14] <= 0.5000\ngini = 0.364958324388\nsamples = 819", shape="box"] ;
318 -> 319 ;
320 [label="X[7] <= 0.7757\ngini = 0.376850774338\nsamples = 760", shape="box"] ;
319 -> 320 ;
321 [label="X[0] <= 0.1140\ngini = 0.372764205231\nsamples = 539", shape="box"] ;
320 -> 321 ;
322 [label="X[0] <= 0.0875\ngini = 0.496856948286\nsamples = 231", shape="box"] ;
321 -> 322 ;
323 [label="gini = 0.2679\nsamples = 55\nvalue = [ 18.69479504   3.54402939]", shape="box"] ;
322 -> 323 ;
324 [label="X[1] <= 0.9389\ngini = 0.499359365482\nsamples = 176", shape="box"] ;
322 -> 324 ;
325 [label="gini = 0.4950\nsamples = 41\nvalue = [ 12.9951624   10.63208817]", shape="box"] ;
324 -> 325 ;
326 [label="X[12] <= 0.5000\ngini = 0.497521379211\nsamples = 135", shape="box"] ;
324 -> 326 ;
327 [label="X[10] <= 0.5000\ngini = 0.496025499946\nsamples = 120", shape="box"] ;
326 -> 327 ;
328 [label="gini = 0.4970\nsamples = 91\nvalue = [ 30.32204561  35.44029389]", shape="box"] ;
327 -> 328 ;
329 [label="gini = 0.4917\nsamples = 29\nvalue = [  8.20747099  10.63208817]", shape="box"] ;
327 -> 329 ;
330 [label="gini = 0.4921\nsamples = 15\nvalue = [ 4.55970611  3.54402939]", shape="box"] ;
326 -> 330 ;
331 [label="X[0] <= 0.1630\ngini = 0.25991784096\nsamples = 308", shape="box"] ;
321 -> 331 ;
332 [label="X[10] <= 0.5000\ngini = 0.347739837136\nsamples = 181", shape="box"] ;
331 -> 332 ;
333 [label="X[5] <= 0.3395\ngini = 0.355159464556\nsamples = 151", shape="box"] ;
332 -> 333 ;
334 [label="gini = 0.2914\nsamples = 93\nvalue = [  22.11457462  102.77685229]", shape="box"] ;
333 -> 334 ;
335 [label="gini = 0.4668\nsamples = 58\nvalue = [ 17.78285382  30.12424981]", shape="box"] ;
333 -> 335 ;
336 [label="gini = 0.3152\nsamples = 30\nvalue = [  8.20747099  33.6682792 ]", shape="box"] ;
332 -> 336 ;
337 [label="X[5] <= 0.4630\ngini = 0.152076596785\nsamples = 127", shape="box"] ;
331 -> 337 ;
338 [label="X[11] <= 0.5000\ngini = 0.166758999704\nsamples = 118", shape="box"] ;
337 -> 338 ;
339 [label="X[13] <= 0.5000\ngini = 0.17103192153\nsamples = 117", shape="box"] ;
338 -> 339 ;
340 [label="X[5] <= 0.2407\ngini = 0.177076690859\nsamples = 114", shape="box"] ;
339 -> 340 ;
341 [label="gini = 0.1285\nsamples = 63\nvalue = [   7.75150038  104.54886698]", shape="box"] ;
340 -> 341 ;
342 [label="gini = 0.2513\nsamples = 51\nvalue = [  9.80336813  56.70447023]", shape="box"] ;
340 -> 342 ;
343 [label="gini = 0.0000\nsamples = 3\nvalue = [ 0.          7.08805878]", shape="box"] ;
339 -> 343 ;
344 [label="gini = -0.0000\nsamples = 1\nvalue = [ 0.          5.31604408]", shape="box"] ;
338 -> 344 ;
345 [label="gini = 0.0194\nsamples = 9\nvalue = [  0.22798531  23.03619103]", shape="box"] ;
337 -> 345 ;
346 [label="X[5] <= 0.2778\ngini = 0.387849974618\nsamples = 221", shape="box"] ;
320 -> 346 ;
347 [label="X[11] <= 0.5000\ngini = 0.357765080235\nsamples = 121", shape="box"] ;
346 -> 347 ;
348 [label="X[10] <= 0.5000\ngini = 0.351916322539\nsamples = 115", shape="box"] ;
347 -> 348 ;
349 [label="gini = 0.3456\nsamples = 91\nvalue = [ 20.74666279  72.65260248]", shape="box"] ;
348 -> 349 ;
350 [label="gini = 0.3757\nsamples = 24\nvalue = [  5.92761794  17.72014695]", shape="box"] ;
348 -> 350 ;
351 [label="gini = 0.4917\nsamples = 6\nvalue = [ 1.36791183  1.77201469]", shape="box"] ;
347 -> 351 ;
352 [label="X[10] <= 0.5000\ngini = 0.424592148191\nsamples = 100", shape="box"] ;
346 -> 352 ;
353 [label="gini = 0.3919\nsamples = 81\nvalue = [ 20.06270687  54.93245553]", shape="box"] ;
352 -> 353 ;
354 [label="gini = 0.4728\nsamples = 19\nvalue = [ 5.69963263  3.54402939]", shape="box"] ;
352 -> 354 ;
355 [label="gini = 0.2337\nsamples = 59\nvalue = [ 11.62725057  74.42461718]", shape="box"] ;
319 -> 355 ;
356 [label="X[12] <= 0.5000\ngini = 0.2903888978\nsamples = 162", shape="box"] ;
318 -> 356 ;
357 [label="X[5] <= 0.5123\ngini = 0.284638302292\nsamples = 105", shape="box"] ;
356 -> 357 ;
358 [label="X[0] <= 0.1028\ngini = 0.275113974269\nsamples = 101", shape="box"] ;
357 -> 358 ;
359 [label="gini = 0.4771\nsamples = 30\nvalue = [ 10.94329466   7.08805878]", shape="box"] ;
358 -> 359 ;
360 [label="gini = 0.1710\nsamples = 71\nvalue = [  10.71530935  102.77685229]", shape="box"] ;
358 -> 360 ;
361 [label="gini = 0.0000\nsamples = 4\nvalue = [ 1.13992653  0.        ]", shape="box"] ;
357 -> 361 ;
362 [label="gini = 0.3008\nsamples = 57\nvalue = [ 13.22314771  58.47648492]", shape="box"] ;
356 -> 362 ;
363 [label="X[0] <= 0.1345\ngini = 0.33594692727\nsamples = 606", shape="box"] ;
277 -> 363 ;
364 [label="X[4] <= 0.2469\ngini = 0.443633078357\nsamples = 384", shape="box"] ;
363 -> 364 ;
365 [label="gini = 0.2367\nsamples = 27\nvalue = [  4.78769141  30.12424981]", shape="box"] ;
364 -> 365 ;
366 [label="X[0] <= 0.1069\ngini = 0.457867499042\nsamples = 357", shape="box"] ;
364 -> 366 ;
367 [label="X[3] <= 0.8599\ngini = 0.491940934945\nsamples = 205", shape="box"] ;
366 -> 367 ;
368 [label="gini = 0.3705\nsamples = 38\nvalue = [  9.80336813  30.12424981]", shape="box"] ;
367 -> 368 ;
369 [label="X[5] <= 0.3765\ngini = 0.499895971995\nsamples = 167", shape="box"] ;
367 -> 369 ;
370 [label="X[3] <= 0.9815\ngini = 0.458372377653\nsamples = 120", shape="box"] ;
369 -> 370 ;
371 [label="gini = 0.4069\nsamples = 86\nvalue = [ 31.23398683  12.40410286]", shape="box"] ;
370 -> 371 ;
372 [label="gini = 0.5000\nsamples = 34\nvalue = [ 10.48732405  10.63208817]", shape="box"] ;
370 -> 372 ;
373 [label="gini = 0.4211\nsamples = 47\nvalue = [ 12.9951624   30.12424981]", shape="box"] ;
369 -> 373 ;
374 [label="X[5] <= 0.3025\ngini = 0.398958288089\nsamples = 152", shape="box"] ;
366 -> 374 ;
375 [label="gini = 0.3311\nsamples = 97\nvalue = [ 23.93845706  90.37274943]", shape="box"] ;
374 -> 375 ;
376 [label="gini = 0.4989\nsamples = 55\nvalue = [ 17.78285382  19.49216164]", shape="box"] ;
374 -> 376 ;
377 [label="X[0] <= 0.1552\ngini = 0.18327270393\nsamples = 222", shape="box"] ;
363 -> 377 ;
378 [label="gini = 0.2876\nsamples = 64\nvalue = [ 13.45113302  63.79252901]", shape="box"] ;
377 -> 378 ;
379 [label="X[1] <= 0.9389\ngini = 0.150582685291\nsamples = 158", shape="box"] ;
377 -> 379 ;
380 [label="gini = 0.2195\nsamples = 71\nvalue = [ 13.22314771  92.14476412]", shape="box"] ;
379 -> 380 ;
381 [label="gini = 0.1048\nsamples = 87\nvalue = [   9.57538282  163.02535191]", shape="box"] ;
379 -> 381 ;
382 [label="X[5] <= 0.5741\ngini = 0.272686378636\nsamples = 269", shape="box"] ;
2 -> 382 ;
383 [label="gini = 0.4201\nsamples = 59\nvalue = [ 15.95897137  37.21230859]", shape="box"] ;
382 -> 383 ;
384 [label="X[0] <= 0.0198\ngini = 0.237972163311\nsamples = 210", shape="box"] ;
382 -> 384 ;
385 [label="gini = 0.2921\nsamples = 29\nvalue = [ 8.20747099  1.77201469]", shape="box"] ;
384 -> 385 ;
386 [label="X[3] <= 0.0185\ngini = 0.201996655623\nsamples = 181", shape="box"] ;
384 -> 386 ;
387 [label="gini = 0.0703\nsamples = 44\nvalue = [  3.41977958  90.37274943]", shape="box"] ;
386 -> 387 ;
388 [label="X[4] <= 0.4498\ngini = 0.258103647056\nsamples = 137", shape="box"] ;
386 -> 388 ;
389 [label="gini = 0.1905\nsamples = 70\nvalue = [ 11.62725057  97.46080821]", shape="box"] ;
388 -> 389 ;
390 [label="gini = 0.3359\nsamples = 67\nvalue = [ 17.32688321  63.79252901]", shape="box"] ;
388 -> 390 ;
391 [label="X[0] <= 0.0294\ngini = 0.120490286391\nsamples = 520", shape="box"] ;
1 -> 391 ;
392 [label="X[3] <= 0.1454\ngini = 0.406234351305\nsamples = 106", shape="box"] ;
391 -> 392 ;
393 [label="gini = 0.3349\nsamples = 85\nvalue = [ 19.15076565  70.88058779]", shape="box"] ;
392 -> 393 ;
394 [label="gini = 0.0000\nsamples = 21\nvalue = [ 8.89142691  0.        ]", shape="box"] ;
392 -> 394 ;
395 [label="X[4] <= 0.3933\ngini = 0.0788631967599\nsamples = 414", shape="box"] ;
391 -> 395 ;
396 [label="X[13] <= 0.5000\ngini = 0.218088199267\nsamples = 105", shape="box"] ;
395 -> 396 ;
397 [label="X[3] <= 0.1754\ngini = 0.220031458034\nsamples = 104", shape="box"] ;
396 -> 397 ;
398 [label="gini = 0.1760\nsamples = 88\nvalue = [  15.50300076  143.53319027]", shape="box"] ;
397 -> 398 ;
399 [label="gini = 0.4985\nsamples = 16\nvalue = [ 5.92761794  5.31604408]", shape="box"] ;
397 -> 399 ;
400 [label="gini = -0.0000\nsamples = 1\nvalue = [ 0.          1.77201469]", shape="box"] ;
396 -> 400 ;
401 [label="X[0] <= 0.0328\ngini = 0.0434481769138\nsamples = 309", shape="box"] ;
395 -> 401 ;
402 [label="gini = 0.1487\nsamples = 19\nvalue = [  2.96380897  33.6682792 ]", shape="box"] ;
401 -> 402 ;
403 [label="X[7] <= 0.1395\ngini = 0.0377452481942\nsamples = 290", shape="box"] ;
401 -> 403 ;
404 [label="gini = 0.0587\nsamples = 50\nvalue = [   3.64776489  116.95296985]", shape="box"] ;
403 -> 404 ;
405 [label="X[10] <= 0.5000\ngini = 0.0334971786589\nsamples = 240", shape="box"] ;
403 -> 405 ;
406 [label="X[9] <= 0.0165\ngini = 0.0290656053356\nsamples = 196", shape="box"] ;
405 -> 406 ;
407 [label="X[7] <= 0.6822\ngini = 0.0281832813059\nsamples = 195", shape="box"] ;
406 -> 407 ;
408 [label="X[9] <= 0.0015\ngini = 0.020709093199\nsamples = 100", shape="box"] ;
407 -> 408 ;
409 [label="gini = 0.2020\nsamples = 2\nvalue = [ 0.22798531  1.77201469]", shape="box"] ;
408 -> 409 ;
410 [label="gini = 0.0191\nsamples = 98\nvalue = [   2.50783836  256.94213072]", shape="box"] ;
408 -> 410 ;
411 [label="gini = 0.0365\nsamples = 95\nvalue = [   4.3317208   228.58989561]", shape="box"] ;
407 -> 411 ;
412 [label="gini = 0.0000\nsamples = 1\nvalue = [ 0.22798531  0.        ]", shape="box"] ;
406 -> 412 ;
413 [label="gini = 0.0536\nsamples = 44\nvalue = [   2.96380897  104.54886698]", shape="box"] ;
405 -> 413 ;
414 [label="X[4] <= 0.7176\ngini = 0.260293476886\nsamples = 288", shape="box"] ;
0 -> 414 ;
415 [label="X[12] <= 0.5000\ngini = 0.223514334893\nsamples = 111", shape="box"] ;
414 -> 415 ;
416 [label="gini = 0.2507\nsamples = 89\nvalue = [  18.92278034  109.86491107]", shape="box"] ;
415 -> 416 ;
417 [label="gini = 0.1313\nsamples = 22\nvalue = [  2.96380897  38.98432328]", shape="box"] ;
415 -> 417 ;
418 [label="X[3] <= 0.0231\ngini = 0.286446161978\nsamples = 177", shape="box"] ;
414 -> 418 ;
419 [label="gini = 0.2095\nsamples = 83\nvalue = [  14.81904485  109.86491107]", shape="box"] ;
418 -> 419 ;
420 [label="gini = 0.3656\nsamples = 94\nvalue = [ 24.16644237  76.19663187]", shape="box"] ;
418 -> 420 ;
}