digraph Tree {
0 [label="X[2] <= 0.5000\ngini = 0.499971733023\nsamples = 17331", shape="box"] ;
1 [label="X[9] <= 0.5105\ngini = 0.495846508366\nsamples = 16769", shape="box"] ;
0 -> 1 ;
2 [label="gini = 0.1756\nsamples = 56\nvalue = [  8.20747099  76.19663187]", shape="box"] ;
1 -> 2 ;
3 [label="X[1] <= 0.8319\ngini = 0.49512365223\nsamples = 16713", shape="box"] ;
1 -> 3 ;
4 [label="X[1] <= 0.4690\ngini = 0.451601488572\nsamples = 5072", shape="box"] ;
3 -> 4 ;
5 [label="X[0] <= 0.0271\ngini = 0.305116895895\nsamples = 1532", shape="box"] ;
4 -> 5 ;
6 [label="X[7] <= 0.5292\ngini = 0.442831096388\nsamples = 439", shape="box"] ;
5 -> 6 ;
7 [label="X[14] <= 0.5000\ngini = 0.475162849599\nsamples = 321", shape="box"] ;
6 -> 7 ;
8 [label="X[10] <= 0.5000\ngini = 0.476919239228\nsamples = 308", shape="box"] ;
7 -> 8 ;
9 [label="X[5] <= 0.6728\ngini = 0.49157784007\nsamples = 224", shape="box"] ;
8 -> 9 ;
10 [label="X[6] <= 0.5000\ngini = 0.495837085407\nsamples = 211", shape="box"] ;
9 -> 10 ;
11 [label="X[5] <= 0.4506\ngini = 0.490490379345\nsamples = 186", shape="box"] ;
10 -> 11 ;
12 [label="X[0] <= 0.0178\ngini = 0.461432221029\nsamples = 141", shape="box"] ;
11 -> 12 ;
13 [label="gini = 0.4993\nsamples = 53\nvalue = [ 16.41494199  17.72014695]", shape="box"] ;
12 -> 13 ;
14 [label="gini = 0.3644\nsamples = 88\nvalue = [ 33.74182519  10.63208817]", shape="box"] ;
12 -> 14 ;
15 [label="gini = 0.4800\nsamples = 45\nvalue = [ 12.9951624   19.49216164]", shape="box"] ;
11 -> 15 ;
16 [label="gini = 0.4797\nsamples = 25\nvalue = [  7.06754447  10.63208817]", shape="box"] ;
10 -> 16 ;
17 [label="gini = 0.0000\nsamples = 13\nvalue = [ 5.69963263  0.        ]", shape="box"] ;
9 -> 17 ;
18 [label="gini = 0.3634\nsamples = 84\nvalue = [ 28.27017786   8.86007347]", shape="box"] ;
8 -> 18 ;
19 [label="gini = 0.4031\nsamples = 13\nvalue = [ 4.55970611  1.77201469]", shape="box"] ;
7 -> 19 ;
20 [label="X[4] <= 0.5397\ngini = 0.200489083445\nsamples = 118", shape="box"] ;
6 -> 20 ;
21 [label="gini = 0.2435\nsamples = 94\nvalue = [ 32.14592805   5.31604408]", shape="box"] ;
20 -> 21 ;
22 [label="gini = -0.0000\nsamples = 24\nvalue = [ 9.57538282  0.        ]", shape="box"] ;
20 -> 22 ;
23 [label="X[14] <= 0.5000\ngini = 0.215993837705\nsamples = 1093", shape="box"] ;
5 -> 23 ;
24 [label="X[7] <= 0.3761\ngini = 0.219167511586\nsamples = 1069", shape="box"] ;
23 -> 24 ;
25 [label="X[0] <= 0.0402\ngini = 0.249868572303\nsamples = 634", shape="box"] ;
24 -> 25 ;
26 [label="X[3] <= 0.0179\ngini = 0.409259288088\nsamples = 182", shape="box"] ;
25 -> 26 ;
27 [label="gini = 0.0000\nsamples = 5\nvalue = [ 1.82388244  0.        ]", shape="box"] ;
26 -> 27 ;
28 [label="X[10] <= 0.5000\ngini = 0.402708834395\nsamples = 177", shape="box"] ;
26 -> 28 ;
29 [label="X[3] <= 0.0182\ngini = 0.380388979927\nsamples = 140", shape="box"] ;
28 -> 29 ;
30 [label="gini = 0.0411\nsamples = 5\nvalue = [  0.22798531  10.63208817]", shape="box"] ;
29 -> 30 ;
31 [label="X[5] <= 0.6605\ngini = 0.398521955422\nsamples = 135", shape="box"] ;
29 -> 31 ;
32 [label="X[0] <= 0.0381\ngini = 0.414987229904\nsamples = 126", shape="box"] ;
31 -> 32 ;
33 [label="X[3] <= 0.0193\ngini = 0.38793642888\nsamples = 110", shape="box"] ;
32 -> 33 ;
34 [label="gini = 0.4683\nsamples = 7\nvalue = [ 2.96380897  1.77201469]", shape="box"] ;
33 -> 34 ;
35 [label="X[5] <= 0.2531\ngini = 0.371679824532\nsamples = 103", shape="box"] ;
33 -> 35 ;
36 [label="gini = 0.2949\nsamples = 48\nvalue = [ 10.48732405  47.84439676]", shape="box"] ;
35 -> 36 ;
37 [label="gini = 0.4443\nsamples = 55\nvalue = [ 15.04703015  30.12424981]", shape="box"] ;
35 -> 37 ;
38 [label="gini = 0.4638\nsamples = 16\nvalue = [ 6.15560324  3.54402939]", shape="box"] ;
32 -> 38 ;
39 [label="gini = 0.2020\nsamples = 9\nvalue = [  1.59589714  12.40410286]", shape="box"] ;
31 -> 39 ;
40 [label="gini = 0.4784\nsamples = 37\nvalue = [ 11.62725057  17.72014695]", shape="box"] ;
28 -> 40 ;
41 [label="X[6] <= 0.5000\ngini = 0.199386946566\nsamples = 452", shape="box"] ;
25 -> 41 ;
42 [label="X[13] <= 0.5000\ngini = 0.206114513186\nsamples = 380", shape="box"] ;
41 -> 42 ;
43 [label="X[5] <= 0.8704\ngini = 0.206734877216\nsamples = 371", shape="box"] ;
42 -> 43 ;
44 [label="X[1] <= 0.2151\ngini = 0.205163349894\nsamples = 368", shape="box"] ;
43 -> 44 ;
45 [label="gini = 0.2524\nsamples = 78\nvalue = [ 16.64292729  95.68879351]", shape="box"] ;
44 -> 45 ;
46 [label="X[11] <= 0.5000\ngini = 0.193436583035\nsamples = 290", shape="box"] ;
44 -> 46 ;
47 [label="X[3] <= 0.0490\ngini = 0.198366291652\nsamples = 265", shape="box"] ;
46 -> 47 ;
48 [label="gini = 0.0720\nsamples = 43\nvalue = [  3.64776489  93.91677882]", shape="box"] ;
47 -> 48 ;
49 [label="X[3] <= 0.1472\ngini = 0.231189128825\nsamples = 222", shape="box"] ;
47 -> 49 ;
50 [label="X[7] <= 0.2007\ngini = 0.229445321981\nsamples = 221", shape="box"] ;
49 -> 50 ;
51 [label="X[8] <= 0.5000\ngini = 0.220458366955\nsamples = 112", shape="box"] ;
50 -> 51 ;
52 [label="gini = 0.1399\nsamples = 58\nvalue = [  7.97948569  97.46080821]", shape="box"] ;
51 -> 52 ;
53 [label="gini = 0.3359\nsamples = 54\nvalue = [ 12.9951624   47.84439676]", shape="box"] ;
51 -> 53 ;
54 [label="X[3] <= 0.1307\ngini = 0.238270716806\nsamples = 109", shape="box"] ;
50 -> 54 ;
55 [label="gini = 0.0000\nsamples = 1\nvalue = [ 0.22798531  0.        ]", shape="box"] ;
54 -> 55 ;
56 [label="X[0] <= 0.0822\ngini = 0.236558756233\nsamples = 108", shape="box"] ;
54 -> 56 ;
57 [label="gini = 0.3054\nsamples = 76\nvalue = [ 18.46680973  79.74066126]", shape="box"] ;
56 -> 57 ;
58 [label="gini = 0.1191\nsamples = 32\nvalue = [  4.3317208   63.79252901]", shape="box"] ;
56 -> 58 ;
59 [label="gini = -0.0000\nsamples = 1\nvalue = [ 0.45597061  0.        ]", shape="box"] ;
49 -> 59 ;
60 [label="gini = 0.1455\nsamples = 25\nvalue = [  3.64776489  42.52835267]", shape="box"] ;
46 -> 60 ;
61 [label="gini = -0.0000\nsamples = 3\nvalue = [ 0.68395592  0.        ]", shape="box"] ;
43 -> 61 ;
62 [label="gini = 0.1789\nsamples = 9\nvalue = [  1.36791183  12.40410286]", shape="box"] ;
42 -> 62 ;
63 [label="gini = 0.1628\nsamples = 72\nvalue = [  10.25933874  104.54886698]", shape="box"] ;
41 -> 63 ;
64 [label="X[4] <= 0.2469\ngini = 0.179558177756\nsamples = 435", shape="box"] ;
24 -> 64 ;
65 [label="gini = 0.2986\nsamples = 64\nvalue = [ 15.04703015  67.3365584 ]", shape="box"] ;
64 -> 65 ;
66 [label="X[4] <= 0.4561\ngini = 0.162609218022\nsamples = 371", shape="box"] ;
64 -> 66 ;
67 [label="X[13] <= 0.5000\ngini = 0.0977778038147\nsamples = 102", shape="box"] ;
66 -> 67 ;
68 [label="gini = 0.0991\nsamples = 99\nvalue = [  10.94329466  198.4656458 ]", shape="box"] ;
67 -> 68 ;
69 [label="gini = 0.0604\nsamples = 3\nvalue = [ 0.22798531  7.08805878]", shape="box"] ;
67 -> 69 ;
70 [label="X[5] <= 0.0247\ngini = 0.192647062739\nsamples = 269", shape="box"] ;
66 -> 70 ;
71 [label="gini = 0.0000\nsamples = 1\nvalue = [ 0.45597061  0.        ]", shape="box"] ;
70 -> 71 ;
72 [label="X[4] <= 0.5397\ngini = 0.191184465265\nsamples = 268", shape="box"] ;
70 -> 72 ;
73 [label="gini = 0.1561\nsamples = 93\nvalue = [  13.22314771  141.76117557]", shape="box"] ;
72 -> 73 ;
74 [label="X[8] <= 0.5000\ngini = 0.209699258677\nsamples = 175", shape="box"] ;
72 -> 74 ;
75 [label="gini = 0.1830\nsamples = 93\nvalue = [  15.27501546  134.67311679]", shape="box"] ;
74 -> 75 ;
76 [label="gini = 0.2387\nsamples = 82\nvalue = [  18.23882443  113.40894046]", shape="box"] ;
74 -> 76 ;
77 [label="gini = 0.0878\nsamples = 24\nvalue = [  2.05186775  42.52835267]", shape="box"] ;
23 -> 77 ;
78 [label="X[3] <= 0.1621\ngini = 0.498027195784\nsamples = 3540", shape="box"] ;
4 -> 78 ;
79 [label="X[12] <= 0.5000\ngini = 0.493433694998\nsamples = 2328", shape="box"] ;
78 -> 79 ;
80 [label="X[14] <= 0.5000\ngini = 0.492494693908\nsamples = 2020", shape="box"] ;
79 -> 80 ;
81 [label="X[13] <= 0.5000\ngini = 0.489020721182\nsamples = 1837", shape="box"] ;
80 -> 81 ;
82 [label="X[8] <= 0.5000\ngini = 0.489919667724\nsamples = 1815", shape="box"] ;
81 -> 82 ;
83 [label="X[11] <= 0.5000\ngini = 0.484767570948\nsamples = 1382", shape="box"] ;
82 -> 83 ;
84 [label="X[5] <= 0.2160\ngini = 0.48246577409\nsamples = 1342", shape="box"] ;
83 -> 84 ;
85 [label="X[5] <= 0.1296\ngini = 0.499895971995\nsamples = 579", shape="box"] ;
84 -> 85 ;
86 [label="X[0] <= 0.1027\ngini = 0.449635382351\nsamples = 136", shape="box"] ;
85 -> 86 ;
87 [label="gini = 0.0000\nsamples = 116\nvalue = [ 41.03735496   0.        ]", shape="box"] ;
86 -> 87 ;
88 [label="gini = 0.2251\nsamples = 20\nvalue = [  3.41977958  23.03619103]", shape="box"] ;
86 -> 88 ;
89 [label="X[0] <= 0.0743\ngini = 0.498672891167\nsamples = 443", shape="box"] ;
85 -> 89 ;
90 [label="X[5] <= 0.1790\ngini = 0.30355186791\nsamples = 356", shape="box"] ;
89 -> 90 ;
91 [label="X[0] <= 0.0320\ngini = 0.362470635794\nsamples = 184", shape="box"] ;
90 -> 91 ;
92 [label="gini = 0.0000\nsamples = 104\nvalue = [ 38.98548721   0.        ]", shape="box"] ;
91 -> 92 ;
93 [label="gini = 0.4877\nsamples = 80\nvalue = [ 29.18211908  21.26417634]", shape="box"] ;
91 -> 93 ;
94 [label="X[3] <= 0.1598\ngini = 0.215796383095\nsamples = 172", shape="box"] ;
90 -> 94 ;
95 [label="X[0] <= 0.0668\ngini = 0.105031835143\nsamples = 163", shape="box"] ;
94 -> 95 ;
96 [label="gini = -0.0000\nsamples = 155\nvalue = [ 57.90826756   0.        ]", shape="box"] ;
95 -> 96 ;
97 [label="gini = 0.4764\nsamples = 8\nvalue = [ 2.27985305  3.54402939]", shape="box"] ;
95 -> 97 ;
98 [label="gini = 0.4596\nsamples = 9\nvalue = [ 2.96380897  5.31604408]", shape="box"] ;
94 -> 98 ;
99 [label="gini = 0.1893\nsamples = 87\nvalue = [  15.73098607  132.9011021 ]", shape="box"] ;
89 -> 99 ;
100 [label="X[5] <= 0.2531\ngini = 0.436441812363\nsamples = 763", shape="box"] ;
84 -> 100 ;
101 [label="X[5] <= 0.2407\ngini = 0.347834411774\nsamples = 191", shape="box"] ;
100 -> 101 ;
102 [label="X[3] <= 0.1598\ngini = 0.38862584336\nsamples = 139", shape="box"] ;
101 -> 102 ;
103 [label="X[0] <= 0.0813\ngini = 0.29847742699\nsamples = 121", shape="box"] ;
102 -> 103 ;
104 [label="X[5] <= 0.2284\ngini = 0.0873717048649\nsamples = 110", shape="box"] ;
103 -> 104 ;
105 [label="gini = 0.1411\nsamples = 64\nvalue = [ 21.4306187    1.77201469]", shape="box"] ;
104 -> 105 ;
106 [label="gini = -0.0000\nsamples = 46\nvalue = [ 15.50300076   0.        ]", shape="box"] ;
104 -> 106 ;
107 [label="gini = 0.4019\nsamples = 11\nvalue = [ 2.73582366  7.08805878]", shape="box"] ;
103 -> 107 ;
108 [label="gini = 0.4812\nsamples = 18\nvalue = [ 4.78769141  7.08805878]", shape="box"] ;
102 -> 108 ;
109 [label="gini = 0.1720\nsamples = 52\nvalue = [ 16.8709126    1.77201469]", shape="box"] ;
101 -> 109 ;
110 [label="X[0] <= 0.0894\ngini = 0.453118410019\nsamples = 572", shape="box"] ;
100 -> 110 ;
111 [label="X[3] <= 0.1437\ngini = 0.160760832071\nsamples = 492", shape="box"] ;
110 -> 111 ;
112 [label="X[3] <= 0.1407\ngini = 0.358812773598\nsamples = 163", shape="box"] ;
111 -> 112 ;
113 [label="X[5] <= 0.3272\ngini = 0.0888666338564\nsamples = 101", shape="box"] ;
112 -> 113 ;
114 [label="gini = 0.1799\nsamples = 48\nvalue = [ 15.95897137   1.77201469]", shape="box"] ;
113 -> 114 ;
115 [label="gini = -0.0000\nsamples = 53\nvalue = [ 20.29069218   0.        ]", shape="box"] ;
113 -> 115 ;
116 [label="gini = 0.4885\nsamples = 62\nvalue = [ 21.65860401  15.94813225]", shape="box"] ;
112 -> 116 ;
117 [label="gini = -0.0000\nsamples = 329\nvalue = [ 125.39191794    0.        ]", shape="box"] ;
111 -> 117 ;
118 [label="gini = 0.2687\nsamples = 80\nvalue = [ 16.8709126   88.60073473]", shape="box"] ;
110 -> 118 ;
119 [label="gini = 0.4906\nsamples = 40\nvalue = [ 13.45113302  17.72014695]", shape="box"] ;
83 -> 119 ;
120 [label="X[10] <= 0.5000\ngini = 0.498908906185\nsamples = 433", shape="box"] ;
82 -> 120 ;
121 [label="X[0] <= 0.0828\ngini = 0.49881224346\nsamples = 339", shape="box"] ;
120 -> 121 ;
122 [label="X[11] <= 0.5000\ngini = 0.326006040345\nsamples = 285", shape="box"] ;
121 -> 122 ;
123 [label="X[0] <= 0.0281\ngini = 0.331620537024\nsamples = 276", shape="box"] ;
122 -> 123 ;
124 [label="gini = 0.0000\nsamples = 118\nvalue = [ 43.77317863   0.        ]", shape="box"] ;
123 -> 124 ;
125 [label="X[3] <= 0.1454\ngini = 0.435673309695\nsamples = 158", shape="box"] ;
123 -> 125 ;
126 [label="gini = 0.4654\nsamples = 53\nvalue = [ 15.50300076  26.58022042]", shape="box"] ;
125 -> 126 ;
127 [label="gini = 0.0000\nsamples = 105\nvalue = [ 40.80936966   0.        ]", shape="box"] ;
125 -> 127 ;
128 [label="gini = 0.0000\nsamples = 9\nvalue = [ 2.96380897  0.        ]", shape="box"] ;
122 -> 128 ;
129 [label="gini = 0.2092\nsamples = 54\nvalue = [ 10.25933874  76.19663187]", shape="box"] ;
121 -> 129 ;
130 [label="gini = 0.4992\nsamples = 94\nvalue = [ 28.72614847  26.58022042]", shape="box"] ;
120 -> 130 ;
131 [label="gini = 0.0000\nsamples = 22\nvalue = [ 7.75150038  0.        ]", shape="box"] ;
81 -> 131 ;
132 [label="X[13] <= 0.5000\ngini = 0.496025499946\nsamples = 183", shape="box"] ;
80 -> 132 ;
133 [label="X[10] <= 0.5000\ngini = 0.495310796898\nsamples = 180", shape="box"] ;
132 -> 133 ;
134 [label="X[0] <= 0.0835\ngini = 0.488306089413\nsamples = 155", shape="box"] ;
133 -> 134 ;
135 [label="gini = 0.0000\nsamples = 120\nvalue = [ 44.45713454   0.        ]", shape="box"] ;
134 -> 135 ;
136 [label="gini = 0.1290\nsamples = 35\nvalue = [  5.01567672  67.3365584 ]", shape="box"] ;
134 -> 136 ;
137 [label="gini = 0.4075\nsamples = 25\nvalue = [ 8.89142691  3.54402939]", shape="box"] ;
133 -> 137 ;
138 [label="gini = 0.0000\nsamples = 3\nvalue = [ 0.91194122  0.        ]", shape="box"] ;
132 -> 138 ;
139 [label="X[0] <= 0.0760\ngini = 0.497935380958\nsamples = 308", shape="box"] ;
79 -> 139 ;
140 [label="X[5] <= 0.2284\ngini = 0.242152021313\nsamples = 242", shape="box"] ;
139 -> 140 ;
141 [label="X[14] <= 0.5000\ngini = 0.337574716314\nsamples = 144", shape="box"] ;
140 -> 141 ;
142 [label="X[3] <= 0.1454\ngini = 0.338424134144\nsamples = 143", shape="box"] ;
141 -> 142 ;
143 [label="gini = 0.4843\nsamples = 56\nvalue = [ 20.29069218  14.17611756]", shape="box"] ;
142 -> 143 ;
144 [label="gini = -0.0000\nsamples = 87\nvalue = [ 31.23398683   0.        ]", shape="box"] ;
142 -> 144 ;
145 [label="gini = 0.0000\nsamples = 1\nvalue = [ 0.22798531  0.        ]", shape="box"] ;
141 -> 145 ;
146 [label="gini = 0.0000\nsamples = 98\nvalue = [ 34.65376641   0.        ]", shape="box"] ;
140 -> 146 ;
147 [label="gini = 0.2712\nsamples = 66\nvalue = [ 14.36307424  74.42461718]", shape="box"] ;
139 -> 147 ;
148 [label="X[5] <= 0.1790\ngini = 0.452065829879\nsamples = 1212", shape="box"] ;
78 -> 148 ;
149 [label="X[0] <= 0.0158\ngini = 0.340096786328\nsamples = 281", shape="box"] ;
148 -> 149 ;
150 [label="gini = 0.0000\nsamples = 37\nvalue = [ 13.67911832   0.        ]", shape="box"] ;
149 -> 150 ;
151 [label="X[11] <= 0.5000\ngini = 0.297668624471\nsamples = 244", shape="box"] ;
149 -> 151 ;
152 [label="X[0] <= 0.0455\ngini = 0.28918574508\nsamples = 201", shape="box"] ;
151 -> 152 ;
153 [label="gini = 0.4356\nsamples = 94\nvalue = [ 25.07838359  53.16044084]", shape="box"] ;
152 -> 153 ;
154 [label="X[10] <= 0.5000\ngini = 0.196635733857\nsamples = 107", shape="box"] ;
152 -> 154 ;
155 [label="gini = 0.1757\nsamples = 78\nvalue = [  12.9951624   120.49699924]", shape="box"] ;
154 -> 155 ;
156 [label="gini = 0.2587\nsamples = 29\nvalue = [  6.38358855  35.44029389]", shape="box"] ;
154 -> 156 ;
157 [label="gini = 0.3382\nsamples = 43\nvalue = [ 10.71530935  38.98432328]", shape="box"] ;
151 -> 157 ;
158 [label="X[8] <= 0.5000\ngini = 0.481736955872\nsamples = 931", shape="box"] ;
148 -> 158 ;
159 [label="X[5] <= 0.3642\ngini = 0.495128014965\nsamples = 675", shape="box"] ;
158 -> 159 ;
160 [label="X[4] <= 0.0941\ngini = 0.494101285722\nsamples = 460", shape="box"] ;
159 -> 160 ;
161 [label="gini = 0.2332\nsamples = 26\nvalue = [  5.24366202  33.6682792 ]", shape="box"] ;
160 -> 161 ;
162 [label="X[1] <= 0.6582\ngini = 0.467561756396\nsamples = 434", shape="box"] ;
160 -> 162 ;
163 [label="X[0] <= 0.0698\ngini = 0.462207995582\nsamples = 433", shape="box"] ;
162 -> 163 ;
164 [label="X[13] <= 0.5000\ngini = 0.140570585552\nsamples = 314", shape="box"] ;
163 -> 164 ;
165 [label="X[7] <= 0.3051\ngini = 0.0898919236957\nsamples = 312", shape="box"] ;
164 -> 165 ;
166 [label="gini = 0.0000\nsamples = 16\nvalue = [ 6.15560324  0.        ]", shape="box"] ;
165 -> 166 ;
167 [label="X[0] <= 0.0576\ngini = 0.0948135965873\nsamples = 296", shape="box"] ;
165 -> 167 ;
168 [label="X[5] <= 0.2160\ngini = 0.0721855064386\nsamples = 261", shape="box"] ;
167 -> 168 ;
169 [label="gini = 0.1820\nsamples = 50\nvalue = [ 15.73098607   1.77201469]", shape="box"] ;
168 -> 169 ;
170 [label="X[5] <= 0.2901\ngini = 0.0449630573855\nsamples = 211", shape="box"] ;
168 -> 170 ;
171 [label="X[14] <= 0.5000\ngini = 0.082294698177\nsamples = 110", shape="box"] ;
170 -> 171 ;
172 [label="gini = 0.0915\nsamples = 98\nvalue = [ 35.10973702   1.77201469]", shape="box"] ;
171 -> 172 ;
173 [label="gini = -0.0000\nsamples = 12\nvalue = [ 4.3317208  0.       ]", shape="box"] ;
171 -> 173 ;
174 [label="gini = 0.0000\nsamples = 101\nvalue = [ 35.79369294   0.        ]", shape="box"] ;
170 -> 174 ;
175 [label="gini = 0.2512\nsamples = 35\nvalue = [ 10.25933874   1.77201469]", shape="box"] ;
167 -> 175 ;
176 [label="gini = 0.1136\nsamples = 2\nvalue = [ 0.22798531  3.54402939]", shape="box"] ;
164 -> 176 ;
177 [label="X[7] <= 0.3051\ngini = 0.431585145594\nsamples = 119", shape="box"] ;
163 -> 177 ;
178 [label="gini = 0.3255\nsamples = 2\nvalue = [ 0.45597061  1.77201469]", shape="box"] ;
177 -> 178 ;
179 [label="X[5] <= 0.2037\ngini = 0.433370368566\nsamples = 117", shape="box"] ;
177 -> 179 ;
180 [label="gini = 0.1331\nsamples = 12\nvalue = [  1.36791183  17.72014695]", shape="box"] ;
179 -> 180 ;
181 [label="X[12] <= 0.5000\ngini = 0.468540320286\nsamples = 105", shape="box"] ;
179 -> 181 ;
182 [label="gini = 0.4945\nsamples = 93\nvalue = [ 28.72614847  35.44029389]", shape="box"] ;
181 -> 182 ;
183 [label="gini = 0.2020\nsamples = 12\nvalue = [  2.05186775  15.94813225]", shape="box"] ;
181 -> 183 ;
184 [label="gini = 0.0000\nsamples = 1\nvalue = [ 0.          3.54402939]", shape="box"] ;
162 -> 184 ;
185 [label="X[5] <= 0.5000\ngini = 0.427240120735\nsamples = 215", shape="box"] ;
159 -> 185 ;
186 [label="X[7] <= 0.2332\ngini = 0.472271635805\nsamples = 150", shape="box"] ;
185 -> 186 ;
187 [label="gini = 0.0000\nsamples = 2\nvalue = [ 1.36791183  0.        ]", shape="box"] ;
186 -> 187 ;
188 [label="X[0] <= 0.0611\ngini = 0.468829575281\nsamples = 148", shape="box"] ;
186 -> 188 ;
189 [label="gini = 0.4628\nsamples = 86\nvalue = [ 31.00600153  17.72014695]", shape="box"] ;
188 -> 189 ;
190 [label="gini = 0.3132\nsamples = 62\nvalue = [ 13.67911832  56.70447023]", shape="box"] ;
188 -> 190 ;
191 [label="gini = 0.3041\nsamples = 65\nvalue = [ 13.45113302  58.47648492]", shape="box"] ;
185 -> 191 ;
192 [label="X[13] <= 0.5000\ngini = 0.429977720933\nsamples = 256", shape="box"] ;
158 -> 192 ;
193 [label="X[3] <= 0.2074\ngini = 0.42946545882\nsamples = 255", shape="box"] ;
192 -> 193 ;
194 [label="X[10] <= 0.5000\ngini = 0.44432500153\nsamples = 239", shape="box"] ;
193 -> 194 ;
195 [label="X[0] <= 0.0271\ngini = 0.419006983404\nsamples = 162", shape="box"] ;
194 -> 195 ;
196 [label="gini = 0.2844\nsamples = 46\nvalue = [ 17.0988979    3.54402939]", shape="box"] ;
195 -> 196 ;
197 [label="X[4] <= 0.0941\ngini = 0.339686156427\nsamples = 116", shape="box"] ;
195 -> 197 ;
198 [label="gini = 0.0000\nsamples = 5\nvalue = [ 2.05186775  0.        ]", shape="box"] ;
197 -> 198 ;
199 [label="X[0] <= 0.1058\ngini = 0.325543869866\nsamples = 111", shape="box"] ;
197 -> 199 ;
200 [label="gini = 0.4019\nsamples = 89\nvalue = [ 23.93845706  62.02051431]", shape="box"] ;
199 -> 200 ;
201 [label="gini = 0.1218\nsamples = 22\nvalue = [  2.96380897  42.52835267]", shape="box"] ;
199 -> 201 ;
202 [label="gini = 0.4924\nsamples = 77\nvalue = [ 22.11457462  28.35223511]", shape="box"] ;
194 -> 202 ;
203 [label="gini = 0.2387\nsamples = 16\nvalue = [  3.41977958  21.26417634]", shape="box"] ;
193 -> 203 ;
204 [label="gini = -0.0000\nsamples = 1\nvalue = [ 0.22798531  0.        ]", shape="box"] ;
192 -> 204 ;
205 [label="X[5] <= 0.2037\ngini = 0.415856727757\nsamples = 11641", shape="box"] ;
3 -> 205 ;
206 [label="X[0] <= 0.0918\ngini = 0.445672301071\nsamples = 3366", shape="box"] ;
205 -> 206 ;
207 [label="X[3] <= 0.9824\ngini = 0.131684888976\nsamples = 2880", shape="box"] ;
206 -> 207 ;
208 [label="X[6] <= 0.5000\ngini = 0.103593134985\nsamples = 2763", shape="box"] ;
207 -> 208 ;
209 [label="X[11] <= 0.5000\ngini = 0.0890170542549\nsamples = 2757", shape="box"] ;
208 -> 209 ;
210 [label="X[1] <= 0.8688\ngini = 0.0905496692174\nsamples = 2708", shape="box"] ;
209 -> 210 ;
211 [label="gini = 0.0000\nsamples = 705\nvalue = [ 259.67526279    0.        ]", shape="box"] ;
210 -> 211 ;
212 [label="X[3] <= 0.9802\ngini = 0.119915798739\nsamples = 2003", shape="box"] ;
210 -> 212 ;
213 [label="X[0] <= 0.0544\ngini = 0.250149400578\nsamples = 570", shape="box"] ;
212 -> 213 ;
214 [label="X[7] <= 0.5292\ngini = 0.0990294295799\nsamples = 457", shape="box"] ;
213 -> 214 ;
215 [label="X[12] <= 0.5000\ngini = 0.153221983508\nsamples = 271", shape="box"] ;
214 -> 215 ;
216 [label="X[0] <= 0.0320\ngini = 0.041155683782\nsamples = 225", shape="box"] ;
215 -> 216 ;
217 [label="gini = 0.0000\nsamples = 156\nvalue = [ 57.45229695   0.        ]", shape="box"] ;
216 -> 217 ;
218 [label="gini = 0.1233\nsamples = 69\nvalue = [ 25.07838359   1.77201469]", shape="box"] ;
216 -> 218 ;
219 [label="gini = 0.4401\nsamples = 46\nvalue = [ 14.59105954   7.08805878]", shape="box"] ;
215 -> 219 ;
220 [label="gini = 0.0000\nsamples = 186\nvalue = [ 63.60790019   0.        ]", shape="box"] ;
214 -> 220 ;
221 [label="X[3] <= 0.8599\ngini = 0.484675919986\nsamples = 113", shape="box"] ;
213 -> 221 ;
222 [label="gini = 0.3562\nsamples = 69\nvalue = [ 23.48248645   7.08805878]", shape="box"] ;
221 -> 222 ;
223 [label="gini = 0.4803\nsamples = 44\nvalue = [ 11.85523588  17.72014695]", shape="box"] ;
221 -> 223 ;
224 [label="X[14] <= 0.5000\ngini = 0.0533250087478\nsamples = 1433", shape="box"] ;
212 -> 224 ;
225 [label="X[0] <= 0.0753\ngini = 0.0555131427885\nsamples = 1372", shape="box"] ;
224 -> 225 ;
226 [label="X[8] <= 0.5000\ngini = 0.0228054229821\nsamples = 1300", shape="box"] ;
225 -> 226 ;
227 [label="X[0] <= 0.0517\ngini = 0.0384427684716\nsamples = 763", shape="box"] ;
226 -> 227 ;
228 [label="gini = 0.0000\nsamples = 639\nvalue = [ 225.02149638    0.        ]", shape="box"] ;
227 -> 228 ;
229 [label="X[12] <= 0.5000\ngini = 0.203937882904\nsamples = 124", shape="box"] ;
227 -> 229 ;
230 [label="gini = 0.0000\nsamples = 95\nvalue = [ 31.91794275   0.        ]", shape="box"] ;
229 -> 230 ;
231 [label="gini = 0.4683\nsamples = 29\nvalue = [ 8.89142691  5.31604408]", shape="box"] ;
229 -> 231 ;
232 [label="gini = -0.0000\nsamples = 537\nvalue = [ 189.68377405    0.        ]", shape="box"] ;
226 -> 232 ;
233 [label="gini = 0.3759\nsamples = 72\nvalue = [ 26.44629542   8.86007347]", shape="box"] ;
225 -> 233 ;
234 [label="gini = -0.0000\nsamples = 61\nvalue = [ 20.97464809   0.        ]", shape="box"] ;
224 -> 234 ;
235 [label="gini = -0.0000\nsamples = 49\nvalue = [ 18.23882443   0.        ]", shape="box"] ;
209 -> 235 ;
236 [label="gini = 0.2020\nsamples = 6\nvalue = [ 1.13992653  8.86007347]", shape="box"] ;
208 -> 236 ;
237 [label="X[6] <= 0.5000\ngini = 0.438523689933\nsamples = 117", shape="box"] ;
207 -> 237 ;
238 [label="X[13] <= 0.5000\ngini = 0.279033812815\nsamples = 114", shape="box"] ;
237 -> 238 ;
239 [label="X[5] <= 0.0741\ngini = 0.281945313212\nsamples = 113", shape="box"] ;
238 -> 239 ;
240 [label="gini = 0.1136\nsamples = 2\nvalue = [ 0.22798531  3.54402939]", shape="box"] ;
239 -> 240 ;
241 [label="X[0] <= 0.0846\ngini = 0.195524864214\nsamples = 111", shape="box"] ;
239 -> 241 ;
242 [label="gini = 0.0000\nsamples = 108\nvalue = [ 42.6332521   0.       ]", shape="box"] ;
241 -> 242 ;
243 [label="gini = 0.1455\nsamples = 3\nvalue = [ 0.45597061  5.31604408]", shape="box"] ;
241 -> 243 ;
244 [label="gini = 0.0000\nsamples = 1\nvalue = [ 0.68395592  0.        ]", shape="box"] ;
238 -> 244 ;
245 [label="gini = 0.0354\nsamples = 3\nvalue = [  0.22798531  12.40410286]", shape="box"] ;
237 -> 245 ;
246 [label="X[1] <= 0.9389\ngini = 0.297454612943\nsamples = 486", shape="box"] ;
206 -> 246 ;
247 [label="X[10] <= 0.5000\ngini = 0.371315895937\nsamples = 169", shape="box"] ;
246 -> 247 ;
248 [label="X[12] <= 0.5000\ngini = 0.354751398912\nsamples = 144", shape="box"] ;
247 -> 248 ;
249 [label="X[5] <= 0.0802\ngini = 0.359725594006\nsamples = 130", shape="box"] ;
248 -> 249 ;
250 [label="gini = 0.0000\nsamples = 3\nvalue = [ 1.13992653  0.        ]", shape="box"] ;
249 -> 250 ;
251 [label="X[14] <= 0.5000\ngini = 0.352829468329\nsamples = 127", shape="box"] ;
249 -> 251 ;
252 [label="X[11] <= 0.5000\ngini = 0.368992054192\nsamples = 120", shape="box"] ;
251 -> 252 ;
253 [label="X[7] <= 0.5440\ngini = 0.382275014593\nsamples = 117", shape="box"] ;
252 -> 253 ;
254 [label="gini = 0.3955\nsamples = 47\nvalue = [ 12.53919179  33.6682792 ]", shape="box"] ;
253 -> 254 ;
255 [label="gini = 0.3732\nsamples = 70\nvalue = [ 17.55486851  53.16044084]", shape="box"] ;
253 -> 255 ;
256 [label="gini = 0.0604\nsamples = 3\nvalue = [ 0.22798531  7.08805878]", shape="box"] ;
252 -> 256 ;
257 [label="gini = 0.1136\nsamples = 7\nvalue = [  0.68395592  10.63208817]", shape="box"] ;
251 -> 257 ;
258 [label="gini = 0.3132\nsamples = 14\nvalue = [  3.41977958  14.17611756]", shape="box"] ;
248 -> 258 ;
259 [label="gini = 0.4664\nsamples = 25\nvalue = [  7.29552977  12.40410286]", shape="box"] ;
247 -> 259 ;
260 [label="X[10] <= 0.5000\ngini = 0.262665118126\nsamples = 317", shape="box"] ;
246 -> 260 ;
261 [label="X[0] <= 0.1138\ngini = 0.244113869187\nsamples = 268", shape="box"] ;
260 -> 261 ;
262 [label="gini = 0.4824\nsamples = 75\nvalue = [ 23.02651584  33.6682792 ]", shape="box"] ;
261 -> 262 ;
263 [label="X[5] <= 0.0926\ngini = 0.1731894054\nsamples = 193", shape="box"] ;
261 -> 263 ;
264 [label="gini = 0.0229\nsamples = 8\nvalue = [  0.22798531  19.49216164]", shape="box"] ;
263 -> 264 ;
265 [label="X[14] <= 0.5000\ngini = 0.182029219802\nsamples = 185", shape="box"] ;
263 -> 265 ;
266 [label="X[5] <= 0.1914\ngini = 0.187499285895\nsamples = 177", shape="box"] ;
265 -> 266 ;
267 [label="X[11] <= 0.5000\ngini = 0.203272326945\nsamples = 159", shape="box"] ;
266 -> 267 ;
268 [label="X[13] <= 0.5000\ngini = 0.195376472321\nsamples = 154", shape="box"] ;
267 -> 268 ;
269 [label="X[7] <= 0.5768\ngini = 0.18725006402\nsamples = 150", shape="box"] ;
268 -> 269 ;
270 [label="gini = 0.1579\nsamples = 37\nvalue = [  5.69963263  60.24849962]", shape="box"] ;
269 -> 270 ;
271 [label="X[5] <= 0.1049\ngini = 0.19830615212\nsamples = 113", shape="box"] ;
269 -> 271 ;
272 [label="gini = 0.3552\nsamples = 7\nvalue = [ 1.59589714  5.31604408]", shape="box"] ;
271 -> 272 ;
273 [label="X[5] <= 0.1296\ngini = 0.190379042598\nsamples = 106", shape="box"] ;
271 -> 273 ;
274 [label="gini = 0.0743\nsamples = 18\nvalue = [  1.13992653  28.35223511]", shape="box"] ;
273 -> 274 ;
275 [label="gini = 0.2136\nsamples = 88\nvalue = [  16.18695668  116.95296985]", shape="box"] ;
273 -> 275 ;
276 [label="gini = 0.0000\nsamples = 4\nvalue = [ 1.36791183  0.        ]", shape="box"] ;
268 -> 276 ;
277 [label="gini = 0.4019\nsamples = 5\nvalue = [ 2.05186775  5.31604408]", shape="box"] ;
267 -> 277 ;
278 [label="gini = 0.0789\nsamples = 18\nvalue = [  1.59589714  37.21230859]", shape="box"] ;
266 -> 278 ;
279 [label="gini = 0.0931\nsamples = 8\nvalue = [  0.91194122  17.72014695]", shape="box"] ;
265 -> 279 ;
280 [label="gini = 0.3804\nsamples = 49\nvalue = [ 12.7671771   37.21230859]", shape="box"] ;
260 -> 280 ;
281 [label="X[1] <= 0.8688\ngini = 0.400989709662\nsamples = 8275", shape="box"] ;
205 -> 281 ;
282 [label="X[0] <= 0.1093\ngini = 0.306302442311\nsamples = 2490", shape="box"] ;
281 -> 282 ;
283 [label="X[8] <= 0.5000\ngini = 0.0334531417238\nsamples = 2248", shape="box"] ;
282 -> 283 ;
284 [label="X[3] <= 0.9575\ngini = 0.0317781314736\nsamples = 1793", shape="box"] ;
283 -> 284 ;
285 [label="X[5] <= 0.4383\ngini = 0.0167942949014\nsamples = 1160", shape="box"] ;
284 -> 285 ;
286 [label="X[10] <= 0.5000\ngini = 0.0100058881451\nsamples = 988", shape="box"] ;
285 -> 286 ;
287 [label="X[0] <= 0.0871\ngini = 0.0126939853187\nsamples = 783", shape="box"] ;
286 -> 287 ;
288 [label="gini = 0.0000\nsamples = 745\nvalue = [ 263.32302768    0.        ]", shape="box"] ;
287 -> 288 ;
289 [label="gini = 0.2200\nsamples = 38\nvalue = [ 12.31120649   1.77201469]", shape="box"] ;
287 -> 289 ;
290 [label="gini = -0.0000\nsamples = 205\nvalue = [ 75.00716546   0.        ]", shape="box"] ;
286 -> 290 ;
291 [label="X[10] <= 0.5000\ngini = 0.0522065802809\nsamples = 172", shape="box"] ;
285 -> 291 ;
292 [label="X[3] <= 0.9573\ngini = 0.0688341096293\nsamples = 125", shape="box"] ;
291 -> 292 ;
293 [label="gini = 0.1168\nsamples = 68\nvalue = [ 26.67428073   1.77201469]", shape="box"] ;
292 -> 293 ;
294 [label="gini = -0.0000\nsamples = 57\nvalue = [ 21.2026334   0.       ]", shape="box"] ;
292 -> 294 ;
295 [label="gini = -0.0000\nsamples = 47\nvalue = [ 16.41494199   0.        ]", shape="box"] ;
291 -> 295 ;
296 [label="X[10] <= 0.5000\ngini = 0.0573548862485\nsamples = 633", shape="box"] ;
284 -> 296 ;
297 [label="X[14] <= 0.5000\ngini = 0.0633047772687\nsamples = 568", shape="box"] ;
296 -> 297 ;
298 [label="X[0] <= 0.1015\ngini = 0.0682306709294\nsamples = 525", shape="box"] ;
297 -> 298 ;
299 [label="gini = -0.0000\nsamples = 513\nvalue = [ 189.68377405    0.        ]", shape="box"] ;
298 -> 299 ;
300 [label="gini = 0.4487\nsamples = 12\nvalue = [ 3.64776489  7.08805878]", shape="box"] ;
298 -> 300 ;
301 [label="gini = 0.0000\nsamples = 43\nvalue = [ 16.18695668   0.        ]", shape="box"] ;
297 -> 301 ;
302 [label="gini = -0.0000\nsamples = 65\nvalue = [ 23.25450115   0.        ]", shape="box"] ;
296 -> 302 ;
303 [label="X[12] <= 0.5000\ngini = 0.0397360864732\nsamples = 455", shape="box"] ;
283 -> 303 ;
304 [label="X[5] <= 0.5123\ngini = 0.0454226385326\nsamples = 395", shape="box"] ;
303 -> 304 ;
305 [label="gini = -0.0000\nsamples = 383\nvalue = [ 143.40275707    0.        ]", shape="box"] ;
304 -> 305 ;
306 [label="gini = 0.4771\nsamples = 12\nvalue = [ 5.47164733  3.54402939]", shape="box"] ;
304 -> 306 ;
307 [label="gini = -0.0000\nsamples = 60\nvalue = [ 22.34255992   0.        ]", shape="box"] ;
303 -> 307 ;
308 [label="X[13] <= 0.5000\ngini = 0.37646047266\nsamples = 242", shape="box"] ;
282 -> 308 ;
309 [label="X[3] <= 0.9573\ngini = 0.370366655928\nsamples = 237", shape="box"] ;
308 -> 309 ;
310 [label="gini = 0.4932\nsamples = 62\nvalue = [ 18.23882443  23.03619103]", shape="box"] ;
309 -> 310 ;
311 [label="X[12] <= 0.5000\ngini = 0.328557198818\nsamples = 175", shape="box"] ;
309 -> 311 ;
312 [label="X[0] <= 0.1213\ngini = 0.335823374726\nsamples = 150", shape="box"] ;
311 -> 312 ;
313 [label="gini = 0.4882\nsamples = 35\nvalue = [ 12.08322118   8.86007347]", shape="box"] ;
312 -> 313 ;
314 [label="X[0] <= 0.1652\ngini = 0.278246997481\nsamples = 115", shape="box"] ;
312 -> 314 ;
315 [label="gini = 0.3657\nsamples = 59\nvalue = [ 16.8709126   53.16044084]", shape="box"] ;
314 -> 315 ;
316 [label="gini = 0.1987\nsamples = 56\nvalue = [ 10.48732405  83.28469065]", shape="box"] ;
314 -> 316 ;
317 [label="gini = 0.2759\nsamples = 25\nvalue = [  4.55970611  23.03619103]", shape="box"] ;
311 -> 317 ;
318 [label="gini = -0.0000\nsamples = 5\nvalue = [ 2.05186775  0.        ]", shape="box"] ;
308 -> 318 ;
319 [label="X[7] <= 0.7757\ngini = 0.428786002779\nsamples = 5785", shape="box"] ;
281 -> 319 ;
320 [label="X[6] <= 0.5000\ngini = 0.440847411908\nsamples = 4414", shape="box"] ;
319 -> 320 ;
321 [label="X[8] <= 0.5000\ngini = 0.432631167851\nsamples = 4393", shape="box"] ;
320 -> 321 ;
322 [label="X[4] <= 0.3536\ngini = 0.418323970094\nsamples = 2997", shape="box"] ;
321 -> 322 ;
323 [label="X[5] <= 0.5123\ngini = 0.44125234913\nsamples = 1355", shape="box"] ;
322 -> 323 ;
324 [label="X[0] <= 0.1079\ngini = 0.435316480468\nsamples = 1309", shape="box"] ;
323 -> 324 ;
325 [label="X[11] <= 0.5000\ngini = 0.0576203842547\nsamples = 1147", shape="box"] ;
324 -> 325 ;
326 [label="X[0] <= 0.0853\ngini = 0.0500509659955\nsamples = 1141", shape="box"] ;
325 -> 326 ;
327 [label="X[5] <= 0.2778\ngini = 0.00919505773609\nsamples = 1076", shape="box"] ;
326 -> 327 ;
328 [label="X[5] <= 0.2654\ngini = 0.028966129562\nsamples = 333", shape="box"] ;
327 -> 328 ;
329 [label="gini = -0.0000\nsamples = 280\nvalue = [ 99.62957844   0.        ]", shape="box"] ;
328 -> 329 ;
330 [label="gini = 0.1550\nsamples = 53\nvalue = [ 19.15076565   1.77201469]", shape="box"] ;
328 -> 330 ;
331 [label="gini = -0.0000\nsamples = 743\nvalue = [ 263.09504237    0.        ]", shape="box"] ;
327 -> 331 ;
332 [label="gini = 0.4139\nsamples = 65\nvalue = [ 21.4306187    8.86007347]", shape="box"] ;
326 -> 332 ;
333 [label="gini = 0.4973\nsamples = 6\nvalue = [ 2.05186775  1.77201469]", shape="box"] ;
325 -> 333 ;
334 [label="X[12] <= 0.5000\ngini = 0.257498976426\nsamples = 162", shape="box"] ;
324 -> 334 ;
335 [label="X[10] <= 0.5000\ngini = 0.238019601547\nsamples = 138", shape="box"] ;
334 -> 335 ;
336 [label="X[0] <= 0.1850\ngini = 0.241663988442\nsamples = 110", shape="box"] ;
335 -> 336 ;
337 [label="gini = 0.3493\nsamples = 75\nvalue = [ 19.60673626  67.3365584 ]", shape="box"] ;
336 -> 337 ;
338 [label="gini = 0.0921\nsamples = 35\nvalue = [  3.87575019  76.19663187]", shape="box"] ;
336 -> 338 ;
339 [label="gini = 0.2235\nsamples = 28\nvalue = [  5.47164733  37.21230859]", shape="box"] ;
335 -> 339 ;
340 [label="gini = 0.4158\nsamples = 24\nvalue = [  5.92761794  14.17611756]", shape="box"] ;
334 -> 340 ;
341 [label="gini = 0.4975\nsamples = 46\nvalue = [ 12.31120649  14.17611756]", shape="box"] ;
323 -> 341 ;
342 [label="X[3] <= 0.9820\ngini = 0.395755581791\nsamples = 1642", shape="box"] ;
322 -> 342 ;
343 [label="X[4] <= 0.4916\ngini = 0.365948240416\nsamples = 1338", shape="box"] ;
342 -> 343 ;
344 [label="X[3] <= 0.8125\ngini = 0.356336648768\nsamples = 691", shape="box"] ;
343 -> 344 ;
345 [label="X[0] <= 0.1079\ngini = 0.332829859776\nsamples = 681", shape="box"] ;
344 -> 345 ;
346 [label="X[0] <= 0.0968\ngini = 0.0457567016531\nsamples = 608", shape="box"] ;
345 -> 346 ;
347 [label="X[13] <= 0.5000\ngini = 0.0161488142433\nsamples = 591", shape="box"] ;
346 -> 347 ;
348 [label="gini = 0.0000\nsamples = 571\nvalue = [ 209.74648092    0.        ]", shape="box"] ;
347 -> 348 ;
349 [label="gini = 0.3471\nsamples = 20\nvalue = [ 6.15560324  1.77201469]", shape="box"] ;
347 -> 349 ;
350 [label="gini = 0.4728\nsamples = 17\nvalue = [ 5.69963263  3.54402939]", shape="box"] ;
346 -> 350 ;
351 [label="gini = 0.3501\nsamples = 73\nvalue = [ 17.0988979   58.47648492]", shape="box"] ;
345 -> 351 ;
352 [label="gini = 0.2831\nsamples = 10\nvalue = [ 1.82388244  8.86007347]", shape="box"] ;
344 -> 352 ;
353 [label="X[14] <= 0.5000\ngini = 0.375496404738\nsamples = 647", shape="box"] ;
343 -> 353 ;
354 [label="X[13] <= 0.5000\ngini = 0.373137302266\nsamples = 609", shape="box"] ;
353 -> 354 ;
355 [label="X[5] <= 0.5247\ngini = 0.370228292032\nsamples = 562", shape="box"] ;
354 -> 355 ;
356 [label="X[12] <= 0.5000\ngini = 0.362283715082\nsamples = 554", shape="box"] ;
355 -> 356 ;
357 [label="X[10] <= 0.5000\ngini = 0.395045584806\nsamples = 335", shape="box"] ;
356 -> 357 ;
358 [label="X[0] <= 0.0903\ngini = 0.407994402085\nsamples = 257", shape="box"] ;
357 -> 358 ;
359 [label="gini = 0.0000\nsamples = 225\nvalue = [ 81.39075401   0.        ]", shape="box"] ;
358 -> 359 ;
360 [label="gini = 0.2831\nsamples = 32\nvalue = [  7.29552977  35.44029389]", shape="box"] ;
358 -> 360 ;
361 [label="gini = 0.3384\nsamples = 78\nvalue = [ 25.7623395    7.08805878]", shape="box"] ;
357 -> 361 ;
362 [label="X[5] <= 0.4506\ngini = 0.299570110164\nsamples = 219", shape="box"] ;
356 -> 362 ;
363 [label="X[10] <= 0.5000\ngini = 0.193132046704\nsamples = 202", shape="box"] ;
362 -> 363 ;
364 [label="X[3] <= 0.9815\ngini = 0.172661252437\nsamples = 142", shape="box"] ;
363 -> 364 ;
365 [label="gini = 0.0000\nsamples = 60\nvalue = [ 22.79853054   0.        ]", shape="box"] ;
364 -> 365 ;
366 [label="gini = 0.2709\nsamples = 82\nvalue = [ 27.58622195   5.31604408]", shape="box"] ;
364 -> 366 ;
367 [label="gini = 0.2346\nsamples = 60\nvalue = [ 22.57054523   3.54402939]", shape="box"] ;
363 -> 367 ;
368 [label="gini = 0.4803\nsamples = 17\nvalue = [ 5.92761794  8.86007347]", shape="box"] ;
362 -> 368 ;
369 [label="gini = 0.4960\nsamples = 8\nvalue = [ 2.96380897  3.54402939]", shape="box"] ;
355 -> 369 ;
370 [label="gini = 0.4009\nsamples = 47\nvalue = [ 18.46680973   7.08805878]", shape="box"] ;
354 -> 370 ;
371 [label="gini = 0.4090\nsamples = 38\nvalue = [ 13.22314771   5.31604408]", shape="box"] ;
353 -> 371 ;
372 [label="X[3] <= 0.9828\ngini = 0.471972500021\nsamples = 304", shape="box"] ;
342 -> 372 ;
373 [label="X[0] <= 0.0809\ngini = 0.479304429348\nsamples = 270", shape="box"] ;
372 -> 373 ;
374 [label="gini = 0.0000\nsamples = 217\nvalue = [ 81.39075401   0.        ]", shape="box"] ;
373 -> 374 ;
375 [label="gini = 0.2764\nsamples = 53\nvalue = [ 12.31120649  62.02051431]", shape="box"] ;
373 -> 375 ;
376 [label="gini = 0.3436\nsamples = 34\nvalue = [ 12.53919179   3.54402939]", shape="box"] ;
372 -> 376 ;
377 [label="X[3] <= 0.9813\ngini = 0.457279506723\nsamples = 1396", shape="box"] ;
321 -> 377 ;
378 [label="X[7] <= 0.4369\ngini = 0.479876875762\nsamples = 753", shape="box"] ;
377 -> 378 ;
379 [label="X[13] <= 0.5000\ngini = 0.468133277545\nsamples = 395", shape="box"] ;
378 -> 379 ;
380 [label="X[0] <= 0.0851\ngini = 0.464076122088\nsamples = 391", shape="box"] ;
379 -> 380 ;
381 [label="X[0] <= 0.0678\ngini = 0.107013179322\nsamples = 327", shape="box"] ;
380 -> 381 ;
382 [label="X[12] <= 0.5000\ngini = 0.0600671366579\nsamples = 304", shape="box"] ;
381 -> 382 ;
383 [label="X[10] <= 0.5000\ngini = 0.064285358965\nsamples = 282", shape="box"] ;
382 -> 383 ;
384 [label="X[5] <= 0.2531\ngini = 0.0789571749334\nsamples = 227", shape="box"] ;
383 -> 384 ;
385 [label="gini = 0.2399\nsamples = 62\nvalue = [ 21.88658931   3.54402939]", shape="box"] ;
384 -> 385 ;
386 [label="gini = 0.0000\nsamples = 165\nvalue = [ 60.64409122   0.        ]", shape="box"] ;
384 -> 386 ;
387 [label="gini = 0.0000\nsamples = 55\nvalue = [ 20.51867748   0.        ]", shape="box"] ;
383 -> 387 ;
388 [label="gini = 0.0000\nsamples = 22\nvalue = [ 7.75150038  0.        ]", shape="box"] ;
382 -> 388 ;
389 [label="gini = 0.4449\nsamples = 23\nvalue = [ 7.06754447  3.54402939]", shape="box"] ;
381 -> 389 ;
390 [label="gini = 0.2819\nsamples = 64\nvalue = [ 14.13508893  69.10857309]", shape="box"] ;
380 -> 390 ;
391 [label="gini = 0.4282\nsamples = 4\nvalue = [ 1.59589714  3.54402939]", shape="box"] ;
379 -> 391 ;
392 [label="X[0] <= 0.1316\ngini = 0.489136337109\nsamples = 358", shape="box"] ;
378 -> 392 ;
393 [label="X[0] <= 0.0860\ngini = 0.110421032658\nsamples = 320", shape="box"] ;
392 -> 393 ;
394 [label="gini = -0.0000\nsamples = 284\nvalue = [ 101.68144619    0.        ]", shape="box"] ;
393 -> 394 ;
395 [label="gini = 0.4661\nsamples = 36\nvalue = [ 12.08322118   7.08805878]", shape="box"] ;
393 -> 395 ;
396 [label="gini = 0.1179\nsamples = 38\nvalue = [  5.47164733  81.51267595]", shape="box"] ;
392 -> 396 ;
397 [label="X[3] <= 0.9815\ngini = 0.412247543996\nsamples = 643", shape="box"] ;
377 -> 397 ;
398 [label="X[5] <= 0.2284\ngini = 0.302892514183\nsamples = 183", shape="box"] ;
397 -> 398 ;
399 [label="gini = 0.5000\nsamples = 34\nvalue = [ 8.89142691  8.86007347]", shape="box"] ;
398 -> 399 ;
400 [label="X[0] <= 0.0780\ngini = 0.165390730845\nsamples = 149", shape="box"] ;
398 -> 400 ;
401 [label="gini = 0.0000\nsamples = 129\nvalue = [ 46.28101699   0.        ]", shape="box"] ;
400 -> 401 ;
402 [label="gini = 0.4921\nsamples = 20\nvalue = [ 6.83955916  5.31604408]", shape="box"] ;
400 -> 402 ;
403 [label="X[5] <= 0.3765\ngini = 0.43897667583\nsamples = 460", shape="box"] ;
397 -> 403 ;
404 [label="X[5] <= 0.3025\ngini = 0.475755368107\nsamples = 322", shape="box"] ;
403 -> 404 ;
405 [label="X[10] <= 0.5000\ngini = 0.429054760314\nsamples = 214", shape="box"] ;
404 -> 405 ;
406 [label="X[11] <= 0.5000\ngini = 0.430625629361\nsamples = 175", shape="box"] ;
405 -> 406 ;
407 [label="X[12] <= 0.5000\ngini = 0.433145832302\nsamples = 173", shape="box"] ;
406 -> 407 ;
408 [label="X[13] <= 0.5000\ngini = 0.427202965661\nsamples = 126", shape="box"] ;
407 -> 408 ;
409 [label="X[4] <= 0.4770\ngini = 0.432343098126\nsamples = 124", shape="box"] ;
408 -> 409 ;
410 [label="gini = 0.0000\nsamples = 19\nvalue = [ 7.52351508  0.        ]", shape="box"] ;
409 -> 410 ;
411 [label="X[3] <= 0.9824\ngini = 0.460796147783\nsamples = 105", shape="box"] ;
409 -> 411 ;
412 [label="gini = 0.4763\nsamples = 87\nvalue = [ 27.58622195  17.72014695]", shape="box"] ;
411 -> 412 ;
413 [label="gini = 0.3206\nsamples = 18\nvalue = [ 7.06754447  1.77201469]", shape="box"] ;
411 -> 413 ;
414 [label="gini = 0.0000\nsamples = 2\nvalue = [ 1.36791183  0.        ]", shape="box"] ;
408 -> 414 ;
415 [label="gini = 0.4496\nsamples = 47\nvalue = [ 13.67911832   7.08805878]", shape="box"] ;
407 -> 415 ;
416 [label="gini = 0.0000\nsamples = 2\nvalue = [ 0.91194122  0.        ]", shape="box"] ;
406 -> 416 ;
417 [label="gini = 0.4213\nsamples = 39\nvalue = [ 12.31120649   5.31604408]", shape="box"] ;
405 -> 417 ;
418 [label="X[3] <= 0.9828\ngini = 0.499732477465\nsamples = 108", shape="box"] ;
404 -> 418 ;
419 [label="X[3] <= 0.9824\ngini = 0.498632731265\nsamples = 104", shape="box"] ;
418 -> 419 ;
420 [label="gini = 0.4991\nsamples = 84\nvalue = [ 25.07838359  23.03619103]", shape="box"] ;
419 -> 420 ;
421 [label="gini = 0.4424\nsamples = 20\nvalue = [  5.24366202  10.63208817]", shape="box"] ;
419 -> 421 ;
422 [label="gini = -0.0000\nsamples = 4\nvalue = [ 1.82388244  0.        ]", shape="box"] ;
418 -> 422 ;
423 [label="X[7] <= 0.5768\ngini = 0.249615891157\nsamples = 138", shape="box"] ;
403 -> 423 ;
424 [label="X[3] <= 0.9820\ngini = 0.260138998554\nsamples = 129", shape="box"] ;
423 -> 424 ;
425 [label="gini = 0.2375\nsamples = 92\nvalue = [ 33.28585458   5.31604408]", shape="box"] ;
424 -> 425 ;
426 [label="gini = 0.3029\nsamples = 37\nvalue = [ 15.50300076   3.54402939]", shape="box"] ;
424 -> 426 ;
427 [label="gini = -0.0000\nsamples = 9\nvalue = [ 2.96380897  0.        ]", shape="box"] ;
423 -> 427 ;
428 [label="gini = 0.1226\nsamples = 21\nvalue = [  2.73582366  38.98432328]", shape="box"] ;
320 -> 428 ;
429 [label="X[14] <= 0.5000\ngini = 0.376745858783\nsamples = 1371", shape="box"] ;
319 -> 429 ;
430 [label="X[10] <= 0.5000\ngini = 0.372241070768\nsamples = 1259", shape="box"] ;
429 -> 430 ;
431 [label="X[8] <= 0.5000\ngini = 0.368786803758\nsamples = 967", shape="box"] ;
430 -> 431 ;
432 [label="X[3] <= 0.9804\ngini = 0.366514187182\nsamples = 746", shape="box"] ;
431 -> 432 ;
433 [label="X[0] <= 0.1040\ngini = 0.302462809266\nsamples = 284", shape="box"] ;
432 -> 433 ;
434 [label="gini = 0.0000\nsamples = 254\nvalue = [ 95.29785764   0.        ]", shape="box"] ;
433 -> 434 ;
435 [label="gini = 0.3180\nsamples = 30\nvalue = [  5.69963263  23.03619103]", shape="box"] ;
433 -> 435 ;
436 [label="X[11] <= 0.5000\ngini = 0.398009739561\nsamples = 462", shape="box"] ;
432 -> 436 ;
437 [label="X[3] <= 0.9807\ngini = 0.398539662251\nsamples = 461", shape="box"] ;
436 -> 437 ;
438 [label="X[5] <= 0.4630\ngini = 0.465935067651\nsamples = 176", shape="box"] ;
437 -> 438 ;
439 [label="X[12] <= 0.5000\ngini = 0.438070837472\nsamples = 156", shape="box"] ;
438 -> 439 ;
440 [label="X[0] <= 0.1102\ngini = 0.425924146395\nsamples = 142", shape="box"] ;
439 -> 440 ;
441 [label="X[5] <= 0.3148\ngini = 0.0707101109866\nsamples = 132", shape="box"] ;
440 -> 441 ;
442 [label="gini = 0.1243\nsamples = 68\nvalue = [ 24.85039828   1.77201469]", shape="box"] ;
441 -> 442 ;
443 [label="gini = -0.0000\nsamples = 64\nvalue = [ 21.65860401   0.        ]", shape="box"] ;
441 -> 443 ;
444 [label="gini = 0.1226\nsamples = 10\nvalue = [  1.36791183  19.49216164]", shape="box"] ;
440 -> 444 ;
445 [label="gini = 0.4990\nsamples = 14\nvalue = [ 3.87575019  3.54402939]", shape="box"] ;
439 -> 445 ;
446 [label="gini = 0.4764\nsamples = 20\nvalue = [ 5.69963263  8.86007347]", shape="box"] ;
438 -> 446 ;
447 [label="X[0] <= 0.1376\ngini = 0.324583162538\nsamples = 285", shape="box"] ;
437 -> 447 ;
448 [label="X[5] <= 0.3025\ngini = 0.0364314101218\nsamples = 269", shape="box"] ;
447 -> 448 ;
449 [label="X[3] <= 0.9811\ngini = 0.0818621920081\nsamples = 116", shape="box"] ;
448 -> 449 ;
450 [label="gini = 0.1598\nsamples = 54\nvalue = [ 18.46680973   1.77201469]", shape="box"] ;
449 -> 450 ;
451 [label="gini = -0.0000\nsamples = 62\nvalue = [ 21.2026334   0.       ]", shape="box"] ;
449 -> 451 ;
452 [label="gini = 0.0000\nsamples = 153\nvalue = [ 54.03251737   0.        ]", shape="box"] ;
448 -> 452 ;
453 [label="gini = 0.2138\nsamples = 16\nvalue = [  3.19179427  23.03619103]", shape="box"] ;
447 -> 453 ;
454 [label="gini = -0.0000\nsamples = 1\nvalue = [ 0.45597061  0.        ]", shape="box"] ;
436 -> 454 ;
455 [label="X[5] <= 0.3889\ngini = 0.37640816198\nsamples = 221", shape="box"] ;
431 -> 455 ;
456 [label="X[13] <= 0.5000\ngini = 0.436034892741\nsamples = 161", shape="box"] ;
455 -> 456 ;
457 [label="X[11] <= 0.5000\ngini = 0.438070837472\nsamples = 159", shape="box"] ;
456 -> 457 ;
458 [label="X[0] <= 0.0946\ngini = 0.415108726572\nsamples = 156", shape="box"] ;
457 -> 458 ;
459 [label="gini = 0.0000\nsamples = 143\nvalue = [ 49.24482596   0.        ]", shape="box"] ;
458 -> 459 ;
460 [label="gini = 0.1455\nsamples = 13\nvalue = [  1.82388244  21.26417634]", shape="box"] ;
458 -> 460 ;
461 [label="gini = 0.2712\nsamples = 3\nvalue = [ 0.68395592  3.54402939]", shape="box"] ;
457 -> 461 ;
462 [label="gini = 0.0000\nsamples = 2\nvalue = [ 0.68395592  0.        ]", shape="box"] ;
456 -> 462 ;
463 [label="gini = 0.0000\nsamples = 60\nvalue = [ 21.4306187   0.       ]", shape="box"] ;
455 -> 463 ;
464 [label="X[11] <= 0.5000\ngini = 0.382900645353\nsamples = 292", shape="box"] ;
430 -> 464 ;
465 [label="X[3] <= 0.9805\ngini = 0.38414716669\nsamples = 291", shape="box"] ;
464 -> 465 ;
466 [label="X[5] <= 0.4383\ngini = 0.423799001143\nsamples = 128", shape="box"] ;
465 -> 466 ;
467 [label="X[0] <= 0.0876\ngini = 0.340133980701\nsamples = 105", shape="box"] ;
466 -> 467 ;
468 [label="gini = 0.0000\nsamples = 88\nvalue = [ 33.05786928   0.        ]", shape="box"] ;
467 -> 468 ;
469 [label="gini = 0.4424\nsamples = 17\nvalue = [  5.24366202  10.63208817]", shape="box"] ;
467 -> 469 ;
470 [label="gini = 0.4838\nsamples = 23\nvalue = [ 6.15560324  8.86007347]", shape="box"] ;
466 -> 470 ;
471 [label="X[5] <= 0.3148\ngini = 0.342436785526\nsamples = 163", shape="box"] ;
465 -> 471 ;
472 [label="gini = 0.4544\nsamples = 76\nvalue = [ 26.44629542  14.17611756]", shape="box"] ;
471 -> 472 ;
473 [label="gini = 0.1043\nsamples = 87\nvalue = [ 30.32204561   1.77201469]", shape="box"] ;
471 -> 473 ;
474 [label="gini = 0.0000\nsamples = 1\nvalue = [ 0.68395592  0.        ]", shape="box"] ;
464 -> 474 ;
475 [label="X[3] <= 0.9806\ngini = 0.420228963711\nsamples = 112", shape="box"] ;
429 -> 475 ;
476 [label="gini = 0.4928\nsamples = 63\nvalue = [ 20.29069218  15.94813225]", shape="box"] ;
475 -> 476 ;
477 [label="gini = -0.0000\nsamples = 49\nvalue = [ 16.8709126   0.       ]", shape="box"] ;
475 -> 477 ;
478 [label="X[10] <= 0.5000\ngini = 0.121258104775\nsamples = 562", shape="box"] ;
0 -> 478 ;
479 [label="X[3] <= 0.1754\ngini = 0.108852209267\nsamples = 435", shape="box"] ;
478 -> 479 ;
480 [label="X[3] <= 0.1428\ngini = 0.0957626557332\nsamples = 414", shape="box"] ;
479 -> 480 ;
481 [label="X[7] <= 0.0795\ngini = 0.0772225869647\nsamples = 352", shape="box"] ;
480 -> 481 ;
482 [label="gini = 0.1591\nsamples = 62\nvalue = [  10.48732405  109.86491107]", shape="box"] ;
481 -> 482 ;
483 [label="X[9] <= 0.0170\ngini = 0.0621669653929\nsamples = 290", shape="box"] ;
481 -> 483 ;
484 [label="X[0] <= 0.0259\ngini = 0.0615729572162\nsamples = 289", shape="box"] ;
483 -> 484 ;
485 [label="gini = 0.4158\nsamples = 30\nvalue = [  8.89142691  21.26417634]", shape="box"] ;
484 -> 485 ;
486 [label="X[5] <= 0.8827\ngini = 0.0389594554411\nsamples = 259", shape="box"] ;
484 -> 486 ;
487 [label="X[4] <= 0.0272\ngini = 0.0383139941378\nsamples = 258", shape="box"] ;
486 -> 487 ;
488 [label="gini = 0.0831\nsamples = 14\nvalue = [  1.36791183  30.12424981]", shape="box"] ;
487 -> 488 ;
489 [label="X[4] <= 0.9331\ngini = 0.0360284088477\nsamples = 244", shape="box"] ;
487 -> 489 ;
490 [label="X[9] <= 0.0125\ngini = 0.032562203678\nsamples = 224", shape="box"] ;
489 -> 490 ;
491 [label="X[0] <= 0.0432\ngini = 0.0295640893549\nsamples = 211", shape="box"] ;
490 -> 491 ;
492 [label="gini = 0.0611\nsamples = 57\nvalue = [   4.3317208  132.9011021]", shape="box"] ;
491 -> 492 ;
493 [label="X[5] <= 0.0926\ngini = 0.0187424502465\nsamples = 154", shape="box"] ;
491 -> 493 ;
494 [label="gini = 0.0684\nsamples = 14\nvalue = [  0.91194122  24.80820573]", shape="box"] ;
493 -> 494 ;
495 [label="X[9] <= 0.0055\ngini = 0.0153194614181\nsamples = 140", shape="box"] ;
493 -> 495 ;
496 [label="gini = 0.0248\nsamples = 64\nvalue = [   2.05186775  161.25333721]", shape="box"] ;
495 -> 496 ;
497 [label="gini = 0.0082\nsamples = 76\nvalue = [   0.91194122  219.72982214]", shape="box"] ;
495 -> 497 ;
498 [label="gini = 0.0831\nsamples = 13\nvalue = [  1.36791183  30.12424981]", shape="box"] ;
490 -> 498 ;
499 [label="gini = 0.0716\nsamples = 20\nvalue = [  2.05186775  53.16044084]", shape="box"] ;
489 -> 499 ;
500 [label="gini = 0.0000\nsamples = 1\nvalue = [ 0.22798531  0.        ]", shape="box"] ;
486 -> 500 ;
501 [label="gini = 0.0000\nsamples = 1\nvalue = [ 0.22798531  0.        ]", shape="box"] ;
483 -> 501 ;
502 [label="gini = 0.2410\nsamples = 62\nvalue = [ 12.9951624   79.74066126]", shape="box"] ;
480 -> 502 ;
503 [label="gini = 0.4401\nsamples = 21\nvalue = [ 7.29552977  3.54402939]", shape="box"] ;
479 -> 503 ;
504 [label="X[0] <= 0.0283\ngini = 0.169522066864\nsamples = 127", shape="box"] ;
478 -> 504 ;
505 [label="gini = 0.4852\nsamples = 31\nvalue = [ 10.03135344   7.08805878]", shape="box"] ;
504 -> 505 ;
506 [label="gini = 0.1009\nsamples = 96\nvalue = [  11.17127996  198.4656458 ]", shape="box"] ;
504 -> 506 ;
}