digraph Tree {
0 [label="X[1] <= 0.4690\ngini = 0.499927463011\nsamples = 17379", shape="box"] ;
1 [label="X[10] <= 0.5000\ngini = 0.228390781259\nsamples = 2075", shape="box"] ;
0 -> 1 ;
2 [label="X[9] <= 0.5125\ngini = 0.209074839785\nsamples = 1625", shape="box"] ;
1 -> 2 ;
3 [label="X[4] <= 0.0272\ngini = 0.0720139583167\nsamples = 408", shape="box"] ;
2 -> 3 ;
4 [label="gini = 0.1845\nsamples = 15\nvalue = [  2.4443558   21.33343003]", shape="box"] ;
3 -> 4 ;
5 [label="X[0] <= 0.0163\ngini = 0.0688425088869\nsamples = 393", shape="box"] ;
3 -> 5 ;
6 [label="gini = -0.0000\nsamples = 8\nvalue = [ 2.4443558  0.       ]", shape="box"] ;
5 -> 6 ;
7 [label="X[3] <= 0.1458\ngini = 0.0639995197783\nsamples = 385", shape="box"] ;
5 -> 7 ;
8 [label="X[3] <= 0.0905\ngini = 0.0635566070501\nsamples = 384", shape="box"] ;
7 -> 8 ;
9 [label="X[0] <= 0.0261\ngini = 0.0573121210886\nsamples = 351", shape="box"] ;
8 -> 9 ;
10 [label="gini = 0.2623\nsamples = 29\nvalue = [  5.5553541   30.22235921]", shape="box"] ;
9 -> 10 ;
11 [label="X[4] <= 0.7782\ngini = 0.0466598959291\nsamples = 322", shape="box"] ;
9 -> 11 ;
12 [label="X[4] <= 0.6736\ngini = 0.0391394789613\nsamples = 222", shape="box"] ;
11 -> 12 ;
13 [label="X[0] <= 0.0555\ngini = 0.04262387214\nsamples = 193", shape="box"] ;
12 -> 13 ;
14 [label="gini = 0.0781\nsamples = 87\nvalue = [   8.22192407  193.77865613]", shape="box"] ;
13 -> 14 ;
15 [label="X[3] <= 0.0092\ngini = 0.0177493445524\nsamples = 106", shape="box"] ;
13 -> 15 ;
16 [label="gini = 0.1017\nsamples = 12\nvalue = [  1.11107082  19.5556442 ]", shape="box"] ;
15 -> 16 ;
17 [label="gini = 0.0112\nsamples = 94\nvalue = [   1.55549915  275.55680458]", shape="box"] ;
15 -> 17 ;
18 [label="gini = 0.0168\nsamples = 29\nvalue = [  0.66664249  78.22257679]", shape="box"] ;
12 -> 18 ;
19 [label="X[6] <= 0.5000\ngini = 0.0660679561256\nsamples = 100", shape="box"] ;
11 -> 19 ;
20 [label="gini = 0.0713\nsamples = 76\nvalue = [   6.22199659  161.77851108]", shape="box"] ;
19 -> 20 ;
21 [label="gini = 0.0491\nsamples = 24\nvalue = [  1.33328498  51.55578924]", shape="box"] ;
19 -> 21 ;
22 [label="gini = 0.1338\nsamples = 33\nvalue = [  5.11092577  65.77807593]", shape="box"] ;
8 -> 22 ;
23 [label="gini = -0.0000\nsamples = 1\nvalue = [ 0.22221416  0.        ]", shape="box"] ;
7 -> 23 ;
24 [label="X[3] <= 0.0016\ngini = 0.275910203721\nsamples = 1217", shape="box"] ;
2 -> 24 ;
25 [label="gini = 0.1319\nsamples = 18\nvalue = [  2.4443558   32.00014505]", shape="box"] ;
24 -> 25 ;
26 [label="X[1] <= 0.1871\ngini = 0.278639846184\nsamples = 1199", shape="box"] ;
24 -> 26 ;
27 [label="X[0] <= 0.0285\ngini = 0.248965433881\nsamples = 401", shape="box"] ;
26 -> 27 ;
28 [label="gini = 0.2873\nsamples = 94\nvalue = [ 33.77655292   7.11114334]", shape="box"] ;
27 -> 28 ;
29 [label="X[6] <= 0.5000\ngini = 0.169958382513\nsamples = 307", shape="box"] ;
27 -> 29 ;
30 [label="X[12] <= 0.5000\ngini = 0.16290786532\nsamples = 284", shape="box"] ;
29 -> 30 ;
31 [label="X[4] <= 0.5397\ngini = 0.158456741005\nsamples = 245", shape="box"] ;
30 -> 31 ;
32 [label="X[0] <= 0.0374\ngini = 0.149291774155\nsamples = 151", shape="box"] ;
31 -> 32 ;
33 [label="gini = 0.4999\nsamples = 20\nvalue = [ 6.88863908  7.11114334]", shape="box"] ;
32 -> 33 ;
34 [label="X[5] <= 0.6173\ngini = 0.112767027301\nsamples = 131", shape="box"] ;
32 -> 34 ;
35 [label="X[0] <= 0.0480\ngini = 0.0928375456349\nsamples = 115", shape="box"] ;
34 -> 35 ;
36 [label="gini = 0.3047\nsamples = 23\nvalue = [  5.33313994  23.11121587]", shape="box"] ;
35 -> 36 ;
37 [label="gini = 0.0601\nsamples = 92\nvalue = [   6.88863908  215.11208616]", shape="box"] ;
35 -> 37 ;
38 [label="gini = 0.3200\nsamples = 16\nvalue = [  3.99985495  16.00007252]", shape="box"] ;
34 -> 38 ;
39 [label="gini = 0.1751\nsamples = 94\nvalue = [  14.88834899  138.66729521]", shape="box"] ;
31 -> 39 ;
40 [label="gini = 0.1927\nsamples = 39\nvalue = [  6.88863908  56.88914675]", shape="box"] ;
30 -> 40 ;
41 [label="gini = 0.2659\nsamples = 23\nvalue = [  5.33313994  28.44457338]", shape="box"] ;
29 -> 41 ;
42 [label="X[8] <= 0.5000\ngini = 0.294708567735\nsamples = 798", shape="box"] ;
26 -> 42 ;
43 [label="X[12] <= 0.5000\ngini = 0.278637729915\nsamples = 471", shape="box"] ;
42 -> 43 ;
44 [label="X[3] <= 0.0231\ngini = 0.286800833153\nsamples = 392", shape="box"] ;
43 -> 44 ;
45 [label="gini = 0.2288\nsamples = 91\nvalue = [  18.88820394  124.44500852]", shape="box"] ;
44 -> 45 ;
46 [label="X[5] <= 0.7593\ngini = 0.307945269934\nsamples = 301", shape="box"] ;
44 -> 46 ;
47 [label="X[4] <= 0.9393\ngini = 0.301659623056\nsamples = 293", shape="box"] ;
46 -> 47 ;
48 [label="X[5] <= 0.5988\ngini = 0.290444807127\nsamples = 260", shape="box"] ;
47 -> 48 ;
49 [label="X[14] <= 0.5000\ngini = 0.315216270487\nsamples = 227", shape="box"] ;
48 -> 49 ;
50 [label="X[5] <= 0.5617\ngini = 0.317427647982\nsamples = 212", shape="box"] ;
49 -> 50 ;
51 [label="X[7] <= 0.0347\ngini = 0.305810330559\nsamples = 204", shape="box"] ;
50 -> 51 ;
52 [label="gini = 0.3301\nsamples = 82\nvalue = [ 17.33270479  65.77807593]", shape="box"] ;
51 -> 52 ;
53 [label="X[5] <= 0.5247\ngini = 0.292730160596\nsamples = 122", shape="box"] ;
51 -> 53 ;
54 [label="X[0] <= 0.0330\ngini = 0.285366926618\nsamples = 120", shape="box"] ;
53 -> 54 ;
55 [label="gini = 0.4610\nsamples = 46\nvalue = [ 15.77720564   8.88892918]", shape="box"] ;
54 -> 55 ;
56 [label="gini = 0.1604\nsamples = 74\nvalue = [  11.99956485  124.44500852]", shape="box"] ;
54 -> 56 ;
57 [label="gini = -0.0000\nsamples = 2\nvalue = [ 1.11107082  0.        ]", shape="box"] ;
53 -> 57 ;
58 [label="gini = 0.4537\nsamples = 8\nvalue = [ 3.33321246  1.77778584]", shape="box"] ;
50 -> 58 ;
59 [label="gini = 0.2854\nsamples = 15\nvalue = [  3.33321246  16.00007252]", shape="box"] ;
49 -> 59 ;
60 [label="gini = 0.1609\nsamples = 33\nvalue = [  5.33313994  55.11136092]", shape="box"] ;
48 -> 60 ;
61 [label="gini = 0.4121\nsamples = 33\nvalue = [  7.9997099  19.5556442]", shape="box"] ;
47 -> 61 ;
62 [label="gini = -0.0000\nsamples = 8\nvalue = [ 2.22214164  0.        ]", shape="box"] ;
46 -> 62 ;
63 [label="gini = 0.2434\nsamples = 79\nvalue = [  17.33270479  104.88936433]", shape="box"] ;
43 -> 63 ;
64 [label="X[0] <= 0.0309\ngini = 0.319439704139\nsamples = 327", shape="box"] ;
42 -> 64 ;
65 [label="X[1] <= 0.2151\ngini = 0.475312950798\nsamples = 123", shape="box"] ;
64 -> 65 ;
66 [label="gini = 0.4925\nsamples = 40\nvalue = [ 11.1107082   14.22228669]", shape="box"] ;
65 -> 66 ;
67 [label="gini = 0.3995\nsamples = 83\nvalue = [ 27.99898466  10.66671502]", shape="box"] ;
65 -> 67 ;
68 [label="X[5] <= 0.4753\ngini = 0.207915903321\nsamples = 204", shape="box"] ;
64 -> 68 ;
69 [label="X[4] <= 0.5690\ngini = 0.183155682901\nsamples = 178", shape="box"] ;
68 -> 69 ;
70 [label="gini = 0.1298\nsamples = 55\nvalue = [  7.33306741  97.77822098]", shape="box"] ;
69 -> 70 ;
71 [label="X[4] <= 0.9393\ngini = 0.209825570825\nsamples = 123", shape="box"] ;
69 -> 71 ;
72 [label="gini = 0.2328\nsamples = 96\nvalue = [  19.33263227  124.44500852]", shape="box"] ;
71 -> 72 ;
73 [label="gini = 0.1441\nsamples = 27\nvalue = [  4.22206912  49.77800341]", shape="box"] ;
71 -> 73 ;
74 [label="gini = 0.4628\nsamples = 26\nvalue = [  7.11085325  12.44450085]", shape="box"] ;
68 -> 74 ;
75 [label="X[1] <= 0.3261\ngini = 0.312633491108\nsamples = 450", shape="box"] ;
1 -> 75 ;
76 [label="X[0] <= 0.0334\ngini = 0.281055026599\nsamples = 298", shape="box"] ;
75 -> 76 ;
77 [label="X[4] <= 0.6130\ngini = 0.495767231243\nsamples = 116", shape="box"] ;
76 -> 77 ;
78 [label="gini = -0.0000\nsamples = 51\nvalue = [ 17.77713312   0.        ]", shape="box"] ;
77 -> 78 ;
79 [label="gini = 0.4067\nsamples = 65\nvalue = [ 16.22163397  40.88907423]", shape="box"] ;
77 -> 79 ;
80 [label="X[12] <= 0.5000\ngini = 0.176662133069\nsamples = 182", shape="box"] ;
76 -> 80 ;
81 [label="X[0] <= 0.0488\ngini = 0.196185897762\nsamples = 146", shape="box"] ;
80 -> 81 ;
82 [label="gini = 0.2945\nsamples = 50\nvalue = [ 12.44399318  56.88914675]", shape="box"] ;
81 -> 82 ;
83 [label="gini = 0.1478\nsamples = 96\nvalue = [  12.88842151  147.55622439]", shape="box"] ;
81 -> 83 ;
84 [label="gini = 0.1081\nsamples = 36\nvalue = [  3.99985495  65.77807593]", shape="box"] ;
80 -> 84 ;
85 [label="X[4] <= 0.5690\ngini = 0.379678355717\nsamples = 152", shape="box"] ;
75 -> 85 ;
86 [label="gini = 0.3422\nsamples = 98\nvalue = [ 24.44355804  87.11150597]", shape="box"] ;
85 -> 86 ;
87 [label="gini = 0.4558\nsamples = 54\nvalue = [ 14.44392066  26.66678754]", shape="box"] ;
85 -> 87 ;
88 [label="X[7] <= 0.3650\ngini = 0.451475490314\nsamples = 15304", shape="box"] ;
0 -> 88 ;
89 [label="X[4] <= 0.1736\ngini = 0.499993023821\nsamples = 3628", shape="box"] ;
88 -> 89 ;
90 [label="X[9] <= 0.0085\ngini = 0.455710119142\nsamples = 1166", shape="box"] ;
89 -> 90 ;
91 [label="gini = 0.0799\nsamples = 25\nvalue = [  1.77771331  40.88907423]", shape="box"] ;
90 -> 91 ;
92 [label="X[3] <= 0.1972\ngini = 0.464062946757\nsamples = 1141", shape="box"] ;
90 -> 92 ;
93 [label="X[0] <= 0.0540\ngini = 0.488972330884\nsamples = 1026", shape="box"] ;
92 -> 93 ;
94 [label="X[5] <= 0.1790\ngini = 0.43453638096\nsamples = 630", shape="box"] ;
93 -> 94 ;
95 [label="X[12] <= 0.5000\ngini = 0.497582162646\nsamples = 127", shape="box"] ;
94 -> 95 ;
96 [label="X[3] <= 0.1827\ngini = 0.497776423767\nsamples = 112", shape="box"] ;
95 -> 96 ;
97 [label="gini = 0.4887\nsamples = 95\nvalue = [ 28.88784132  39.11128839]", shape="box"] ;
96 -> 97 ;
98 [label="gini = 0.0000\nsamples = 17\nvalue = [ 5.33313994  0.        ]", shape="box"] ;
96 -> 98 ;
99 [label="gini = 0.4959\nsamples = 15\nvalue = [ 4.44428328  5.33335751]", shape="box"] ;
95 -> 99 ;
100 [label="X[12] <= 0.5000\ngini = 0.363563105274\nsamples = 503", shape="box"] ;
94 -> 100 ;
101 [label="X[10] <= 0.5000\ngini = 0.348854526749\nsamples = 435", shape="box"] ;
100 -> 101 ;
102 [label="X[14] <= 0.5000\ngini = 0.418184339553\nsamples = 296", shape="box"] ;
101 -> 102 ;
103 [label="X[5] <= 0.5741\ngini = 0.425646535632\nsamples = 284", shape="box"] ;
102 -> 103 ;
104 [label="X[13] <= 0.5000\ngini = 0.357923876186\nsamples = 265", shape="box"] ;
103 -> 104 ;
105 [label="X[8] <= 0.5000\ngini = 0.321010618941\nsamples = 257", shape="box"] ;
104 -> 105 ;
106 [label="X[5] <= 0.3519\ngini = 0.188920019961\nsamples = 182", shape="box"] ;
105 -> 106 ;
107 [label="gini = 0.0000\nsamples = 130\nvalue = [ 43.10954781   0.        ]", shape="box"] ;
106 -> 107 ;
108 [label="gini = 0.4148\nsamples = 52\nvalue = [ 17.11049063   7.11114334]", shape="box"] ;
106 -> 108 ;
109 [label="gini = 0.4639\nsamples = 75\nvalue = [ 24.6657722   14.22228669]", shape="box"] ;
105 -> 109 ;
110 [label="gini = 0.4444\nsamples = 8\nvalue = [ 2.66656997  5.33335751]", shape="box"] ;
104 -> 110 ;
111 [label="gini = 0.3720\nsamples = 19\nvalue = [  4.66649744  14.22228669]", shape="box"] ;
103 -> 111 ;
112 [label="gini = -0.0000\nsamples = 12\nvalue = [ 4.22206912  0.        ]", shape="box"] ;
102 -> 112 ;
113 [label="X[5] <= 0.4630\ngini = 0.0657698159095\nsamples = 139", shape="box"] ;
101 -> 113 ;
114 [label="gini = -0.0000\nsamples = 124\nvalue = [ 46.44276027   0.        ]", shape="box"] ;
113 -> 114 ;
115 [label="gini = 0.4260\nsamples = 15\nvalue = [ 3.99985495  1.77778584]", shape="box"] ;
113 -> 115 ;
116 [label="gini = 0.4321\nsamples = 68\nvalue = [ 23.11027305  10.66671502]", shape="box"] ;
100 -> 116 ;
117 [label="X[0] <= 0.1698\ngini = 0.361947653762\nsamples = 396", shape="box"] ;
93 -> 117 ;
118 [label="X[3] <= 0.1733\ngini = 0.4006028612\nsamples = 357", shape="box"] ;
117 -> 118 ;
119 [label="gini = 0.1052\nsamples = 55\nvalue = [  5.5553541   94.22264931]", shape="box"] ;
118 -> 119 ;
120 [label="X[8] <= 0.5000\ngini = 0.466822459007\nsamples = 302", shape="box"] ;
118 -> 120 ;
121 [label="X[10] <= 0.5000\ngini = 0.492301350475\nsamples = 222", shape="box"] ;
120 -> 121 ;
122 [label="X[11] <= 0.5000\ngini = 0.484941251527\nsamples = 175", shape="box"] ;
121 -> 122 ;
123 [label="X[3] <= 0.1920\ngini = 0.493237249007\nsamples = 168", shape="box"] ;
122 -> 123 ;
124 [label="X[5] <= 0.4259\ngini = 0.496872382973\nsamples = 149", shape="box"] ;
123 -> 124 ;
125 [label="X[12] <= 0.5000\ngini = 0.467624746342\nsamples = 128", shape="box"] ;
124 -> 125 ;
126 [label="X[13] <= 0.5000\ngini = 0.418135620586\nsamples = 113", shape="box"] ;
125 -> 126 ;
127 [label="X[0] <= 0.0843\ngini = 0.419257462868\nsamples = 112", shape="box"] ;
126 -> 127 ;
128 [label="gini = 0.1952\nsamples = 45\nvalue = [ 14.44392066   1.77778584]", shape="box"] ;
127 -> 128 ;
129 [label="gini = 0.4789\nsamples = 67\nvalue = [ 18.88820394  12.44450085]", shape="box"] ;
127 -> 129 ;
130 [label="gini = 0.0000\nsamples = 1\nvalue = [ 0.22221416  0.        ]", shape="box"] ;
126 -> 130 ;
131 [label="gini = 0.4687\nsamples = 15\nvalue = [ 5.33313994  8.88892918]", shape="box"] ;
125 -> 131 ;
132 [label="gini = 0.2582\nsamples = 21\nvalue = [  5.11092577  28.44457338]", shape="box"] ;
124 -> 132 ;
133 [label="gini = 0.4543\nsamples = 19\nvalue = [  6.66642492  12.44450085]", shape="box"] ;
123 -> 133 ;
134 [label="gini = 0.1298\nsamples = 7\nvalue = [ 0.66664249  8.88892918]", shape="box"] ;
122 -> 134 ;
135 [label="gini = 0.4919\nsamples = 47\nvalue = [ 13.77727817  10.66671502]", shape="box"] ;
121 -> 135 ;
136 [label="gini = 0.3807\nsamples = 80\nvalue = [ 21.99920223  64.0002901 ]", shape="box"] ;
120 -> 136 ;
137 [label="gini = 0.1333\nsamples = 39\nvalue = [  5.77756826  74.66700511]", shape="box"] ;
117 -> 137 ;
138 [label="X[8] <= 0.5000\ngini = 0.20633425435\nsamples = 115", shape="box"] ;
92 -> 138 ;
139 [label="gini = 0.2125\nsamples = 69\nvalue = [ 12.22177902  88.8892918 ]", shape="box"] ;
138 -> 139 ;
140 [label="gini = 0.1975\nsamples = 46\nvalue = [  7.9997099  64.0002901]", shape="box"] ;
138 -> 140 ;
141 [label="X[5] <= 0.1173\ngini = 0.475998474535\nsamples = 2462", shape="box"] ;
89 -> 141 ;
142 [label="X[5] <= 0.0432\ngini = 0.498574160056\nsamples = 192", shape="box"] ;
141 -> 142 ;
143 [label="gini = -0.0000\nsamples = 6\nvalue = [ 2.88878413  0.        ]", shape="box"] ;
142 -> 143 ;
144 [label="X[10] <= 0.5000\ngini = 0.496931069781\nsamples = 186", shape="box"] ;
142 -> 144 ;
145 [label="X[14] <= 0.5000\ngini = 0.499612809019\nsamples = 142", shape="box"] ;
144 -> 145 ;
146 [label="X[13] <= 0.5000\ngini = 0.499881970334\nsamples = 138", shape="box"] ;
145 -> 146 ;
147 [label="X[9] <= 0.5030\ngini = 0.499986187236\nsamples = 134", shape="box"] ;
146 -> 147 ;
148 [label="gini = 0.0000\nsamples = 2\nvalue = [ 0.66664249  0.        ]", shape="box"] ;
147 -> 148 ;
149 [label="X[12] <= 0.5000\ngini = 0.499912708232\nsamples = 132", shape="box"] ;
147 -> 149 ;
150 [label="X[0] <= 0.1036\ngini = 0.499980837102\nsamples = 115", shape="box"] ;
149 -> 150 ;
151 [label="gini = 0.2949\nsamples = 94\nvalue = [ 32.44326794   7.11114334]", shape="box"] ;
150 -> 151 ;
152 [label="gini = 0.1975\nsamples = 21\nvalue = [  3.55542662  28.44457338]", shape="box"] ;
150 -> 152 ;
153 [label="gini = 0.4925\nsamples = 17\nvalue = [ 5.5553541   7.11114334]", shape="box"] ;
149 -> 153 ;
154 [label="gini = 0.0000\nsamples = 4\nvalue = [ 1.77771331  0.        ]", shape="box"] ;
146 -> 154 ;
155 [label="gini = 0.0000\nsamples = 4\nvalue = [ 1.11107082  0.        ]", shape="box"] ;
145 -> 155 ;
156 [label="gini = 0.4385\nsamples = 44\nvalue = [ 11.1107082   23.11121587]", shape="box"] ;
144 -> 156 ;
157 [label="X[10] <= 0.5000\ngini = 0.469302518952\nsamples = 2270", shape="box"] ;
141 -> 157 ;
158 [label="X[4] <= 0.1987\ngini = 0.463102647123\nsamples = 1781", shape="box"] ;
157 -> 158 ;
159 [label="X[3] <= 0.1425\ngini = 0.463485644473\nsamples = 1777", shape="box"] ;
158 -> 159 ;
160 [label="X[3] <= 0.1407\ngini = 0.49001164814\nsamples = 227", shape="box"] ;
159 -> 160 ;
161 [label="X[0] <= 0.0652\ngini = 0.499696165893\nsamples = 204", shape="box"] ;
160 -> 161 ;
162 [label="X[12] <= 0.5000\ngini = 0.113068674129\nsamples = 157", shape="box"] ;
161 -> 162 ;
163 [label="gini = 0.0000\nsamples = 134\nvalue = [ 46.8871886   0.       ]", shape="box"] ;
162 -> 163 ;
164 [label="gini = 0.4126\nsamples = 23\nvalue = [ 8.6663524   3.55557167]", shape="box"] ;
162 -> 164 ;
165 [label="gini = 0.2365\nsamples = 47\nvalue = [ 10.44406571  65.77807593]", shape="box"] ;
161 -> 165 ;
166 [label="gini = 0.2744\nsamples = 23\nvalue = [  4.88871161  24.8890017 ]", shape="box"] ;
160 -> 166 ;
167 [label="X[3] <= 0.1478\ngini = 0.434933370427\nsamples = 1550", shape="box"] ;
159 -> 167 ;
168 [label="X[0] <= 0.0871\ngini = 0.474598169467\nsamples = 553", shape="box"] ;
167 -> 168 ;
169 [label="X[9] <= 0.0085\ngini = 0.203298437939\nsamples = 476", shape="box"] ;
168 -> 169 ;
170 [label="gini = 0.2535\nsamples = 9\nvalue = [ 1.55549915  8.88892918]", shape="box"] ;
169 -> 170 ;
171 [label="X[0] <= 0.0387\ngini = 0.131881291992\nsamples = 467", shape="box"] ;
169 -> 171 ;
172 [label="gini = 0.0000\nsamples = 307\nvalue = [ 109.99601117    0.        ]", shape="box"] ;
171 -> 172 ;
173 [label="X[0] <= 0.0389\ngini = 0.308397810889\nsamples = 160", shape="box"] ;
171 -> 173 ;
174 [label="gini = 0.1107\nsamples = 2\nvalue = [ 0.22221416  3.55557167]", shape="box"] ;
173 -> 174 ;
175 [label="X[14] <= 0.5000\ngini = 0.247110611352\nsamples = 158", shape="box"] ;
173 -> 175 ;
176 [label="X[9] <= 0.5055\ngini = 0.256326274709\nsamples = 149", shape="box"] ;
175 -> 176 ;
177 [label="gini = 0.0000\nsamples = 1\nvalue = [ 0.22221416  0.        ]", shape="box"] ;
176 -> 177 ;
178 [label="X[3] <= 0.1437\ngini = 0.257123931459\nsamples = 148", shape="box"] ;
176 -> 178 ;
179 [label="gini = 0.1316\nsamples = 67\nvalue = [ 23.33248722   1.77778584]", shape="box"] ;
178 -> 179 ;
180 [label="gini = 0.3340\nsamples = 81\nvalue = [ 26.44348551   7.11114334]", shape="box"] ;
178 -> 180 ;
181 [label="gini = 0.0000\nsamples = 9\nvalue = [ 2.66656997  0.        ]", shape="box"] ;
175 -> 181 ;
182 [label="gini = 0.2466\nsamples = 77\nvalue = [ 15.55499148  92.44486347]", shape="box"] ;
168 -> 182 ;
183 [label="X[12] <= 0.5000\ngini = 0.399772004986\nsamples = 997", shape="box"] ;
167 -> 183 ;
184 [label="X[11] <= 0.5000\ngini = 0.387208211368\nsamples = 887", shape="box"] ;
183 -> 184 ;
185 [label="X[9] <= 0.0105\ngini = 0.390416343565\nsamples = 874", shape="box"] ;
184 -> 185 ;
186 [label="gini = 0.2854\nsamples = 12\nvalue = [  2.22214164  10.66671502]", shape="box"] ;
185 -> 186 ;
187 [label="X[13] <= 0.5000\ngini = 0.371931321898\nsamples = 862", shape="box"] ;
185 -> 187 ;
188 [label="X[0] <= 0.0902\ngini = 0.373391461031\nsamples = 854", shape="box"] ;
187 -> 188 ;
189 [label="X[5] <= 0.3025\ngini = 0.0136985297161\nsamples = 737", shape="box"] ;
188 -> 189 ;
190 [label="gini = 0.0000\nsamples = 529\nvalue = [ 183.10447112    0.        ]", shape="box"] ;
189 -> 190 ;
191 [label="X[9] <= 0.5060\ngini = 0.0464870668899\nsamples = 208", shape="box"] ;
189 -> 191 ;
192 [label="gini = 0.0000\nsamples = 1\nvalue = [ 0.22221416  0.        ]", shape="box"] ;
191 -> 192 ;
193 [label="X[3] <= 0.1555\ngini = 0.0466224393105\nsamples = 207", shape="box"] ;
191 -> 193 ;
194 [label="gini = 0.1063\nsamples = 85\nvalue = [ 29.77669797   1.77778584]", shape="box"] ;
193 -> 194 ;
195 [label="gini = 0.0000\nsamples = 122\nvalue = [ 42.88733365   0.        ]", shape="box"] ;
193 -> 195 ;
196 [label="X[0] <= 0.1343\ngini = 0.364259374951\nsamples = 117", shape="box"] ;
188 -> 196 ;
197 [label="gini = 0.4890\nsamples = 66\nvalue = [ 19.77706059  26.66678754]", shape="box"] ;
196 -> 197 ;
198 [label="gini = 0.2176\nsamples = 51\nvalue = [  9.33299489  65.77807593]", shape="box"] ;
196 -> 198 ;
199 [label="gini = -0.0000\nsamples = 8\nvalue = [ 2.22214164  0.        ]", shape="box"] ;
187 -> 199 ;
200 [label="gini = -0.0000\nsamples = 13\nvalue = [ 5.11092577  0.        ]", shape="box"] ;
184 -> 200 ;
201 [label="X[14] <= 0.5000\ngini = 0.466545374473\nsamples = 110", shape="box"] ;
183 -> 201 ;
202 [label="X[3] <= 0.1555\ngini = 0.470213622579\nsamples = 108", shape="box"] ;
201 -> 202 ;
203 [label="gini = 0.3856\nsamples = 45\nvalue = [ 15.11056315   5.33335751]", shape="box"] ;
202 -> 203 ;
204 [label="gini = 0.4938\nsamples = 63\nvalue = [ 19.99927476  16.00007252]", shape="box"] ;
202 -> 204 ;
205 [label="gini = 0.0000\nsamples = 2\nvalue = [ 1.11107082  0.        ]", shape="box"] ;
201 -> 205 ;
206 [label="gini = -0.0000\nsamples = 4\nvalue = [ 1.77771331  0.        ]", shape="box"] ;
158 -> 206 ;
207 [label="X[0] <= 0.0541\ngini = 0.486183250353\nsamples = 489", shape="box"] ;
157 -> 207 ;
208 [label="X[0] <= 0.0432\ngini = 0.0805327584609\nsamples = 340", shape="box"] ;
207 -> 208 ;
209 [label="gini = 0.0000\nsamples = 288\nvalue = [ 104.21844291    0.        ]", shape="box"] ;
208 -> 209 ;
210 [label="gini = 0.3599\nsamples = 52\nvalue = [ 17.33270479   5.33335751]", shape="box"] ;
208 -> 210 ;
211 [label="X[0] <= 0.0961\ngini = 0.37263017501\nsamples = 149", shape="box"] ;
207 -> 211 ;
212 [label="gini = 0.4937\nsamples = 88\nvalue = [ 25.55462886  32.00014505]", shape="box"] ;
211 -> 212 ;
213 [label="gini = 0.2012\nsamples = 61\nvalue = [  9.55520905  74.66700511]", shape="box"] ;
211 -> 213 ;
214 [label="X[3] <= 0.9579\ngini = 0.403978989453\nsamples = 11676", shape="box"] ;
88 -> 214 ;
215 [label="X[0] <= 0.0920\ngini = 0.357259507528\nsamples = 4357", shape="box"] ;
214 -> 215 ;
216 [label="X[1] <= 0.8688\ngini = 0.0575955504028\nsamples = 3762", shape="box"] ;
215 -> 216 ;
217 [label="X[11] <= 0.5000\ngini = 0.0164350728215\nsamples = 2401", shape="box"] ;
216 -> 217 ;
218 [label="X[0] <= 0.0802\ngini = 0.0166358367813\nsamples = 2376", shape="box"] ;
217 -> 218 ;
219 [label="gini = -0.0000\nsamples = 2267\nvalue = [ 807.52627189    0.        ]", shape="box"] ;
218 -> 219 ;
220 [label="X[10] <= 0.5000\ngini = 0.29108548185\nsamples = 109", shape="box"] ;
218 -> 220 ;
221 [label="gini = 0.2924\nsamples = 83\nvalue = [ 24.6657722    5.33335751]", shape="box"] ;
220 -> 221 ;
222 [label="gini = 0.2873\nsamples = 26\nvalue = [ 8.44413823  1.77778584]", shape="box"] ;
220 -> 222 ;
223 [label="gini = 0.0000\nsamples = 25\nvalue = [ 10.44406571   0.        ]", shape="box"] ;
217 -> 223 ;
224 [label="X[11] <= 0.5000\ngini = 0.121576641239\nsamples = 1361", shape="box"] ;
216 -> 224 ;
225 [label="X[3] <= 0.8233\ngini = 0.116436978426\nsamples = 1352", shape="box"] ;
224 -> 225 ;
226 [label="X[0] <= 0.0860\ngini = 0.062845613307\nsamples = 1329", shape="box"] ;
225 -> 226 ;
227 [label="X[0] <= 0.0599\ngini = 0.0430301731229\nsamples = 1320", shape="box"] ;
226 -> 227 ;
228 [label="X[13] <= 0.5000\ngini = 0.0168949104615\nsamples = 1154", shape="box"] ;
227 -> 228 ;
229 [label="gini = 0.0000\nsamples = 1133\nvalue = [ 406.20749175    0.        ]", shape="box"] ;
228 -> 229 ;
230 [label="gini = 0.4352\nsamples = 21\nvalue = [ 7.55528158  3.55557167]", shape="box"] ;
228 -> 230 ;
231 [label="X[14] <= 0.5000\ngini = 0.188371717727\nsamples = 166", shape="box"] ;
227 -> 231 ;
232 [label="X[5] <= 0.2407\ngini = 0.207618933609\nsamples = 149", shape="box"] ;
231 -> 232 ;
233 [label="gini = 0.3953\nsamples = 60\nvalue = [ 19.1104181    7.11114334]", shape="box"] ;
232 -> 233 ;
234 [label="gini = 0.0000\nsamples = 89\nvalue = [ 34.22098125   0.        ]", shape="box"] ;
232 -> 234 ;
235 [label="gini = 0.0000\nsamples = 17\nvalue = [ 7.11085325  0.        ]", shape="box"] ;
231 -> 235 ;
236 [label="gini = 0.4310\nsamples = 9\nvalue = [ 2.4443558   5.33335751]", shape="box"] ;
226 -> 236 ;
237 [label="gini = 0.4208\nsamples = 23\nvalue = [  6.88863908  16.00007252]", shape="box"] ;
225 -> 237 ;
238 [label="gini = 0.4938\nsamples = 9\nvalue = [ 2.22214164  1.77778584]", shape="box"] ;
224 -> 238 ;
239 [label="X[3] <= 0.9352\ngini = 0.39299140918\nsamples = 595", shape="box"] ;
215 -> 239 ;
240 [label="X[9] <= 0.5030\ngini = 0.311985749723\nsamples = 210", shape="box"] ;
239 -> 240 ;
241 [label="gini = 0.0000\nsamples = 2\nvalue = [ 0.          3.55557167]", shape="box"] ;
240 -> 241 ;
242 [label="X[3] <= 0.8843\ngini = 0.315499374539\nsamples = 208", shape="box"] ;
240 -> 242 ;
243 [label="X[0] <= 0.1379\ngini = 0.317282900172\nsamples = 207", shape="box"] ;
242 -> 243 ;
244 [label="X[8] <= 0.5000\ngini = 0.416138172205\nsamples = 103", shape="box"] ;
243 -> 244 ;
245 [label="gini = 0.4889\nsamples = 63\nvalue = [ 18.44377561  24.8890017 ]", shape="box"] ;
244 -> 245 ;
246 [label="gini = 0.2980\nsamples = 40\nvalue = [  9.11078072  40.88907423]", shape="box"] ;
244 -> 246 ;
247 [label="X[0] <= 0.2456\ngini = 0.232763972947\nsamples = 104", shape="box"] ;
243 -> 247 ;
248 [label="gini = 0.2871\nsamples = 81\nvalue = [ 16.44384813  78.22257679]", shape="box"] ;
247 -> 248 ;
249 [label="gini = 0.1107\nsamples = 23\nvalue = [  2.88878413  46.22243174]", shape="box"] ;
247 -> 249 ;
250 [label="gini = -0.0000\nsamples = 1\nvalue = [ 0.          1.77778584]", shape="box"] ;
242 -> 250 ;
251 [label="X[11] <= 0.5000\ngini = 0.439375824279\nsamples = 385", shape="box"] ;
239 -> 251 ;
252 [label="X[12] <= 0.5000\ngini = 0.441884350129\nsamples = 381", shape="box"] ;
251 -> 252 ;
253 [label="X[13] <= 0.5000\ngini = 0.450244194618\nsamples = 334", shape="box"] ;
252 -> 253 ;
254 [label="X[5] <= 0.3642\ngini = 0.447090392998\nsamples = 319", shape="box"] ;
253 -> 254 ;
255 [label="X[8] <= 0.5000\ngini = 0.422840122848\nsamples = 236", shape="box"] ;
254 -> 255 ;
256 [label="X[5] <= 0.1049\ngini = 0.424590963727\nsamples = 181", shape="box"] ;
255 -> 256 ;
257 [label="gini = 0.1800\nsamples = 11\nvalue = [  1.77771331  16.00007252]", shape="box"] ;
256 -> 257 ;
258 [label="X[0] <= 0.1503\ngini = 0.443722687372\nsamples = 170", shape="box"] ;
256 -> 258 ;
259 [label="X[10] <= 0.5000\ngini = 0.438282395893\nsamples = 102", shape="box"] ;
258 -> 259 ;
260 [label="gini = 0.4571\nsamples = 82\nvalue = [ 25.99905719  14.22228669]", shape="box"] ;
259 -> 260 ;
261 [label="gini = 0.3141\nsamples = 20\nvalue = [ 7.33306741  1.77778584]", shape="box"] ;
259 -> 261 ;
262 [label="gini = 0.2439\nsamples = 68\nvalue = [ 12.66620735  76.44479095]", shape="box"] ;
258 -> 262 ;
263 [label="gini = 0.4170\nsamples = 55\nvalue = [ 14.22170649  33.77793088]", shape="box"] ;
255 -> 263 ;
264 [label="gini = 0.4978\nsamples = 83\nvalue = [ 24.88798637  28.44457338]", shape="box"] ;
254 -> 264 ;
265 [label="gini = 0.4995\nsamples = 15\nvalue = [ 3.77764079  3.55557167]", shape="box"] ;
253 -> 265 ;
266 [label="gini = 0.3841\nsamples = 47\nvalue = [ 12.44399318  35.55571672]", shape="box"] ;
252 -> 266 ;
267 [label="gini = 0.2449\nsamples = 4\nvalue = [ 0.88885666  5.33335751]", shape="box"] ;
251 -> 267 ;
268 [label="X[13] <= 0.5000\ngini = 0.425758252654\nsamples = 7319", shape="box"] ;
214 -> 268 ;
269 [label="X[1] <= 0.9389\ngini = 0.430337031608\nsamples = 7078", shape="box"] ;
268 -> 269 ;
270 [label="X[1] <= 0.8688\ngini = 0.463957592947\nsamples = 578", shape="box"] ;
269 -> 270 ;
271 [label="X[8] <= 0.5000\ngini = 0.427371179702\nsamples = 559", shape="box"] ;
270 -> 271 ;
272 [label="X[11] <= 0.5000\ngini = 0.448867673106\nsamples = 446", shape="box"] ;
271 -> 272 ;
273 [label="X[5] <= 0.3519\ngini = 0.4501281504\nsamples = 442", shape="box"] ;
272 -> 273 ;
274 [label="X[5] <= 0.1173\ngini = 0.484171327578\nsamples = 314", shape="box"] ;
273 -> 274 ;
275 [label="gini = -0.0000\nsamples = 19\nvalue = [ 7.33306741  0.        ]", shape="box"] ;
274 -> 275 ;
276 [label="X[5] <= 0.2407\ngini = 0.48985205045\nsamples = 295", shape="box"] ;
274 -> 276 ;
277 [label="X[0] <= 0.1352\ngini = 0.462815066452\nsamples = 150", shape="box"] ;
276 -> 277 ;
278 [label="gini = 0.0000\nsamples = 133\nvalue = [ 47.55383109   0.        ]", shape="box"] ;
277 -> 278 ;
279 [label="gini = 0.1344\nsamples = 17\nvalue = [  2.22214164  28.44457338]", shape="box"] ;
277 -> 279 ;
280 [label="X[12] <= 0.5000\ngini = 0.499505240528\nsamples = 145", shape="box"] ;
276 -> 280 ;
281 [label="X[5] <= 0.2901\ngini = 0.497969101666\nsamples = 120", shape="box"] ;
280 -> 281 ;
282 [label="gini = 0.4734\nsamples = 59\nvalue = [ 17.77713312  28.44457338]", shape="box"] ;
281 -> 282 ;
283 [label="gini = 0.4867\nsamples = 61\nvalue = [ 19.77706059  14.22228669]", shape="box"] ;
281 -> 283 ;
284 [label="gini = 0.2604\nsamples = 25\nvalue = [ 9.77742321  1.77778584]", shape="box"] ;
280 -> 284 ;
285 [label="X[14] <= 0.5000\ngini = 0.18620942487\nsamples = 128", shape="box"] ;
273 -> 285 ;
286 [label="X[5] <= 0.4136\ngini = 0.196740095042\nsamples = 121", shape="box"] ;
285 -> 286 ;
287 [label="gini = 0.3599\nsamples = 54\nvalue = [ 17.33270479   5.33335751]", shape="box"] ;
286 -> 287 ;
288 [label="gini = 0.0000\nsamples = 67\nvalue = [ 25.55462886   0.        ]", shape="box"] ;
286 -> 288 ;
289 [label="gini = 0.0000\nsamples = 7\nvalue = [ 3.1109983  0.       ]", shape="box"] ;
285 -> 289 ;
290 [label="gini = 0.0000\nsamples = 4\nvalue = [ 1.33328498  0.        ]", shape="box"] ;
272 -> 290 ;
291 [label="X[11] <= 0.5000\ngini = 0.262426080672\nsamples = 113", shape="box"] ;
271 -> 291 ;
292 [label="X[5] <= 0.2407\ngini = 0.267723589771\nsamples = 111", shape="box"] ;
291 -> 292 ;
293 [label="gini = -0.0000\nsamples = 49\nvalue = [ 17.33270479   0.        ]", shape="box"] ;
292 -> 293 ;
294 [label="gini = 0.3850\nsamples = 62\nvalue = [ 20.22148892   7.11114334]", shape="box"] ;
292 -> 294 ;
295 [label="gini = 0.0000\nsamples = 2\nvalue = [ 1.11107082  0.        ]", shape="box"] ;
291 -> 295 ;
296 [label="gini = 0.2174\nsamples = 19\nvalue = [  3.77764079  26.66678754]", shape="box"] ;
270 -> 296 ;
297 [label="X[3] <= 0.9686\ngini = 0.426446157009\nsamples = 6500", shape="box"] ;
269 -> 297 ;
298 [label="X[5] <= 0.0926\ngini = 0.354664328432\nsamples = 531", shape="box"] ;
297 -> 298 ;
299 [label="gini = 0.4828\nsamples = 7\nvalue = [ 2.4443558   3.55557167]", shape="box"] ;
298 -> 299 ;
300 [label="X[14] <= 0.5000\ngini = 0.344774384202\nsamples = 524", shape="box"] ;
298 -> 300 ;
301 [label="X[8] <= 0.5000\ngini = 0.360113745329\nsamples = 484", shape="box"] ;
300 -> 301 ;
302 [label="X[3] <= 0.9591\ngini = 0.358477997133\nsamples = 346", shape="box"] ;
301 -> 302 ;
303 [label="X[11] <= 0.5000\ngini = 0.405990422467\nsamples = 151", shape="box"] ;
302 -> 303 ;
304 [label="X[12] <= 0.5000\ngini = 0.408170401471\nsamples = 149", shape="box"] ;
303 -> 304 ;
305 [label="X[5] <= 0.1790\ngini = 0.427561269824\nsamples = 133", shape="box"] ;
304 -> 305 ;
306 [label="gini = -0.0000\nsamples = 28\nvalue = [ 9.55520905  0.        ]", shape="box"] ;
305 -> 306 ;
307 [label="X[0] <= 0.1071\ngini = 0.46055318808\nsamples = 105", shape="box"] ;
305 -> 307 ;
308 [label="gini = 0.0000\nsamples = 91\nvalue = [ 35.10983791   0.        ]", shape="box"] ;
307 -> 308 ;
309 [label="gini = 0.2101\nsamples = 14\nvalue = [  2.88878413  21.33343003]", shape="box"] ;
307 -> 309 ;
310 [label="gini = 0.0000\nsamples = 16\nvalue = [ 5.77756826  0.        ]", shape="box"] ;
304 -> 310 ;
311 [label="gini = -0.0000\nsamples = 2\nvalue = [ 0.66664249  0.        ]", shape="box"] ;
303 -> 311 ;
312 [label="X[5] <= 0.3395\ngini = 0.307775066037\nsamples = 195", shape="box"] ;
302 -> 312 ;
313 [label="X[3] <= 0.9593\ngini = 0.183401155041\nsamples = 141", shape="box"] ;
312 -> 313 ;
314 [label="gini = 0.2248\nsamples = 72\nvalue = [ 23.99912971   3.55557167]", shape="box"] ;
313 -> 314 ;
315 [label="gini = 0.1338\nsamples = 69\nvalue = [ 22.88805889   1.77778584]", shape="box"] ;
313 -> 315 ;
316 [label="gini = 0.4445\nsamples = 54\nvalue = [ 21.33255974  10.66671502]", shape="box"] ;
312 -> 316 ;
317 [label="X[0] <= 0.1086\ngini = 0.363977237388\nsamples = 138", shape="box"] ;
301 -> 317 ;
318 [label="gini = 0.0000\nsamples = 127\nvalue = [ 48.88711607   0.        ]", shape="box"] ;
317 -> 318 ;
319 [label="gini = 0.1975\nsamples = 11\nvalue = [  1.99992748  16.00007252]", shape="box"] ;
317 -> 319 ;
320 [label="gini = 0.0000\nsamples = 40\nvalue = [ 14.44392066   0.        ]", shape="box"] ;
300 -> 320 ;
321 [label="X[3] <= 0.9804\ngini = 0.431484105141\nsamples = 5969", shape="box"] ;
297 -> 321 ;
322 [label="X[7] <= 0.7757\ngini = 0.483953779022\nsamples = 518", shape="box"] ;
321 -> 322 ;
323 [label="X[8] <= 0.5000\ngini = 0.492402551433\nsamples = 376", shape="box"] ;
322 -> 323 ;
324 [label="X[3] <= 0.9799\ngini = 0.484521520312\nsamples = 292", shape="box"] ;
323 -> 324 ;
325 [label="gini = 0.3750\nsamples = 32\nvalue = [ 10.66627987   3.55557167]", shape="box"] ;
324 -> 325 ;
326 [label="X[12] <= 0.5000\ngini = 0.489734402383\nsamples = 260", shape="box"] ;
324 -> 326 ;
327 [label="X[3] <= 0.9802\ngini = 0.497000190919\nsamples = 217", shape="box"] ;
326 -> 327 ;
328 [label="X[11] <= 0.5000\ngini = 0.498583065408\nsamples = 130", shape="box"] ;
327 -> 328 ;
329 [label="X[14] <= 0.5000\ngini = 0.498728671891\nsamples = 129", shape="box"] ;
328 -> 329 ;
330 [label="X[0] <= 0.1251\ngini = 0.496962223957\nsamples = 115", shape="box"] ;
329 -> 330 ;
331 [label="gini = 0.0000\nsamples = 99\nvalue = [ 33.3321246   0.       ]", shape="box"] ;
330 -> 331 ;
332 [label="gini = 0.1164\nsamples = 16\nvalue = [  1.99992748  30.22235921]", shape="box"] ;
330 -> 332 ;
333 [label="gini = 0.4898\nsamples = 14\nvalue = [ 3.99985495  5.33335751]", shape="box"] ;
329 -> 333 ;
334 [label="gini = 0.0000\nsamples = 1\nvalue = [ 0.22221416  0.        ]", shape="box"] ;
328 -> 334 ;
335 [label="gini = 0.4934\nsamples = 87\nvalue = [ 26.88791384  21.33343003]", shape="box"] ;
327 -> 335 ;
336 [label="gini = 0.3200\nsamples = 43\nvalue = [ 14.22170649   3.55557167]", shape="box"] ;
326 -> 336 ;
337 [label="gini = 0.4997\nsamples = 84\nvalue = [ 27.11012801  28.44457338]", shape="box"] ;
323 -> 337 ;
338 [label="X[0] <= 0.0968\ngini = 0.440178672977\nsamples = 142", shape="box"] ;
322 -> 338 ;
339 [label="gini = 0.0000\nsamples = 124\nvalue = [ 43.10954781   0.        ]", shape="box"] ;
338 -> 339 ;
340 [label="gini = 0.2705\nsamples = 18\nvalue = [  4.44428328  23.11121587]", shape="box"] ;
338 -> 340 ;
341 [label="X[0] <= 0.0922\ngini = 0.423587171795\nsamples = 5451", shape="box"] ;
321 -> 341 ;
342 [label="X[7] <= 0.5768\ngini = 0.0572194688866\nsamples = 4716", shape="box"] ;
341 -> 342 ;
343 [label="X[3] <= 0.9820\ngini = 0.0893311234278\nsamples = 1866", shape="box"] ;
342 -> 343 ;
344 [label="X[8] <= 0.5000\ngini = 0.035912160595\nsamples = 1357", shape="box"] ;
343 -> 344 ;
345 [label="X[0] <= 0.0902\ngini = 0.0144794500186\nsamples = 686", shape="box"] ;
344 -> 345 ;
346 [label="gini = 0.0000\nsamples = 681\nvalue = [ 240.43572542    0.        ]", shape="box"] ;
345 -> 346 ;
347 [label="gini = 0.4978\nsamples = 5\nvalue = [ 1.55549915  1.77778584]", shape="box"] ;
345 -> 347 ;
348 [label="X[12] <= 0.5000\ngini = 0.0569940242401\nsamples = 671", shape="box"] ;
344 -> 348 ;
349 [label="X[0] <= 0.0755\ngini = 0.0372840332453\nsamples = 525", shape="box"] ;
348 -> 349 ;
350 [label="gini = 0.0000\nsamples = 501\nvalue = [ 175.99361787    0.        ]", shape="box"] ;
349 -> 350 ;
351 [label="gini = 0.4352\nsamples = 24\nvalue = [ 7.55528158  3.55557167]", shape="box"] ;
349 -> 351 ;
352 [label="X[5] <= 0.1790\ngini = 0.120711885249\nsamples = 146", shape="box"] ;
348 -> 352 ;
353 [label="gini = 0.3423\nsamples = 40\nvalue = [ 12.66620735   3.55557167]", shape="box"] ;
352 -> 353 ;
354 [label="gini = 0.0000\nsamples = 106\nvalue = [ 38.8874787   0.       ]", shape="box"] ;
352 -> 354 ;
355 [label="X[8] <= 0.5000\ngini = 0.207212620045\nsamples = 509", shape="box"] ;
343 -> 355 ;
356 [label="X[5] <= 0.2284\ngini = 0.245717534108\nsamples = 281", shape="box"] ;
355 -> 356 ;
357 [label="gini = 0.4491\nsamples = 67\nvalue = [ 20.66591725  10.66671502]", shape="box"] ;
356 -> 357 ;
358 [label="X[10] <= 0.5000\ngini = 0.124128668232\nsamples = 214", shape="box"] ;
356 -> 358 ;
359 [label="X[14] <= 0.5000\ngini = 0.14370540418\nsamples = 186", shape="box"] ;
358 -> 359 ;
360 [label="X[3] <= 0.9822\ngini = 0.150408746331\nsamples = 179", shape="box"] ;
359 -> 360 ;
361 [label="gini = 0.0000\nsamples = 62\nvalue = [ 21.55477391   0.        ]", shape="box"] ;
360 -> 361 ;
362 [label="X[3] <= 0.9824\ngini = 0.214917074309\nsamples = 117", shape="box"] ;
360 -> 362 ;
363 [label="gini = 0.2311\nsamples = 39\nvalue = [ 11.55513653   1.77778584]", shape="box"] ;
362 -> 363 ;
364 [label="gini = 0.2076\nsamples = 78\nvalue = [ 26.66569968   3.55557167]", shape="box"] ;
362 -> 364 ;
365 [label="gini = 0.0000\nsamples = 7\nvalue = [ 3.33321246  0.        ]", shape="box"] ;
359 -> 365 ;
366 [label="gini = 0.0000\nsamples = 28\nvalue = [ 11.77735069   0.        ]", shape="box"] ;
358 -> 366 ;
367 [label="X[12] <= 0.5000\ngini = 0.15278297172\nsamples = 228", shape="box"] ;
355 -> 367 ;
368 [label="X[0] <= 0.0847\ngini = 0.103587924862\nsamples = 177", shape="box"] ;
367 -> 368 ;
369 [label="gini = 0.0000\nsamples = 171\nvalue = [ 60.22003844   0.        ]", shape="box"] ;
368 -> 369 ;
370 [label="gini = 0.3628\nsamples = 6\nvalue = [ 1.11107082  3.55557167]", shape="box"] ;
368 -> 370 ;
371 [label="gini = 0.2873\nsamples = 51\nvalue = [ 16.88827646   3.55557167]", shape="box"] ;
367 -> 371 ;
372 [label="X[4] <= 0.3577\ngini = 0.0347278128745\nsamples = 2850", shape="box"] ;
342 -> 372 ;
373 [label="X[10] <= 0.5000\ngini = 0.0313248938916\nsamples = 1908", shape="box"] ;
372 -> 373 ;
374 [label="X[5] <= 0.5123\ngini = 0.0411674446033\nsamples = 1440", shape="box"] ;
373 -> 374 ;
375 [label="X[14] <= 0.5000\ngini = 0.0350165179554\nsamples = 1421", shape="box"] ;
374 -> 375 ;
376 [label="X[11] <= 0.5000\ngini = 0.0377056009924\nsamples = 1317", shape="box"] ;
375 -> 376 ;
377 [label="X[8] <= 0.5000\ngini = 0.038337755331\nsamples = 1296", shape="box"] ;
376 -> 377 ;
378 [label="X[0] <= 0.0517\ngini = 0.0215761768841\nsamples = 938", shape="box"] ;
377 -> 378 ;
379 [label="gini = 0.0000\nsamples = 748\nvalue = [ 256.87957356    0.        ]", shape="box"] ;
378 -> 379 ;
380 [label="X[0] <= 0.0520\ngini = 0.0976038863304\nsamples = 190", shape="box"] ;
378 -> 380 ;
381 [label="gini = 0.1975\nsamples = 2\nvalue = [ 0.22221416  1.77778584]", shape="box"] ;
380 -> 381 ;
382 [label="X[0] <= 0.0722\ngini = 0.0515786778913\nsamples = 188", shape="box"] ;
380 -> 382 ;
383 [label="gini = 0.0000\nsamples = 131\nvalue = [ 45.99833194   0.        ]", shape="box"] ;
382 -> 383 ;
384 [label="gini = 0.1542\nsamples = 57\nvalue = [ 19.33263227   1.77778584]", shape="box"] ;
382 -> 384 ;
385 [label="X[12] <= 0.5000\ngini = 0.0794681936653\nsamples = 358", shape="box"] ;
377 -> 385 ;
386 [label="X[0] <= 0.0863\ngini = 0.0959503331206\nsamples = 286", shape="box"] ;
385 -> 386 ;
387 [label="gini = 0.0000\nsamples = 278\nvalue = [ 97.55201799   0.        ]", shape="box"] ;
386 -> 387 ;
388 [label="gini = 0.4444\nsamples = 8\nvalue = [ 2.66656997  5.33335751]", shape="box"] ;
386 -> 388 ;
389 [label="gini = -0.0000\nsamples = 72\nvalue = [ 23.11027305   0.        ]", shape="box"] ;
385 -> 389 ;
390 [label="gini = -0.0000\nsamples = 21\nvalue = [ 7.77749574  0.        ]", shape="box"] ;
376 -> 390 ;
391 [label="gini = -0.0000\nsamples = 104\nvalue = [ 36.22090873   0.        ]", shape="box"] ;
375 -> 391 ;
392 [label="gini = 0.3261\nsamples = 19\nvalue = [ 6.88863908  1.77778584]", shape="box"] ;
374 -> 392 ;
393 [label="gini = 0.0000\nsamples = 468\nvalue = [ 162.8829822    0.       ]", shape="box"] ;
373 -> 393 ;
394 [label="X[0] <= 0.0751\ngini = 0.0414875204776\nsamples = 942", shape="box"] ;
372 -> 394 ;
395 [label="gini = 0.0000\nsamples = 888\nvalue = [ 309.76654458    0.        ]", shape="box"] ;
394 -> 395 ;
396 [label="gini = 0.3995\nsamples = 54\nvalue = [ 18.66598977   7.11114334]", shape="box"] ;
394 -> 396 ;
397 [label="X[4] <= 0.4958\ngini = 0.296857761541\nsamples = 735", shape="box"] ;
341 -> 397 ;
398 [label="X[11] <= 0.5000\ngini = 0.337966293525\nsamples = 500", shape="box"] ;
397 -> 398 ;
399 [label="X[12] <= 0.5000\ngini = 0.335933331638\nsamples = 492", shape="box"] ;
398 -> 399 ;
400 [label="X[7] <= 0.7757\ngini = 0.327144490713\nsamples = 421", shape="box"] ;
399 -> 400 ;
401 [label="X[5] <= 0.5000\ngini = 0.327155608359\nsamples = 313", shape="box"] ;
400 -> 401 ;
402 [label="X[0] <= 0.1075\ngini = 0.338802115625\nsamples = 301", shape="box"] ;
401 -> 402 ;
403 [label="gini = 0.4315\nsamples = 62\nvalue = [ 19.33263227   8.88892918]", shape="box"] ;
402 -> 403 ;
404 [label="X[8] <= 0.5000\ngini = 0.285366926618\nsamples = 239", shape="box"] ;
402 -> 404 ;
405 [label="X[0] <= 0.1747\ngini = 0.265342294383\nsamples = 171", shape="box"] ;
404 -> 405 ;
406 [label="X[14] <= 0.5000\ngini = 0.338323562566\nsamples = 114", shape="box"] ;
405 -> 406 ;
407 [label="X[5] <= 0.4753\ngini = 0.34472731829\nsamples = 108", shape="box"] ;
406 -> 407 ;
408 [label="X[5] <= 0.1173\ngini = 0.332755562319\nsamples = 103", shape="box"] ;
407 -> 408 ;
409 [label="gini = 0.4444\nsamples = 12\nvalue = [ 3.55542662  7.11114334]", shape="box"] ;
408 -> 409 ;
410 [label="gini = 0.3179\nsamples = 91\nvalue = [ 20.66591725  83.55593429]", shape="box"] ;
408 -> 410 ;
411 [label="gini = 0.0000\nsamples = 5\nvalue = [ 1.55549915  0.        ]", shape="box"] ;
407 -> 411 ;
412 [label="gini = 0.2337\nsamples = 6\nvalue = [ 1.11107082  7.11114334]", shape="box"] ;
406 -> 412 ;
413 [label="gini = 0.1515\nsamples = 57\nvalue = [  7.9997099  88.8892918]", shape="box"] ;
405 -> 413 ;
414 [label="gini = 0.3354\nsamples = 68\nvalue = [ 17.33270479  64.0002901 ]", shape="box"] ;
404 -> 414 ;
415 [label="gini = 0.1107\nsamples = 12\nvalue = [  1.33328498  21.33343003]", shape="box"] ;
401 -> 415 ;
416 [label="X[3] <= 0.9808\ngini = 0.327111343847\nsamples = 108", shape="box"] ;
400 -> 416 ;
417 [label="gini = 0.2925\nsamples = 46\nvalue = [  9.99963738  46.22243174]", shape="box"] ;
416 -> 417 ;
418 [label="gini = 0.3556\nsamples = 62\nvalue = [ 14.44392066  48.00021757]", shape="box"] ;
416 -> 418 ;
419 [label="gini = 0.3849\nsamples = 71\nvalue = [ 19.99927476  56.88914675]", shape="box"] ;
399 -> 419 ;
420 [label="gini = 0.4734\nsamples = 8\nvalue = [ 2.22214164  3.55557167]", shape="box"] ;
398 -> 420 ;
421 [label="X[12] <= 0.5000\ngini = 0.221726682538\nsamples = 235", shape="box"] ;
397 -> 421 ;
422 [label="X[0] <= 0.1081\ngini = 0.213434330809\nsamples = 156", shape="box"] ;
421 -> 422 ;
423 [label="gini = 0.4537\nsamples = 35\nvalue = [ 9.99963738  5.33335751]", shape="box"] ;
422 -> 423 ;
424 [label="X[3] <= 0.9828\ngini = 0.152772583974\nsamples = 121", shape="box"] ;
422 -> 424 ;
425 [label="X[3] <= 0.9820\ngini = 0.140902913657\nsamples = 116", shape="box"] ;
424 -> 425 ;
426 [label="gini = 0.1271\nsamples = 83\nvalue = [  10.66627987  145.77843855]", shape="box"] ;
425 -> 426 ;
427 [label="gini = 0.1800\nsamples = 33\nvalue = [  5.33313994  48.00021757]", shape="box"] ;
425 -> 427 ;
428 [label="gini = 0.5000\nsamples = 5\nvalue = [ 1.77771331  1.77778584]", shape="box"] ;
424 -> 428 ;
429 [label="gini = 0.2372\nsamples = 79\nvalue = [  16.44384813  103.11157849]", shape="box"] ;
421 -> 429 ;
430 [label="X[5] <= 0.2778\ngini = 0.167695414941\nsamples = 241", shape="box"] ;
268 -> 430 ;
431 [label="gini = -0.0000\nsamples = 85\nvalue = [ 29.99891214   0.        ]", shape="box"] ;
430 -> 431 ;
432 [label="X[10] <= 0.5000\ngini = 0.232428899364\nsamples = 156", shape="box"] ;
430 -> 432 ;
433 [label="X[5] <= 0.2901\ngini = 0.29543827482\nsamples = 116", shape="box"] ;
432 -> 433 ;
434 [label="gini = 0.1975\nsamples = 3\nvalue = [ 0.44442833  3.55557167]", shape="box"] ;
433 -> 434 ;
435 [label="X[0] <= 0.2037\ngini = 0.207618933609\nsamples = 113", shape="box"] ;
433 -> 435 ;
436 [label="gini = 0.0000\nsamples = 111\nvalue = [ 39.99854952   0.        ]", shape="box"] ;
435 -> 436 ;
437 [label="gini = -0.0000\nsamples = 2\nvalue = [ 0.          5.33335751]", shape="box"] ;
435 -> 437 ;
438 [label="gini = 0.0000\nsamples = 40\nvalue = [ 16.88827646   0.        ]", shape="box"] ;
432 -> 438 ;
}