digraph Tree {
0 [label="X[0] <= 1.2072\nmse = 0.00634328000046\nsamples = 8067", shape="box"] ;
1 [label="X[1] <= 0.8401\nmse = 0.00311928273703\nsamples = 7489", shape="box"] ;
0 -> 1 ;
2 [label="X[1] <= -0.2952\nmse = 0.000923922509049\nsamples = 6051", shape="box"] ;
1 -> 2 ;
3 [label="X[1] <= -1.1381\nmse = 0.000196855489533\nsamples = 3385", shape="box"] ;
2 -> 3 ;
4 [label="X[1] <= -2.2480\nmse = 1.14773016595e-05\nsamples = 902", shape="box"] ;
3 -> 4 ;
5 [label="mse = 0.0000\nsamples = 276\nvalue = [ 0.00148577]", shape="box"] ;
4 -> 5 ;
6 [label="mse = 0.0000\nsamples = 626\nvalue = [ 0.0005387]", shape="box"] ;
4 -> 6 ;
7 [label="X[1] <= -0.6203\nmse = 0.000260296043774\nsamples = 2483", shape="box"] ;
3 -> 7 ;
8 [label="mse = 0.0007\nsamples = 588\nvalue = [ 0.01108056]", shape="box"] ;
7 -> 8 ;
9 [label="mse = 0.0001\nsamples = 1895\nvalue = [ 0.00266129]", shape="box"] ;
7 -> 9 ;
10 [label="X[2] <= -0.4103\nmse = 0.00174986412038\nsamples = 2666", shape="box"] ;
2 -> 10 ;
11 [label="X[1] <= -0.2455\nmse = 0.0052398064802\nsamples = 493", shape="box"] ;
10 -> 11 ;
12 [label="mse = 0.0055\nsamples = 423\nvalue = [ 0.06436952]", shape="box"] ;
11 -> 12 ;
13 [label="mse = 0.0000\nsamples = 70\nvalue = [ 0.00054434]", shape="box"] ;
11 -> 13 ;
14 [label="X[1] <= 0.4213\nmse = 0.000545727076062\nsamples = 2173", shape="box"] ;
10 -> 14 ;
15 [label="mse = 0.0016\nsamples = 442\nvalue = [ 0.01993816]", shape="box"] ;
14 -> 15 ;
16 [label="mse = 0.0002\nsamples = 1731\nvalue = [ 0.00505879]", shape="box"] ;
14 -> 16 ;
17 [label="X[0] <= 0.9857\nmse = 0.0118124741423\nsamples = 1438", shape="box"] ;
1 -> 17 ;
18 [label="X[2] <= 0.3042\nmse = 0.00239367887985\nsamples = 1192", shape="box"] ;
17 -> 18 ;
19 [label="X[1] <= 1.0368\nmse = 0.00255409680361\nsamples = 1115", shape="box"] ;
18 -> 19 ;
20 [label="mse = 0.0026\nsamples = 1085\nvalue = [ 0.0104238]", shape="box"] ;
19 -> 20 ;
21 [label="mse = 0.0006\nsamples = 30\nvalue = [ 0.02073628]", shape="box"] ;
19 -> 21 ;
22 [label="mse = 0.0000\nsamples = 77\nvalue = [ 0.00299138]", shape="box"] ;
18 -> 22 ;
23 [label="X[1] <= 0.8477\nmse = 0.0394569989787\nsamples = 246", shape="box"] ;
17 -> 23 ;
24 [label="X[1] <= 0.8419\nmse = 0.00807479788696\nsamples = 92", shape="box"] ;
23 -> 24 ;
25 [label="mse = 0.0083\nsamples = 77\nvalue = [ 0.38193808]", shape="box"] ;
24 -> 25 ;
26 [label="mse = 0.0031\nsamples = 15\nvalue = [ 0.45114091]", shape="box"] ;
24 -> 26 ;
27 [label="X[0] <= 1.0153\nmse = 0.00519809311042\nsamples = 154", shape="box"] ;
23 -> 27 ;
28 [label="mse = 0.0420\nsamples = 11\nvalue = [ 0.18505731]", shape="box"] ;
27 -> 28 ;
29 [label="mse = 0.0000\nsamples = 143\nvalue = [ 0.00379639]", shape="box"] ;
27 -> 29 ;
30 [label="X[1] <= 1.1025\nmse = 0.0349194371093\nsamples = 578", shape="box"] ;
0 -> 30 ;
31 [label="X[0] <= 1.2155\nmse = 0.032626475645\nsamples = 469", shape="box"] ;
30 -> 31 ;
32 [label="mse = 0.0328\nsamples = 465\nvalue = [ 0.11886532]", shape="box"] ;
31 -> 32 ;
33 [label="mse = 0.0029\nsamples = 4\nvalue = [ 0.03447215]", shape="box"] ;
31 -> 33 ;
34 [label="X[1] <= 1.1057\nmse = 0.0392971059127\nsamples = 109", shape="box"] ;
30 -> 34 ;
35 [label="mse = 0.0323\nsamples = 27\nvalue = [ 0.27039809]", shape="box"] ;
34 -> 35 ;
36 [label="X[1] <= 1.1339\nmse = 0.0394491729405\nsamples = 82", shape="box"] ;
34 -> 36 ;
37 [label="mse = 0.0367\nsamples = 65\nvalue = [ 0.18781056]", shape="box"] ;
36 -> 37 ;
38 [label="mse = 0.0481\nsamples = 17\nvalue = [ 0.13728987]", shape="box"] ;
36 -> 38 ;
}