digraph Tree {
node [shape=box] ;
0 [label="X[3] <= -1.3513\nmse = 0.0062\nsamples = 4494\nvalue = 0.0221"] ;
1 [label="X[4] <= -0.4853\nmse = 0.0314\nsamples = 561\nvalue = 0.1053"] ;
0 -> 1 [labeldistance=2.5, labelangle=45, headlabel="True"] ;
2 [label="X[3] <= -1.8011\nmse = 0.0399\nsamples = 351\nvalue = 0.1673"] ;
1 -> 2 ;
3 [label="X[0] <= -0.5453\nmse = 0.034\nsamples = 290\nvalue = 0.1207"] ;
2 -> 3 ;
4 [label="X[3] <= -2.065\nmse = 0.0506\nsamples = 93\nvalue = 0.2612"] ;
3 -> 4 ;
5 [label="mse = 0.0401\nsamples = 31\nvalue = 0.4573"] ;
4 -> 5 ;
6 [label="mse = 0.0271\nsamples = 62\nvalue = 0.1631"] ;
4 -> 6 ;
7 [label="X[3] <= -2.1453\nmse = 0.0124\nsamples = 197\nvalue = 0.0543"] ;
3 -> 7 ;
8 [label="mse = 0.0212\nsamples = 4\nvalue = 0.5132"] ;
7 -> 8 ;
9 [label="mse = 0.0078\nsamples = 193\nvalue = 0.0448"] ;
7 -> 9 ;
10 [label="mse = 0.0086\nsamples = 61\nvalue = 0.389"] ;
2 -> 10 ;
11 [label="X[4] <= -0.0832\nmse = 0.0\nsamples = 210\nvalue = 0.0016"] ;
1 -> 11 ;
12 [label="mse = 0.0\nsamples = 46\nvalue = 0.0058"] ;
11 -> 12 ;
13 [label="X[4] <= -0.0828\nmse = 0.0\nsamples = 164\nvalue = 0.0004"] ;
11 -> 13 ;
14 [label="mse = 0.0\nsamples = 3\nvalue = 0.002"] ;
13 -> 14 ;
15 [label="X[3] <= -1.9123\nmse = 0.0\nsamples = 161\nvalue = 0.0004"] ;
13 -> 15 ;
16 [label="mse = 0.0\nsamples = 31\nvalue = 0.0007"] ;
15 -> 16 ;
17 [label="mse = 0.0\nsamples = 130\nvalue = 0.0003"] ;
15 -> 17 ;
18 [label="X[1] <= -1.875\nmse = 0.0015\nsamples = 3933\nvalue = 0.0102"] ;
0 -> 18 [labeldistance=2.5, labelangle=-45, headlabel="False"] ;
19 [label="mse = 0.0268\nsamples = 2\nvalue = 0.5116"] ;
18 -> 19 ;
20 [label="X[0] <= -0.9864\nmse = 0.0014\nsamples = 3931\nvalue = 0.01"] ;
18 -> 20 ;
21 [label="X[0] <= -1.263\nmse = 0.003\nsamples = 944\nvalue = 0.0234"] ;
20 -> 21 ;
22 [label="X[0] <= -1.4724\nmse = 0.0007\nsamples = 610\nvalue = 0.008"] ;
21 -> 22 ;
23 [label="mse = 0.0025\nsamples = 3\nvalue = 0.1603"] ;
22 -> 23 ;
24 [label="mse = 0.0006\nsamples = 607\nvalue = 0.0073"] ;
22 -> 24 ;
25 [label="X[4] <= 0.1993\nmse = 0.0058\nsamples = 334\nvalue = 0.0516"] ;
21 -> 25 ;
26 [label="mse = 0.0067\nsamples = 256\nvalue = 0.066"] ;
25 -> 26 ;
27 [label="mse = 0.0001\nsamples = 78\nvalue = 0.0043"] ;
25 -> 27 ;
28 [label="X[4] <= 0.2527\nmse = 0.0008\nsamples = 2987\nvalue = 0.0058"] ;
20 -> 28 ;
29 [label="X[1] <= -1.7465\nmse = 0.0014\nsamples = 1631\nvalue = 0.0097"] ;
28 -> 29 ;
30 [label="mse = 0.0453\nsamples = 2\nvalue = 0.7873"] ;
29 -> 30 ;
31 [label="mse = 0.0006\nsamples = 1629\nvalue = 0.0087"] ;
29 -> 31 ;
32 [label="X[4] <= 0.516\nmse = 0.0\nsamples = 1356\nvalue = 0.001"] ;
28 -> 32 ;
33 [label="mse = 0.0\nsamples = 265\nvalue = 0.003"] ;
32 -> 33 ;
34 [label="mse = 0.0\nsamples = 1091\nvalue = 0.0005"] ;
32 -> 34 ;
}